digraph Tree {
node [shape=box, style="filled, rounded", color="black", fontname=helvetica] ;
edge [fontname=helvetica] ;
0 [label=<Staffing(CWuseonly) &le; 0.5<br/>gini = 0.624<br/>samples = 117053<br/>value = [9159, 3009, 63044, 10275, 367, 31199]<br/>class = 2>, fillcolor="#b6f5d0"] ;
1 [label=<CONTACT_TYPE &le; 16.5<br/>gini = 0.608<br/>samples = 112119<br/>value = [8400, 3007, 62400, 8015, 364, 29933]<br/>class = 2>, fillcolor="#b1f5cd"] ;
0 -> 1 [labeldistance=2.5, labelangle=45, headlabel="True"] ;
2 [label=<Client &le; 0.5<br/>gini = 0.577<br/>samples = 86418<br/>value = [5916, 2891, 51129, 4059, 345, 22078]<br/>class = 2>, fillcolor="#a6f3c6"] ;
1 -> 2 ;
3 [label=<Educational &le; 0.5<br/>gini = 0.546<br/>samples = 39413<br/>value = [2190, 1553, 25087, 2563, 129, 7891]<br/>class = 2>, fillcolor="#93f1ba"] ;
2 -> 3 ;
4 [label=<Meeting &le; 0.5<br/>gini = 0.533<br/>samples = 35304<br/>value = [1877, 1408, 22980, 2342, 128, 6569]<br/>class = 2>, fillcolor="#8ef0b7"] ;
3 -> 4 ;
5 [label=<InternalCollateral &le; 0.5<br/>gini = 0.523<br/>samples = 33356<br/>value = [1805, 1307, 22058, 2228, 125, 5833]<br/>class = 2>, fillcolor="#8af0b5"] ;
4 -> 5 ;
6 [label=<ExternalCollateral &le; 0.5<br/>gini = 0.487<br/>samples = 20820<br/>value = [1074, 744, 14321, 740, 81, 3860]<br/>class = 2>, fillcolor="#85efb1"] ;
5 -> 6 ;
7 [label=<LifeSkills &le; 0.5<br/>gini = 0.448<br/>samples = 14467<br/>value = [620, 477, 10410, 425, 25, 2510]<br/>class = 2>, fillcolor="#7ceeac"] ;
6 -> 7 ;
8 [label=<InitialVisit &le; 0.5<br/>gini = 0.439<br/>samples = 13754<br/>value = [541, 452, 9994, 369, 24, 2374]<br/>class = 2>, fillcolor="#7aeeab"] ;
7 -> 8 ;
9 [label=<Educational/Vocational &le; 0.5<br/>gini = 0.436<br/>samples = 13496<br/>value = [529, 446, 9840, 355, 24, 2302]<br/>class = 2>, fillcolor="#7aedaa"] ;
8 -> 9 ;
10 [label=<gini = 0.433<br/>samples = 13091<br/>value = [506, 438, 9584, 342, 24, 2197]<br/>class = 2>, fillcolor="#79edaa"] ;
9 -> 10 ;
11 [label=<gini = 0.529<br/>samples = 405<br/>value = [23, 8, 256, 13, 0, 105]<br/>class = 2>, fillcolor="#9bf2c0"] ;
9 -> 11 ;
12 [label=<Housing &le; 0.5<br/>gini = 0.56<br/>samples = 258<br/>value = [12, 6, 154, 14, 0, 72]<br/>class = 2>, fillcolor="#a8f4c7"] ;
8 -> 12 ;
13 [label=<gini = 0.543<br/>samples = 248<br/>value = [8, 6, 151, 12, 0, 71]<br/>class = 2>, fillcolor="#a6f3c6"] ;
12 -> 13 ;
14 [label=<gini = 0.7<br/>samples = 10<br/>value = [4, 0, 3, 2, 0, 1]<br/>class = 0>, fillcolor="#fbede3"] ;
12 -> 14 ;
15 [label=<Check-in &le; 0.5<br/>gini = 0.604<br/>samples = 713<br/>value = [79, 25, 416, 56, 1, 136]<br/>class = 2>, fillcolor="#9ff2c2"] ;
7 -> 15 ;
16 [label=<CommitDays &le; 657.5<br/>gini = 0.652<br/>samples = 423<br/>value = [47, 19, 222, 41, 1, 93]<br/>class = 2>, fillcolor="#b2f5ce"] ;
15 -> 16 ;
17 [label=<gini = 0.743<br/>samples = 117<br/>value = [16, 7, 42, 19, 0, 33]<br/>class = 2>, fillcolor="#eafcf2"] ;
16 -> 17 ;
18 [label=<gini = 0.599<br/>samples = 306<br/>value = [31, 12, 180, 22, 1, 60]<br/>class = 2>, fillcolor="#9ef2c2"] ;
16 -> 18 ;
19 [label=<CommitDays &le; 111.0<br/>gini = 0.515<br/>samples = 290<br/>value = [32, 6, 194, 15, 0, 43]<br/>class = 2>, fillcolor="#86efb2"] ;
15 -> 19 ;
20 [label=<gini = 0.628<br/>samples = 11<br/>value = [4, 0, 2, 0, 0, 5]<br/>class = 5>, fillcolor="#fbe3f1"] ;
19 -> 20 ;
21 [label=<gini = 0.494<br/>samples = 279<br/>value = [28, 6, 192, 15, 0, 38]<br/>class = 2>, fillcolor="#80eeae"] ;
19 -> 21 ;
22 [label=<CONTACT_TYPE &le; 4.5<br/>gini = 0.566<br/>samples = 6353<br/>value = [454, 267, 3911, 315, 56, 1350]<br/>class = 2>, fillcolor="#9af2bf"] ;
6 -> 22 ;
23 [label=<ClothingVoucher &le; 0.5<br/>gini = 0.416<br/>samples = 634<br/>value = [44, 7, 477, 15, 23, 68]<br/>class = 2>, fillcolor="#70eca4"] ;
22 -> 23 ;
24 [label=<CommitDays &le; 2248.5<br/>gini = 0.413<br/>samples = 632<br/>value = [44, 7, 477, 15, 23, 66]<br/>class = 2>, fillcolor="#6feca4"] ;
23 -> 24 ;
25 [label=<gini = 0.404<br/>samples = 619<br/>value = [44, 7, 471, 15, 20, 62]<br/>class = 2>, fillcolor="#6eeca2"] ;
24 -> 25 ;
26 [label=<gini = 0.639<br/>samples = 13<br/>value = [0, 0, 6, 0, 3, 4]<br/>class = 2>, fillcolor="#d3f9e3"] ;
24 -> 26 ;
27 [label=<gini = 0.0<br/>samples = 2<br/>value = [0, 0, 0, 0, 0, 2]<br/>class = 5>, fillcolor="#e5399d"] ;
23 -> 27 ;
28 [label=<Educational/Vocational &le; 0.5<br/>gini = 0.579<br/>samples = 5719<br/>value = [410, 260, 3434, 300, 33, 1282]<br/>class = 2>, fillcolor="#9ff2c2"] ;
22 -> 28 ;
29 [label=<Legal &le; 0.5<br/>gini = 0.575<br/>samples = 5337<br/>value = [390, 246, 3243, 287, 33, 1138]<br/>class = 2>, fillcolor="#9cf2c0"] ;
28 -> 29 ;
30 [label=<gini = 0.581<br/>samples = 4546<br/>value = [315, 221, 2716, 246, 14, 1034]<br/>class = 2>, fillcolor="#a0f3c3"] ;
29 -> 30 ;
31 [label=<gini = 0.526<br/>samples = 791<br/>value = [75, 25, 527, 41, 19, 104]<br/>class = 2>, fillcolor="#85efb1"] ;
29 -> 31 ;
32 [label=<Check-in &le; 0.5<br/>gini = 0.603<br/>samples = 382<br/>value = [20, 14, 191, 13, 0, 144]<br/>class = 2>, fillcolor="#d8fae6"] ;
28 -> 32 ;
33 [label=<gini = 0.594<br/>samples = 229<br/>value = [15, 10, 128, 9, 0, 67]<br/>class = 2>, fillcolor="#b4f5d0"] ;
32 -> 33 ;
34 [label=<gini = 0.575<br/>samples = 153<br/>value = [5, 4, 63, 4, 0, 77]<br/>class = 5>, fillcolor="#fbe0f0"] ;
32 -> 34 ;
35 [label=<BehaviorManagement &le; 0.5<br/>gini = 0.575<br/>samples = 12536<br/>value = [731, 563, 7737, 1488, 44, 1973]<br/>class = 2>, fillcolor="#93f1ba"] ;
5 -> 35 ;
36 [label=<Check-in &le; 0.5<br/>gini = 0.554<br/>samples = 9898<br/>value = [630, 505, 6313, 838, 40, 1572]<br/>class = 2>, fillcolor="#8ef0b7"] ;
35 -> 36 ;
37 [label=<CONTACT_TYPE &le; 5.5<br/>gini = 0.498<br/>samples = 3897<br/>value = [275, 204, 2689, 237, 18, 474]<br/>class = 2>, fillcolor="#7feead"] ;
36 -> 37 ;
38 [label=<SocialServices &le; 0.5<br/>gini = 0.365<br/>samples = 851<br/>value = [54, 7, 669, 19, 6, 96]<br/>class = 2>, fillcolor="#69eb9f"] ;
37 -> 38 ;
39 [label=<gini = 0.353<br/>samples = 835<br/>value = [47, 7, 663, 18, 6, 94]<br/>class = 2>, fillcolor="#67eb9e"] ;
38 -> 39 ;
40 [label=<gini = 0.648<br/>samples = 16<br/>value = [7, 0, 6, 1, 0, 2]<br/>class = 0>, fillcolor="#fcf2eb"] ;
38 -> 40 ;
41 [label=<Educational/Vocational &le; 0.5<br/>gini = 0.53<br/>samples = 3046<br/>value = [221, 197, 2020, 218, 12, 378]<br/>class = 2>, fillcolor="#85efb1"] ;
37 -> 41 ;
42 [label=<gini = 0.521<br/>samples = 2852<br/>value = [199, 192, 1917, 208, 12, 324]<br/>class = 2>, fillcolor="#82efb0"] ;
41 -> 42 ;
43 [label=<gini = 0.624<br/>samples = 194<br/>value = [22, 5, 103, 10, 0, 54]<br/>class = 2>, fillcolor="#baf6d3"] ;
41 -> 43 ;
44 [label=<Legal &le; 0.5<br/>gini = 0.586<br/>samples = 6001<br/>value = [355, 301, 3624, 601, 22, 1098]<br/>class = 2>, fillcolor="#99f2be"] ;
36 -> 44 ;
45 [label=<Guardian &le; 0.5<br/>gini = 0.59<br/>samples = 5621<br/>value = [334, 276, 3360, 579, 11, 1061]<br/>class = 2>, fillcolor="#9bf2bf"] ;
44 -> 45 ;
46 [label=<gini = 0.597<br/>samples = 5284<br/>value = [306, 265, 3123, 566, 11, 1013]<br/>class = 2>, fillcolor="#9df2c1"] ;
45 -> 46 ;
47 [label=<gini = 0.476<br/>samples = 337<br/>value = [28, 11, 237, 13, 0, 48]<br/>class = 2>, fillcolor="#7eeead"] ;
45 -> 47 ;
48 [label=<CommitDays &le; 156.5<br/>gini = 0.496<br/>samples = 380<br/>value = [21, 25, 264, 22, 11, 37]<br/>class = 2>, fillcolor="#7ceeac"] ;
44 -> 48 ;
49 [label=<gini = 0.727<br/>samples = 17<br/>value = [1, 1, 6, 5, 0, 4]<br/>class = 2>, fillcolor="#eefdf4"] ;
48 -> 49 ;
50 [label=<gini = 0.476<br/>samples = 363<br/>value = [20, 24, 258, 17, 11, 33]<br/>class = 2>, fillcolor="#78eda9"] ;
48 -> 50 ;
51 [label=<Mother &le; 0.5<br/>gini = 0.623<br/>samples = 2638<br/>value = [101, 58, 1424, 650, 4, 401]<br/>class = 2>, fillcolor="#b2f5ce"] ;
35 -> 51 ;
52 [label=<CONTACT_TYPE &le; 5.5<br/>gini = 0.631<br/>samples = 2490<br/>value = [92, 54, 1309, 638, 3, 394]<br/>class = 2>, fillcolor="#b7f6d1"] ;
51 -> 52 ;
53 [label=<SocialServices &le; 0.5<br/>gini = 0.508<br/>samples = 241<br/>value = [8, 0, 160, 26, 0, 47]<br/>class = 2>, fillcolor="#8cf0b6"] ;
52 -> 53 ;
54 [label=<gini = 0.48<br/>samples = 228<br/>value = [6, 0, 157, 22, 0, 43]<br/>class = 2>, fillcolor="#85efb1"] ;
53 -> 54 ;
55 [label=<gini = 0.734<br/>samples = 13<br/>value = [2, 0, 3, 4, 0, 4]<br/>class = 3>, fillcolor="#ffffff"] ;
53 -> 55 ;
56 [label=<CommitDays &le; 614.0<br/>gini = 0.639<br/>samples = 2249<br/>value = [84, 54, 1149, 612, 3, 347]<br/>class = 2>, fillcolor="#bef6d6"] ;
52 -> 56 ;
57 [label=<gini = 0.676<br/>samples = 737<br/>value = [24, 20, 315, 237, 1, 140]<br/>class = 2>, fillcolor="#e0fbeb"] ;
56 -> 57 ;
58 [label=<gini = 0.613<br/>samples = 1512<br/>value = [60, 34, 834, 375, 2, 207]<br/>class = 2>, fillcolor="#aff5cc"] ;
56 -> 58 ;
59 [label=<Psychiatric &le; 0.5<br/>gini = 0.383<br/>samples = 148<br/>value = [9, 4, 115, 12, 1, 7]<br/>class = 2>, fillcolor="#69eba0"] ;
51 -> 59 ;
60 [label=<LifeSkills &le; 0.5<br/>gini = 0.321<br/>samples = 138<br/>value = [5, 4, 113, 8, 1, 7]<br/>class = 2>, fillcolor="#5fea99"] ;
59 -> 60 ;
61 [label=<gini = 0.295<br/>samples = 134<br/>value = [5, 4, 112, 7, 1, 5]<br/>class = 2>, fillcolor="#5bea97"] ;
60 -> 61 ;
62 [label=<gini = 0.625<br/>samples = 4<br/>value = [0, 0, 1, 1, 0, 2]<br/>class = 5>, fillcolor="#f6bdde"] ;
60 -> 62 ;
63 [label=<FamilyRelationships &le; 0.5<br/>gini = 0.64<br/>samples = 10<br/>value = [4, 0, 2, 4, 0, 0]<br/>class = 0>, fillcolor="#ffffff"] ;
59 -> 63 ;
64 [label=<gini = 0.444<br/>samples = 6<br/>value = [0, 0, 2, 4, 0, 0]<br/>class = 3>, fillcolor="#9ccef2"] ;
63 -> 64 ;
65 [label=<gini = 0.0<br/>samples = 4<br/>value = [4, 0, 0, 0, 0, 0]<br/>class = 0>, fillcolor="#e58139"] ;
63 -> 65 ;
66 [label=<InternalCollateral &le; 0.5<br/>gini = 0.626<br/>samples = 1948<br/>value = [72, 101, 922, 114, 3, 736]<br/>class = 2>, fillcolor="#e1fbec"] ;
4 -> 66 ;
67 [label=<Check-in &le; 0.5<br/>gini = 0.583<br/>samples = 917<br/>value = [33, 55, 509, 23, 2, 295]<br/>class = 2>, fillcolor="#bbf6d4"] ;
66 -> 67 ;
68 [label=<CommitDays &le; 253.0<br/>gini = 0.525<br/>samples = 416<br/>value = [12, 25, 262, 4, 0, 113]<br/>class = 2>, fillcolor="#9ef2c1"] ;
67 -> 68 ;
69 [label=<CommitDays &le; 216.5<br/>gini = 0.172<br/>samples = 54<br/>value = [0, 2, 49, 0, 0, 3]<br/>class = 2>, fillcolor="#4ce88d"] ;
68 -> 69 ;
70 [label=<CONTACT_TYPE &le; 5.5<br/>gini = 0.089<br/>samples = 43<br/>value = [0, 0, 41, 0, 0, 2]<br/>class = 2>, fillcolor="#43e687"] ;
69 -> 70 ;
71 [label=<gini = 0.32<br/>samples = 5<br/>value = [0, 0, 4, 0, 0, 1]<br/>class = 2>, fillcolor="#6aeca0"] ;
70 -> 71 ;
72 [label=<gini = 0.051<br/>samples = 38<br/>value = [0, 0, 37, 0, 0, 1]<br/>class = 2>, fillcolor="#3ee684"] ;
70 -> 72 ;
73 [label=<ExternalCollateral &le; 0.5<br/>gini = 0.43<br/>samples = 11<br/>value = [0, 2, 8, 0, 0, 1]<br/>class = 2>, fillcolor="#7beeab"] ;
69 -> 73 ;
74 [label=<gini = 0.198<br/>samples = 9<br/>value = [0, 0, 8, 0, 0, 1]<br/>class = 2>, fillcolor="#52e891"] ;
73 -> 74 ;
75 [label=<gini = 0.0<br/>samples = 2<br/>value = [0, 2, 0, 0, 0, 0]<br/>class = 1>, fillcolor="#9de539"] ;
73 -> 75 ;
76 [label=<CommitDays &le; 267.0<br/>gini = 0.556<br/>samples = 362<br/>value = [12, 23, 213, 4, 0, 110]<br/>class = 2>, fillcolor="#aef4cc"] ;
68 -> 76 ;
77 [label=<FamilyMember(s) &le; 0.5<br/>gini = 0.444<br/>samples = 9<br/>value = [0, 3, 0, 0, 0, 6]<br/>class = 5>, fillcolor="#f29cce"] ;
76 -> 77 ;
78 [label=<gini = 0.245<br/>samples = 7<br/>value = [0, 1, 0, 0, 0, 6]<br/>class = 5>, fillcolor="#e95aad"] ;
77 -> 78 ;
79 [label=<gini = 0.0<br/>samples = 2<br/>value = [0, 2, 0, 0, 0, 0]<br/>class = 1>, fillcolor="#9de539"] ;
77 -> 79 ;
80 [label=<InitialVisit &le; 0.5<br/>gini = 0.545<br/>samples = 353<br/>value = [12, 20, 213, 4, 0, 104]<br/>class = 2>, fillcolor="#a8f4c8"] ;
76 -> 80 ;
81 [label=<gini = 0.554<br/>samples = 342<br/>value = [12, 20, 202, 4, 0, 104]<br/>class = 2>, fillcolor="#adf4cb"] ;
80 -> 81 ;
82 [label=<gini = 0.0<br/>samples = 11<br/>value = [0, 0, 11, 0, 0, 0]<br/>class = 2>, fillcolor="#39e581"] ;
80 -> 82 ;
83 [label=<FamilyRelationships &le; 0.5<br/>gini = 0.618<br/>samples = 501<br/>value = [21, 30, 247, 19, 2, 182]<br/>class = 2>, fillcolor="#d7fae5"] ;
67 -> 83 ;
84 [label=<ExternalCollateral &le; 0.5<br/>gini = 0.618<br/>samples = 404<br/>value = [12, 28, 187, 13, 2, 162]<br/>class = 2>, fillcolor="#ebfcf2"] ;
83 -> 84 ;
85 [label=<ClothingVoucher &le; 0.5<br/>gini = 0.595<br/>samples = 304<br/>value = [5, 20, 159, 10, 2, 108]<br/>class = 2>, fillcolor="#cbf8de"] ;
84 -> 85 ;
86 [label=<gini = 0.593<br/>samples = 300<br/>value = [5, 20, 159, 10, 2, 104]<br/>class = 2>, fillcolor="#c7f8dc"] ;
85 -> 86 ;
87 [label=<gini = 0.0<br/>samples = 4<br/>value = [0, 0, 0, 0, 0, 4]<br/>class = 5>, fillcolor="#e5399d"] ;
85 -> 87 ;
88 [label=<CONTACT_TYPE &le; 12.5<br/>gini = 0.618<br/>samples = 100<br/>value = [7, 8, 28, 3, 0, 54]<br/>class = 5>, fillcolor="#f6b8dc"] ;
84 -> 88 ;
89 [label=<gini = 0.598<br/>samples = 92<br/>value = [6, 8, 22, 3, 0, 53]<br/>class = 5>, fillcolor="#f3a7d4"] ;
88 -> 89 ;
90 [label=<gini = 0.406<br/>samples = 8<br/>value = [1, 0, 6, 0, 0, 1]<br/>class = 2>, fillcolor="#72eca5"] ;
88 -> 90 ;
91 [label=<LifeSkills &le; 0.5<br/>gini = 0.562<br/>samples = 97<br/>value = [9, 2, 60, 6, 0, 20]<br/>class = 2>, fillcolor="#98f1be"] ;
83 -> 91 ;
92 [label=<CONTACT_TYPE &le; 5.5<br/>gini = 0.605<br/>samples = 86<br/>value = [9, 2, 49, 6, 0, 20]<br/>class = 2>, fillcolor="#a8f4c8"] ;
91 -> 92 ;
93 [label=<gini = 0.661<br/>samples = 11<br/>value = [3, 0, 4, 4, 0, 0]<br/>class = 2>, fillcolor="#ffffff"] ;
92 -> 93 ;
94 [label=<gini = 0.561<br/>samples = 75<br/>value = [6, 2, 45, 2, 0, 20]<br/>class = 2>, fillcolor="#a5f3c6"] ;
92 -> 94 ;
95 [label=<gini = 0.0<br/>samples = 11<br/>value = [0, 0, 11, 0, 0, 0]<br/>class = 2>, fillcolor="#39e581"] ;
91 -> 95 ;
96 [label=<FamilyRelationships &le; 0.5<br/>gini = 0.645<br/>samples = 1031<br/>value = [39, 46, 413, 91, 1, 441]<br/>class = 5>, fillcolor="#fef6fb"] ;
66 -> 96 ;
97 [label=<BehaviorManagement &le; 0.5<br/>gini = 0.64<br/>samples = 921<br/>value = [33, 43, 345, 78, 1, 421]<br/>class = 5>, fillcolor="#fce5f2"] ;
96 -> 97 ;
98 [label=<CONTACT_TYPE &le; 5.5<br/>gini = 0.628<br/>samples = 836<br/>value = [27, 43, 308, 58, 1, 399]<br/>class = 5>, fillcolor="#fbddee"] ;
97 -> 98 ;
99 [label=<CommitDays &le; 204.0<br/>gini = 0.569<br/>samples = 73<br/>value = [3, 0, 38, 2, 1, 29]<br/>class = 2>, fillcolor="#d6fae5"] ;
98 -> 99 ;
100 [label=<gini = 0.656<br/>samples = 8<br/>value = [3, 0, 0, 2, 0, 3]<br/>class = 0>, fillcolor="#ffffff"] ;
99 -> 100 ;
101 [label=<gini = 0.498<br/>samples = 65<br/>value = [0, 0, 38, 0, 1, 26]<br/>class = 2>, fillcolor="#c2f7d8"] ;
99 -> 101 ;
102 [label=<Legal &le; 0.5<br/>gini = 0.63<br/>samples = 763<br/>value = [24, 43, 270, 56, 0, 370]<br/>class = 5>, fillcolor="#fad7eb"] ;
98 -> 102 ;
103 [label=<gini = 0.629<br/>samples = 761<br/>value = [24, 43, 270, 54, 0, 370]<br/>class = 5>, fillcolor="#fad7eb"] ;
102 -> 103 ;
104 [label=<gini = 0.0<br/>samples = 2<br/>value = [0, 0, 0, 2, 0, 0]<br/>class = 3>, fillcolor="#399de5"] ;
102 -> 104 ;
105 [label=<Vocational &le; 0.5<br/>gini = 0.683<br/>samples = 85<br/>value = [6, 0, 37, 20, 0, 22]<br/>class = 2>, fillcolor="#d0f9e1"] ;
97 -> 105 ;
106 [label=<CommitDays &le; 1005.5<br/>gini = 0.676<br/>samples = 82<br/>value = [6, 0, 37, 17, 0, 22]<br/>class = 2>, fillcolor="#cef8e0"] ;
105 -> 106 ;
107 [label=<gini = 0.64<br/>samples = 57<br/>value = [5, 0, 28, 6, 0, 18]<br/>class = 2>, fillcolor="#ccf8df"] ;
106 -> 107 ;
108 [label=<gini = 0.65<br/>samples = 25<br/>value = [1, 0, 9, 11, 0, 4]<br/>class = 3>, fillcolor="#e6f3fc"] ;
106 -> 108 ;
109 [label=<gini = 0.0<br/>samples = 3<br/>value = [0, 0, 0, 3, 0, 0]<br/>class = 3>, fillcolor="#399de5"] ;
105 -> 109 ;
110 [label=<CommitDays &le; 404.5<br/>gini = 0.567<br/>samples = 110<br/>value = [6, 3, 68, 13, 0, 20]<br/>class = 2>, fillcolor="#95f1bc"] ;
96 -> 110 ;
111 [label=<CommitDays &le; 100.5<br/>gini = 0.691<br/>samples = 28<br/>value = [0, 2, 9, 6, 0, 11]<br/>class = 5>, fillcolor="#fceaf5"] ;
110 -> 111 ;
112 [label=<Legal &le; 0.5<br/>gini = 0.32<br/>samples = 5<br/>value = [0, 0, 1, 4, 0, 0]<br/>class = 3>, fillcolor="#6ab6ec"] ;
111 -> 112 ;
113 [label=<gini = 0.0<br/>samples = 4<br/>value = [0, 0, 0, 4, 0, 0]<br/>class = 3>, fillcolor="#399de5"] ;
112 -> 113 ;
114 [label=<gini = 0.0<br/>samples = 1<br/>value = [0, 0, 1, 0, 0, 0]<br/>class = 2>, fillcolor="#39e581"] ;
112 -> 114 ;
115 [label=<AncillaryServices &le; 0.5<br/>gini = 0.635<br/>samples = 23<br/>value = [0, 2, 8, 2, 0, 11]<br/>class = 5>, fillcolor="#fad7eb"] ;
111 -> 115 ;
116 [label=<gini = 0.571<br/>samples = 21<br/>value = [0, 0, 8, 2, 0, 11]<br/>class = 5>, fillcolor="#f9d1e8"] ;
115 -> 116 ;
117 [label=<gini = 0.0<br/>samples = 2<br/>value = [0, 2, 0, 0, 0, 0]<br/>class = 1>, fillcolor="#9de539"] ;
115 -> 117 ;
118 [label=<Family &le; 0.5<br/>gini = 0.457<br/>samples = 82<br/>value = [6, 1, 59, 7, 0, 9]<br/>class = 2>, fillcolor="#77eda9"] ;
110 -> 118 ;
119 [label=<Housing &le; 0.5<br/>gini = 0.395<br/>samples = 77<br/>value = [3, 1, 59, 7, 0, 7]<br/>class = 2>, fillcolor="#6ceca1"] ;
118 -> 119 ;
120 [label=<gini = 0.301<br/>samples = 64<br/>value = [1, 0, 53, 4, 0, 6]<br/>class = 2>, fillcolor="#5fea99"] ;
119 -> 120 ;
121 [label=<gini = 0.698<br/>samples = 13<br/>value = [2, 1, 6, 3, 0, 1]<br/>class = 2>, fillcolor="#c4f7d9"] ;
119 -> 121 ;
122 [label=<CurfewManagement &le; 0.5<br/>gini = 0.48<br/>samples = 5<br/>value = [3, 0, 0, 0, 0, 2]<br/>class = 0>, fillcolor="#f6d5bd"] ;
118 -> 122 ;
123 [label=<gini = 0.0<br/>samples = 3<br/>value = [3, 0, 0, 0, 0, 0]<br/>class = 0>, fillcolor="#e58139"] ;
122 -> 123 ;
124 [label=<gini = 0.0<br/>samples = 2<br/>value = [0, 0, 0, 0, 0, 2]<br/>class = 5>, fillcolor="#e5399d"] ;
122 -> 124 ;
125 [label=<CommitDays &le; 528.0<br/>gini = 0.624<br/>samples = 4109<br/>value = [313, 145, 2107, 221, 1, 1322]<br/>class = 2>, fillcolor="#c7f8dc"] ;
3 -> 125 ;
126 [label=<Pass &le; 0.5<br/>gini = 0.595<br/>samples = 1041<br/>value = [90, 37, 600, 58, 0, 256]<br/>class = 2>, fillcolor="#a8f4c8"] ;
125 -> 126 ;
127 [label=<InternalCollateral &le; 0.5<br/>gini = 0.587<br/>samples = 1005<br/>value = [82, 37, 591, 57, 0, 238]<br/>class = 2>, fillcolor="#a4f3c5"] ;
126 -> 127 ;
128 [label=<AncillaryServices &le; 0.5<br/>gini = 0.54<br/>samples = 641<br/>value = [48, 15, 407, 29, 0, 142]<br/>class = 2>, fillcolor="#96f1bc"] ;
127 -> 128 ;
129 [label=<FamilyRelationships &le; 0.5<br/>gini = 0.508<br/>samples = 574<br/>value = [35, 15, 381, 20, 0, 123]<br/>class = 2>, fillcolor="#8ef0b7"] ;
128 -> 129 ;
130 [label=<Meeting &le; 0.5<br/>gini = 0.532<br/>samples = 360<br/>value = [16, 13, 226, 10, 0, 95]<br/>class = 2>, fillcolor="#9df2c1"] ;
129 -> 130 ;
131 [label=<gini = 0.522<br/>samples = 354<br/>value = [16, 13, 226, 8, 0, 91]<br/>class = 2>, fillcolor="#99f2be"] ;
130 -> 131 ;
132 [label=<gini = 0.444<br/>samples = 6<br/>value = [0, 0, 0, 2, 0, 4]<br/>class = 5>, fillcolor="#f29cce"] ;
130 -> 132 ;
133 [label=<LevelReview &le; 0.5<br/>gini = 0.448<br/>samples = 214<br/>value = [19, 2, 155, 10, 0, 28]<br/>class = 2>, fillcolor="#78eda9"] ;
129 -> 133 ;
134 [label=<gini = 0.431<br/>samples = 210<br/>value = [17, 2, 155, 10, 0, 26]<br/>class = 2>, fillcolor="#74eda7"] ;
133 -> 134 ;
135 [label=<gini = 0.5<br/>samples = 4<br/>value = [2, 0, 0, 0, 0, 2]<br/>class = 0>, fillcolor="#ffffff"] ;
133 -> 135 ;
136 [label=<SubstanceAbuse &le; 0.5<br/>gini = 0.713<br/>samples = 67<br/>value = [13, 0, 26, 9, 0, 19]<br/>class = 2>, fillcolor="#e2fbed"] ;
128 -> 136 ;
137 [label=<InitialVisit &le; 0.5<br/>gini = 0.722<br/>samples = 47<br/>value = [11, 0, 13, 6, 0, 17]<br/>class = 5>, fillcolor="#fce8f3"] ;
136 -> 137 ;
138 [label=<gini = 0.734<br/>samples = 42<br/>value = [11, 0, 13, 6, 0, 12]<br/>class = 2>, fillcolor="#f8fefb"] ;
137 -> 138 ;
139 [label=<gini = 0.0<br/>samples = 5<br/>value = [0, 0, 0, 0, 0, 5]<br/>class = 5>, fillcolor="#e5399d"] ;
137 -> 139 ;
140 [label=<Housing &le; 0.5<br/>gini = 0.535<br/>samples = 20<br/>value = [2, 0, 13, 3, 0, 2]<br/>class = 2>, fillcolor="#8bf0b5"] ;
136 -> 140 ;
141 [label=<gini = 0.375<br/>samples = 4<br/>value = [0, 0, 0, 3, 0, 1]<br/>class = 3>, fillcolor="#7bbeee"] ;
140 -> 141 ;
142 [label=<gini = 0.32<br/>samples = 16<br/>value = [2, 0, 13, 0, 0, 1]<br/>class = 2>, fillcolor="#63eb9c"] ;
140 -> 142 ;
143 [label=<CommitDays &le; 516.0<br/>gini = 0.657<br/>samples = 364<br/>value = [34, 22, 184, 28, 0, 96]<br/>class = 2>, fillcolor="#bef6d6"] ;
127 -> 143 ;
144 [label=<AncillaryServices &le; 0.5<br/>gini = 0.648<br/>samples = 353<br/>value = [33, 22, 184, 26, 0, 88]<br/>class = 2>, fillcolor="#b7f6d1"] ;
143 -> 144 ;
145 [label=<CommitDays &le; 490.5<br/>gini = 0.662<br/>samples = 316<br/>value = [29, 20, 157, 25, 0, 85]<br/>class = 2>, fillcolor="#c1f7d8"] ;
144 -> 145 ;
146 [label=<gini = 0.67<br/>samples = 303<br/>value = [27, 20, 146, 25, 0, 85]<br/>class = 2>, fillcolor="#c8f8dc"] ;
145 -> 146 ;
147 [label=<gini = 0.26<br/>samples = 13<br/>value = [2, 0, 11, 0, 0, 0]<br/>class = 2>, fillcolor="#5dea98"] ;
145 -> 147 ;
148 [label=<Mother &le; 0.5<br/>gini = 0.446<br/>samples = 37<br/>value = [4, 2, 27, 1, 0, 3]<br/>class = 2>, fillcolor="#75eda7"] ;
144 -> 148 ;
149 [label=<gini = 0.354<br/>samples = 29<br/>value = [0, 2, 23, 1, 0, 3]<br/>class = 2>, fillcolor="#67eb9e"] ;
148 -> 149 ;
150 [label=<gini = 0.5<br/>samples = 8<br/>value = [4, 0, 4, 0, 0, 0]<br/>class = 0>, fillcolor="#ffffff"] ;
148 -> 150 ;
151 [label=<ExternalCollateral &le; 0.5<br/>gini = 0.43<br/>samples = 11<br/>value = [1, 0, 0, 2, 0, 8]<br/>class = 5>, fillcolor="#ee7bbe"] ;
143 -> 151 ;
152 [label=<gini = 0.0<br/>samples = 8<br/>value = [0, 0, 0, 0, 0, 8]<br/>class = 5>, fillcolor="#e5399d"] ;
151 -> 152 ;
153 [label=<Vocational &le; 0.5<br/>gini = 0.444<br/>samples = 3<br/>value = [1, 0, 0, 2, 0, 0]<br/>class = 3>, fillcolor="#9ccef2"] ;
151 -> 153 ;
154 [label=<gini = 0.0<br/>samples = 1<br/>value = [1, 0, 0, 0, 0, 0]<br/>class = 0>, fillcolor="#e58139"] ;
153 -> 154 ;
155 [label=<gini = 0.0<br/>samples = 2<br/>value = [0, 0, 0, 2, 0, 0]<br/>class = 3>, fillcolor="#399de5"] ;
153 -> 155 ;
156 [label=<CommitDays &le; 326.5<br/>gini = 0.637<br/>samples = 36<br/>value = [8, 0, 9, 1, 0, 18]<br/>class = 5>, fillcolor="#f6bdde"] ;
126 -> 156 ;
157 [label=<Parent/Guardian &le; 0.5<br/>gini = 0.645<br/>samples = 11<br/>value = [4, 0, 5, 1, 0, 1]<br/>class = 2>, fillcolor="#e3fbed"] ;
156 -> 157 ;
158 [label=<CommitDays &le; 219.0<br/>gini = 0.612<br/>samples = 7<br/>value = [4, 0, 1, 1, 0, 1]<br/>class = 0>, fillcolor="#f2c09c"] ;
157 -> 158 ;
159 [label=<InternalCollateral &le; 0.5<br/>gini = 0.5<br/>samples = 2<br/>value = [0, 0, 1, 1, 0, 0]<br/>class = 2>, fillcolor="#ffffff"] ;
158 -> 159 ;
160 [label=<gini = 0.0<br/>samples = 1<br/>value = [0, 0, 1, 0, 0, 0]<br/>class = 2>, fillcolor="#39e581"] ;
159 -> 160 ;
161 [label=<gini = 0.0<br/>samples = 1<br/>value = [0, 0, 0, 1, 0, 0]<br/>class = 3>, fillcolor="#399de5"] ;
159 -> 161 ;
162 [label=<Family &le; 0.5<br/>gini = 0.32<br/>samples = 5<br/>value = [4, 0, 0, 0, 0, 1]<br/>class = 0>, fillcolor="#eca06a"] ;
158 -> 162 ;
163 [label=<gini = 0.0<br/>samples = 4<br/>value = [4, 0, 0, 0, 0, 0]<br/>class = 0>, fillcolor="#e58139"] ;
162 -> 163 ;
164 [label=<gini = 0.0<br/>samples = 1<br/>value = [0, 0, 0, 0, 0, 1]<br/>class = 5>, fillcolor="#e5399d"] ;
162 -> 164 ;
165 [label=<gini = 0.0<br/>samples = 4<br/>value = [0, 0, 4, 0, 0, 0]<br/>class = 2>, fillcolor="#39e581"] ;
157 -> 165 ;
166 [label=<Meeting &le; 0.5<br/>gini = 0.486<br/>samples = 25<br/>value = [4, 0, 4, 0, 0, 17]<br/>class = 5>, fillcolor="#ef84c2"] ;
156 -> 166 ;
167 [label=<FamilyRelationships &le; 0.5<br/>gini = 0.609<br/>samples = 17<br/>value = [4, 0, 4, 0, 0, 9]<br/>class = 5>, fillcolor="#f5b3d9"] ;
166 -> 167 ;
168 [label=<CommitDays &le; 439.0<br/>gini = 0.32<br/>samples = 10<br/>value = [2, 0, 0, 0, 0, 8]<br/>class = 5>, fillcolor="#ec6ab6"] ;
167 -> 168 ;
169 [label=<gini = 0.5<br/>samples = 4<br/>value = [2, 0, 0, 0, 0, 2]<br/>class = 0>, fillcolor="#ffffff"] ;
168 -> 169 ;
170 [label=<gini = 0.0<br/>samples = 6<br/>value = [0, 0, 0, 0, 0, 6]<br/>class = 5>, fillcolor="#e5399d"] ;
168 -> 170 ;
171 [label=<SupervisedVisit &le; 0.5<br/>gini = 0.571<br/>samples = 7<br/>value = [2, 0, 4, 0, 0, 1]<br/>class = 2>, fillcolor="#b0f5cd"] ;
167 -> 171 ;
172 [label=<gini = 0.625<br/>samples = 4<br/>value = [2, 0, 1, 0, 0, 1]<br/>class = 0>, fillcolor="#f6d5bd"] ;
171 -> 172 ;
173 [label=<gini = 0.0<br/>samples = 3<br/>value = [0, 0, 3, 0, 0, 0]<br/>class = 2>, fillcolor="#39e581"] ;
171 -> 173 ;
174 [label=<gini = 0.0<br/>samples = 8<br/>value = [0, 0, 0, 0, 0, 8]<br/>class = 5>, fillcolor="#e5399d"] ;
166 -> 174 ;
175 [label=<ExternalCollateral &le; 0.5<br/>gini = 0.629<br/>samples = 3068<br/>value = [223, 108, 1507, 163, 1, 1066]<br/>class = 2>, fillcolor="#d3f9e3"] ;
125 -> 175 ;
176 [label=<InternalCollateral &le; 0.5<br/>gini = 0.611<br/>samples = 2105<br/>value = [154, 70, 1111, 97, 1, 672]<br/>class = 2>, fillcolor="#c2f7d8"] ;
175 -> 176 ;
177 [label=<LifeSkills &le; 0.5<br/>gini = 0.572<br/>samples = 1323<br/>value = [84, 38, 761, 40, 0, 400]<br/>class = 2>, fillcolor="#b2f5ce"] ;
176 -> 177 ;
178 [label=<HealthServices &le; 0.5<br/>gini = 0.55<br/>samples = 1101<br/>value = [58, 29, 654, 24, 0, 336]<br/>class = 2>, fillcolor="#adf4cb"] ;
177 -> 178 ;
179 [label=<Meeting &le; 0.5<br/>gini = 0.539<br/>samples = 1017<br/>value = [49, 25, 618, 23, 0, 302]<br/>class = 2>, fillcolor="#a7f4c7"] ;
178 -> 179 ;
180 [label=<gini = 0.533<br/>samples = 960<br/>value = [47, 24, 593, 22, 0, 274]<br/>class = 2>, fillcolor="#a3f3c4"] ;
179 -> 180 ;
181 [label=<gini = 0.564<br/>samples = 57<br/>value = [2, 1, 25, 1, 0, 28]<br/>class = 5>, fillcolor="#fdecf6"] ;
179 -> 181 ;
182 [label=<Mother &le; 0.5<br/>gini = 0.639<br/>samples = 84<br/>value = [9, 4, 36, 1, 0, 34]<br/>class = 2>, fillcolor="#f7fefa"] ;
178 -> 182 ;
183 [label=<gini = 0.638<br/>samples = 61<br/>value = [9, 2, 30, 1, 0, 19]<br/>class = 2>, fillcolor="#cbf8de"] ;
182 -> 183 ;
184 [label=<gini = 0.499<br/>samples = 23<br/>value = [0, 2, 6, 0, 0, 15]<br/>class = 5>, fillcolor="#f196cb"] ;
182 -> 184 ;
185 [label=<CONTACT_TYPE &le; 8.0<br/>gini = 0.664<br/>samples = 222<br/>value = [26, 9, 107, 16, 0, 64]<br/>class = 2>, fillcolor="#c9f8dd"] ;
177 -> 185 ;
186 [label=<CommitDays &le; 1495.0<br/>gini = 0.707<br/>samples = 155<br/>value = [21, 8, 62, 14, 0, 50]<br/>class = 2>, fillcolor="#e8fcf1"] ;
185 -> 186 ;
187 [label=<gini = 0.693<br/>samples = 142<br/>value = [20, 4, 61, 14, 0, 43]<br/>class = 2>, fillcolor="#dbfae8"] ;
186 -> 187 ;
188 [label=<gini = 0.604<br/>samples = 13<br/>value = [1, 4, 1, 0, 0, 7]<br/>class = 5>, fillcolor="#f6bdde"] ;
186 -> 188 ;
189 [label=<Guardian &le; 0.5<br/>gini = 0.499<br/>samples = 67<br/>value = [5, 1, 45, 2, 0, 14]<br/>class = 2>, fillcolor="#8bf0b5"] ;
185 -> 189 ;
190 [label=<gini = 0.35<br/>samples = 29<br/>value = [1, 1, 23, 0, 0, 4]<br/>class = 2>, fillcolor="#69eb9f"] ;
189 -> 190 ;
191 [label=<gini = 0.582<br/>samples = 38<br/>value = [4, 0, 22, 2, 0, 10]<br/>class = 2>, fillcolor="#aaf4c9"] ;
189 -> 191 ;
192 [label=<CONTACT_TYPE &le; 5.5<br/>gini = 0.664<br/>samples = 782<br/>value = [70, 32, 350, 57, 1, 272]<br/>class = 2>, fillcolor="#e1fbec"] ;
176 -> 192 ;
193 [label=<Family &le; 0.5<br/>gini = 0.549<br/>samples = 182<br/>value = [19, 3, 113, 5, 0, 42]<br/>class = 2>, fillcolor="#9bf2bf"] ;
192 -> 193 ;
194 [label=<CommitDays &le; 1146.0<br/>gini = 0.533<br/>samples = 178<br/>value = [15, 3, 113, 5, 0, 42]<br/>class = 2>, fillcolor="#98f1bd"] ;
193 -> 194 ;
195 [label=<gini = 0.517<br/>samples = 128<br/>value = [15, 3, 85, 4, 0, 21]<br/>class = 2>, fillcolor="#89efb4"] ;
194 -> 195 ;
196 [label=<gini = 0.51<br/>samples = 50<br/>value = [0, 0, 28, 1, 0, 21]<br/>class = 2>, fillcolor="#cff9e1"] ;
194 -> 196 ;
197 [label=<gini = 0.0<br/>samples = 4<br/>value = [4, 0, 0, 0, 0, 0]<br/>class = 0>, fillcolor="#e58139"] ;
193 -> 197 ;
198 [label=<CommitDays &le; 691.0<br/>gini = 0.68<br/>samples = 600<br/>value = [51, 29, 237, 52, 1, 230]<br/>class = 2>, fillcolor="#fbfffd"] ;
192 -> 198 ;
199 [label=<Pass &le; 0.5<br/>gini = 0.634<br/>samples = 153<br/>value = [10, 11, 41, 10, 0, 81]<br/>class = 5>, fillcolor="#f6b8dc"] ;
198 -> 199 ;
200 [label=<gini = 0.618<br/>samples = 146<br/>value = [10, 11, 36, 8, 0, 81]<br/>class = 5>, fillcolor="#f4aed7"] ;
199 -> 200 ;
201 [label=<gini = 0.408<br/>samples = 7<br/>value = [0, 0, 5, 2, 0, 0]<br/>class = 2>, fillcolor="#88efb3"] ;
199 -> 201 ;
202 [label=<BehaviorManagement &le; 0.5<br/>gini = 0.678<br/>samples = 447<br/>value = [41, 18, 196, 42, 1, 149]<br/>class = 2>, fillcolor="#e0fbeb"] ;
198 -> 202 ;
203 [label=<gini = 0.652<br/>samples = 338<br/>value = [31, 18, 152, 14, 0, 123]<br/>class = 2>, fillcolor="#e4fbee"] ;
202 -> 203 ;
204 [label=<gini = 0.706<br/>samples = 109<br/>value = [10, 0, 44, 28, 1, 26]<br/>class = 2>, fillcolor="#d8fae6"] ;
202 -> 204 ;
205 [label=<Vocational &le; 0.5<br/>gini = 0.652<br/>samples = 963<br/>value = [69, 38, 396, 66, 0, 394]<br/>class = 2>, fillcolor="#feffff"] ;
175 -> 205 ;
206 [label=<Legal &le; 0.5<br/>gini = 0.643<br/>samples = 870<br/>value = [53, 35, 348, 58, 0, 376]<br/>class = 5>, fillcolor="#fef4fa"] ;
205 -> 206 ;
207 [label=<SubstanceAbuse &le; 0.5<br/>gini = 0.639<br/>samples = 832<br/>value = [50, 35, 328, 50, 0, 369]<br/>class = 5>, fillcolor="#fdeff7"] ;
206 -> 207 ;
208 [label=<LifeSkills &le; 0.5<br/>gini = 0.636<br/>samples = 813<br/>value = [48, 34, 316, 48, 0, 367]<br/>class = 5>, fillcolor="#fcebf5"] ;
207 -> 208 ;
209 [label=<gini = 0.621<br/>samples = 693<br/>value = [36, 27, 285, 32, 0, 313]<br/>class = 5>, fillcolor="#fdf1f8"] ;
208 -> 209 ;
210 [label=<gini = 0.7<br/>samples = 120<br/>value = [12, 7, 31, 16, 0, 54]<br/>class = 5>, fillcolor="#f8cce6"] ;
208 -> 210 ;
211 [label=<Parent/Guardian &le; 0.5<br/>gini = 0.565<br/>samples = 19<br/>value = [2, 1, 12, 2, 0, 2]<br/>class = 2>, fillcolor="#8bf0b5"] ;
207 -> 211 ;
212 [label=<gini = 0.414<br/>samples = 16<br/>value = [2, 1, 12, 0, 0, 1]<br/>class = 2>, fillcolor="#72eca5"] ;
211 -> 212 ;
213 [label=<gini = 0.444<br/>samples = 3<br/>value = [0, 0, 0, 2, 0, 1]<br/>class = 3>, fillcolor="#9ccef2"] ;
211 -> 213 ;
214 [label=<Psychological &le; 0.5<br/>gini = 0.639<br/>samples = 38<br/>value = [3, 0, 20, 8, 0, 7]<br/>class = 2>, fillcolor="#b0f5cd"] ;
206 -> 214 ;
215 [label=<AncillaryServices &le; 0.5<br/>gini = 0.606<br/>samples = 35<br/>value = [3, 0, 20, 5, 0, 7]<br/>class = 2>, fillcolor="#a3f3c5"] ;
214 -> 215 ;
216 [label=<gini = 0.682<br/>samples = 25<br/>value = [2, 0, 11, 5, 0, 7]<br/>class = 2>, fillcolor="#d3f9e3"] ;
215 -> 216 ;
217 [label=<gini = 0.18<br/>samples = 10<br/>value = [1, 0, 9, 0, 0, 0]<br/>class = 2>, fillcolor="#4fe88f"] ;
215 -> 217 ;
218 [label=<gini = 0.0<br/>samples = 3<br/>value = [0, 0, 0, 3, 0, 0]<br/>class = 3>, fillcolor="#399de5"] ;
214 -> 218 ;
219 [label=<InternalCollateral &le; 0.5<br/>gini = 0.658<br/>samples = 93<br/>value = [16, 3, 48, 8, 0, 18]<br/>class = 2>, fillcolor="#b0f5cd"] ;
205 -> 219 ;
220 [label=<CommitDays &le; 1451.5<br/>gini = 0.574<br/>samples = 64<br/>value = [8, 1, 39, 4, 0, 12]<br/>class = 2>, fillcolor="#98f2be"] ;
219 -> 220 ;
221 [label=<CommitDays &le; 549.5<br/>gini = 0.498<br/>samples = 54<br/>value = [6, 1, 37, 3, 0, 7]<br/>class = 2>, fillcolor="#81eeaf"] ;
220 -> 221 ;
222 [label=<gini = 0.0<br/>samples = 2<br/>value = [0, 0, 0, 0, 0, 2]<br/>class = 5>, fillcolor="#e5399d"] ;
221 -> 222 ;
223 [label=<gini = 0.467<br/>samples = 52<br/>value = [6, 1, 37, 3, 0, 5]<br/>class = 2>, fillcolor="#7aedaa"] ;
221 -> 223 ;
224 [label=<CommitDays &le; 1502.0<br/>gini = 0.66<br/>samples = 10<br/>value = [2, 0, 2, 1, 0, 5]<br/>class = 5>, fillcolor="#f5b5da"] ;
220 -> 224 ;
225 [label=<gini = 0.32<br/>samples = 5<br/>value = [1, 0, 0, 0, 0, 4]<br/>class = 5>, fillcolor="#ec6ab6"] ;
224 -> 225 ;
226 [label=<gini = 0.72<br/>samples = 5<br/>value = [1, 0, 2, 1, 0, 1]<br/>class = 2>, fillcolor="#cef8e0"] ;
224 -> 226 ;
227 [label=<CommitDays &le; 734.0<br/>gini = 0.761<br/>samples = 29<br/>value = [8, 2, 9, 4, 0, 6]<br/>class = 2>, fillcolor="#f6fef9"] ;
219 -> 227 ;
228 [label=<BehaviorManagement &le; 0.5<br/>gini = 0.375<br/>samples = 12<br/>value = [0, 0, 9, 0, 0, 3]<br/>class = 2>, fillcolor="#7beeab"] ;
227 -> 228 ;
229 [label=<gini = 0.0<br/>samples = 1<br/>value = [0, 0, 0, 0, 0, 1]<br/>class = 5>, fillcolor="#e5399d"] ;
228 -> 229 ;
230 [label=<gini = 0.298<br/>samples = 11<br/>value = [0, 0, 9, 0, 0, 2]<br/>class = 2>, fillcolor="#65eb9d"] ;
228 -> 230 ;
231 [label=<CommitDays &le; 1140.5<br/>gini = 0.678<br/>samples = 17<br/>value = [8, 2, 0, 4, 0, 3]<br/>class = 0>, fillcolor="#f7d8c2"] ;
227 -> 231 ;
232 [label=<gini = 0.604<br/>samples = 15<br/>value = [8, 0, 0, 4, 0, 3]<br/>class = 0>, fillcolor="#f6d1b7"] ;
231 -> 232 ;
233 [label=<gini = 0.0<br/>samples = 2<br/>value = [0, 2, 0, 0, 0, 0]<br/>class = 1>, fillcolor="#9de539"] ;
231 -> 233 ;
234 [label=<Educational &le; 0.5<br/>gini = 0.594<br/>samples = 47005<br/>value = [3726, 1338, 26042, 1496, 216, 14187]<br/>class = 2>, fillcolor="#b7f6d1"] ;
2 -> 234 ;
235 [label=<Check-in &le; 0.5<br/>gini = 0.587<br/>samples = 38390<br/>value = [2966, 1214, 21860, 1256, 209, 10885]<br/>class = 2>, fillcolor="#b0f5cd"] ;
234 -> 235 ;
236 [label=<Meeting &le; 0.5<br/>gini = 0.564<br/>samples = 7223<br/>value = [644, 208, 4502, 374, 127, 1368]<br/>class = 2>, fillcolor="#95f1bc"] ;
235 -> 236 ;
237 [label=<RRT &le; 0.5<br/>gini = 0.545<br/>samples = 6653<br/>value = [529, 198, 4271, 318, 126, 1211]<br/>class = 2>, fillcolor="#90f0b8"] ;
236 -> 237 ;
238 [label=<CONTACT_TYPE &le; 5.5<br/>gini = 0.536<br/>samples = 6509<br/>value = [518, 190, 4229, 264, 125, 1183]<br/>class = 2>, fillcolor="#8ef0b7"] ;
237 -> 238 ;
239 [label=<CONTACT_TYPE &le; 4.5<br/>gini = 0.588<br/>samples = 2554<br/>value = [252, 21, 1519, 101, 123, 538]<br/>class = 2>, fillcolor="#9ff2c2"] ;
238 -> 239 ;
240 [label=<CONTACT_TYPE &le; 3.5<br/>gini = 0.569<br/>samples = 1776<br/>value = [144, 10, 1098, 66, 123, 335]<br/>class = 2>, fillcolor="#96f1bc"] ;
239 -> 240 ;
241 [label=<gini = 0.52<br/>samples = 511<br/>value = [41, 2, 334, 27, 0, 107]<br/>class = 2>, fillcolor="#90f0b8"] ;
240 -> 241 ;
242 [label=<gini = 0.586<br/>samples = 1265<br/>value = [103, 8, 764, 39, 123, 228]<br/>class = 2>, fillcolor="#99f2be"] ;
240 -> 242 ;
243 [label=<Educational/Vocational &le; 0.5<br/>gini = 0.618<br/>samples = 778<br/>value = [108, 11, 421, 35, 0, 203]<br/>class = 2>, fillcolor="#b4f5cf"] ;
239 -> 243 ;
244 [label=<gini = 0.61<br/>samples = 659<br/>value = [99, 10, 369, 31, 0, 150]<br/>class = 2>, fillcolor="#aaf4c9"] ;
243 -> 244 ;
245 [label=<gini = 0.604<br/>samples = 119<br/>value = [9, 1, 52, 4, 0, 53]<br/>class = 5>, fillcolor="#fffcfe"] ;
243 -> 245 ;
246 [label=<Educational/Vocational &le; 0.5<br/>gini = 0.496<br/>samples = 3955<br/>value = [266, 169, 2710, 163, 2, 645]<br/>class = 2>, fillcolor="#83efb0"] ;
238 -> 246 ;
247 [label=<CONTACT_TYPE &le; 6.5<br/>gini = 0.479<br/>samples = 3575<br/>value = [233, 153, 2506, 153, 2, 528]<br/>class = 2>, fillcolor="#7eeead"] ;
246 -> 247 ;
248 [label=<gini = 0.469<br/>samples = 2104<br/>value = [116, 131, 1499, 105, 0, 253]<br/>class = 2>, fillcolor="#7aedaa"] ;
247 -> 248 ;
249 [label=<gini = 0.489<br/>samples = 1471<br/>value = [117, 22, 1007, 48, 2, 275]<br/>class = 2>, fillcolor="#86efb2"] ;
247 -> 249 ;
250 [label=<CommitDays &le; 549.0<br/>gini = 0.607<br/>samples = 380<br/>value = [33, 16, 204, 10, 0, 117]<br/>class = 2>, fillcolor="#bef6d5"] ;
246 -> 250 ;
251 [label=<gini = 0.646<br/>samples = 87<br/>value = [7, 6, 37, 2, 0, 35]<br/>class = 2>, fillcolor="#f7fefa"] ;
250 -> 251 ;
252 [label=<gini = 0.587<br/>samples = 293<br/>value = [26, 10, 167, 8, 0, 82]<br/>class = 2>, fillcolor="#aff5cc"] ;
250 -> 252 ;
253 [label=<CONTACT_TYPE &le; 5.5<br/>gini = 0.728<br/>samples = 144<br/>value = [11, 8, 42, 54, 1, 28]<br/>class = 3>, fillcolor="#e8f3fc"] ;
237 -> 253 ;
254 [label=<Guardian &le; 0.5<br/>gini = 0.198<br/>samples = 9<br/>value = [0, 0, 0, 8, 0, 1]<br/>class = 3>, fillcolor="#52a9e8"] ;
253 -> 254 ;
255 [label=<gini = 0.0<br/>samples = 8<br/>value = [0, 0, 0, 8, 0, 0]<br/>class = 3>, fillcolor="#399de5"] ;
254 -> 255 ;
256 [label=<gini = 0.0<br/>samples = 1<br/>value = [0, 0, 0, 0, 0, 1]<br/>class = 5>, fillcolor="#e5399d"] ;
254 -> 256 ;
257 [label=<CommitDays &le; 1222.5<br/>gini = 0.737<br/>samples = 135<br/>value = [11, 8, 42, 46, 1, 27]<br/>class = 3>, fillcolor="#f6fbfe"] ;
253 -> 257 ;
258 [label=<CommitDays &le; 380.0<br/>gini = 0.724<br/>samples = 126<br/>value = [7, 7, 38, 46, 1, 27]<br/>class = 3>, fillcolor="#edf6fd"] ;
257 -> 258 ;
259 [label=<gini = 0.633<br/>samples = 43<br/>value = [1, 3, 13, 22, 0, 4]<br/>class = 3>, fillcolor="#c4e2f7"] ;
258 -> 259 ;
260 [label=<gini = 0.741<br/>samples = 83<br/>value = [6, 4, 25, 24, 1, 23]<br/>class = 2>, fillcolor="#fcfffd"] ;
258 -> 260 ;
261 [label=<CommitDays &le; 1303.0<br/>gini = 0.593<br/>samples = 9<br/>value = [4, 1, 4, 0, 0, 0]<br/>class = 0>, fillcolor="#ffffff"] ;
257 -> 261 ;
262 [label=<gini = 0.0<br/>samples = 2<br/>value = [2, 0, 0, 0, 0, 0]<br/>class = 0>, fillcolor="#e58139"] ;
261 -> 262 ;
263 [label=<gini = 0.571<br/>samples = 7<br/>value = [2, 1, 4, 0, 0, 0]<br/>class = 2>, fillcolor="#b0f5cd"] ;
261 -> 263 ;
264 [label=<ExternalCollateral &le; 0.5<br/>gini = 0.709<br/>samples = 570<br/>value = [115, 10, 231, 56, 1, 157]<br/>class = 2>, fillcolor="#dcfae8"] ;
236 -> 264 ;
265 [label=<CONTACT_TYPE &le; 5.5<br/>gini = 0.681<br/>samples = 447<br/>value = [83, 10, 201, 27, 1, 125]<br/>class = 2>, fillcolor="#d0f9e1"] ;
264 -> 265 ;
266 [label=<CONTACT_TYPE &le; 4.5<br/>gini = 0.708<br/>samples = 169<br/>value = [47, 2, 69, 17, 1, 33]<br/>class = 2>, fillcolor="#dbfae8"] ;
265 -> 266 ;
267 [label=<CONTACT_TYPE &le; 3.5<br/>gini = 0.727<br/>samples = 11<br/>value = [2, 1, 1, 5, 1, 1]<br/>class = 3>, fillcolor="#bddef6"] ;
266 -> 267 ;
268 [label=<gini = 0.816<br/>samples = 7<br/>value = [2, 1, 1, 1, 1, 1]<br/>class = 0>, fillcolor="#fbeade"] ;
267 -> 268 ;
269 [label=<gini = 0.0<br/>samples = 4<br/>value = [0, 0, 0, 4, 0, 0]<br/>class = 3>, fillcolor="#399de5"] ;
267 -> 269 ;
270 [label=<CommitDays &le; 383.0<br/>gini = 0.687<br/>samples = 158<br/>value = [45, 1, 68, 12, 0, 32]<br/>class = 2>, fillcolor="#d7fae5"] ;
266 -> 270 ;
271 [label=<gini = 0.63<br/>samples = 17<br/>value = [9, 0, 3, 1, 0, 4]<br/>class = 0>, fillcolor="#f5cfb3"] ;
270 -> 271 ;
272 [label=<gini = 0.677<br/>samples = 141<br/>value = [36, 1, 65, 11, 0, 28]<br/>class = 2>, fillcolor="#c8f8dc"] ;
270 -> 272 ;
273 [label=<Parent/Guardian &le; 0.5<br/>gini = 0.646<br/>samples = 278<br/>value = [36, 8, 132, 10, 0, 92]<br/>class = 2>, fillcolor="#d4f9e4"] ;
265 -> 273 ;
274 [label=<CommitDays &le; 465.0<br/>gini = 0.624<br/>samples = 215<br/>value = [25, 7, 115, 10, 0, 58]<br/>class = 2>, fillcolor="#b7f6d1"] ;
273 -> 274 ;
275 [label=<gini = 0.419<br/>samples = 62<br/>value = [6, 1, 46, 0, 0, 9]<br/>class = 2>, fillcolor="#75eda7"] ;
274 -> 275 ;
276 [label=<gini = 0.673<br/>samples = 153<br/>value = [19, 6, 69, 10, 0, 49]<br/>class = 2>, fillcolor="#d9fae7"] ;
274 -> 276 ;
277 [label=<Vocational &le; 0.5<br/>gini = 0.605<br/>samples = 63<br/>value = [11, 1, 17, 0, 0, 34]<br/>class = 5>, fillcolor="#f5b6db"] ;
273 -> 277 ;
278 [label=<gini = 0.581<br/>samples = 60<br/>value = [8, 1, 17, 0, 0, 34]<br/>class = 5>, fillcolor="#f5b1d8"] ;
277 -> 278 ;
279 [label=<gini = 0.0<br/>samples = 3<br/>value = [3, 0, 0, 0, 0, 0]<br/>class = 0>, fillcolor="#e58139"] ;
277 -> 279 ;
280 [label=<Mother &le; 0.5<br/>gini = 0.75<br/>samples = 123<br/>value = [32, 0, 30, 29, 0, 32]<br/>class = 0>, fillcolor="#ffffff"] ;
264 -> 280 ;
281 [label=<CONTACT_TYPE &le; 4.5<br/>gini = 0.737<br/>samples = 91<br/>value = [18, 0, 28, 17, 0, 28]<br/>class = 2>, fillcolor="#ffffff"] ;
280 -> 281 ;
282 [label=<Family &le; 0.5<br/>gini = 0.397<br/>samples = 11<br/>value = [0, 0, 8, 0, 0, 3]<br/>class = 2>, fillcolor="#83efb0"] ;
281 -> 282 ;
283 [label=<gini = 0.198<br/>samples = 9<br/>value = [0, 0, 8, 0, 0, 1]<br/>class = 2>, fillcolor="#52e891"] ;
282 -> 283 ;
284 [label=<gini = 0.0<br/>samples = 2<br/>value = [0, 0, 0, 0, 0, 2]<br/>class = 5>, fillcolor="#e5399d"] ;
282 -> 284 ;
285 [label=<Family &le; 0.5<br/>gini = 0.744<br/>samples = 80<br/>value = [18, 0, 20, 17, 0, 25]<br/>class = 5>, fillcolor="#fdeef7"] ;
281 -> 285 ;
286 [label=<gini = 0.735<br/>samples = 75<br/>value = [18, 0, 20, 12, 0, 25]<br/>class = 5>, fillcolor="#fdedf6"] ;
285 -> 286 ;
287 [label=<gini = 0.0<br/>samples = 5<br/>value = [0, 0, 0, 5, 0, 0]<br/>class = 3>, fillcolor="#399de5"] ;
285 -> 287 ;
288 [label=<CONTACT_TYPE &le; 7.0<br/>gini = 0.648<br/>samples = 32<br/>value = [14, 0, 2, 12, 0, 4]<br/>class = 0>, fillcolor="#fcf2eb"] ;
280 -> 288 ;
289 [label=<CommitDays &le; 387.5<br/>gini = 0.529<br/>samples = 23<br/>value = [14, 0, 2, 7, 0, 0]<br/>class = 0>, fillcolor="#f4c8a8"] ;
288 -> 289 ;
290 [label=<gini = 0.0<br/>samples = 3<br/>value = [0, 0, 0, 3, 0, 0]<br/>class = 3>, fillcolor="#399de5"] ;
289 -> 290 ;
291 [label=<gini = 0.46<br/>samples = 20<br/>value = [14, 0, 2, 4, 0, 0]<br/>class = 0>, fillcolor="#efb083"] ;
289 -> 291 ;
292 [label=<CONTACT_TYPE &le; 10.5<br/>gini = 0.494<br/>samples = 9<br/>value = [0, 0, 0, 5, 0, 4]<br/>class = 3>, fillcolor="#d7ebfa"] ;
288 -> 292 ;
293 [label=<gini = 0.444<br/>samples = 6<br/>value = [0, 0, 0, 2, 0, 4]<br/>class = 5>, fillcolor="#f29cce"] ;
292 -> 293 ;
294 [label=<gini = 0.0<br/>samples = 3<br/>value = [0, 0, 0, 3, 0, 0]<br/>class = 3>, fillcolor="#399de5"] ;
292 -> 294 ;
295 [label=<CONTACT_TYPE &le; 5.5<br/>gini = 0.589<br/>samples = 31167<br/>value = [2322, 1006, 17358, 882, 82, 9517]<br/>class = 2>, fillcolor="#b7f6d1"] ;
235 -> 295 ;
296 [label=<CONTACT_TYPE &le; 4.5<br/>gini = 0.615<br/>samples = 7221<br/>value = [732, 102, 3632, 175, 74, 2506]<br/>class = 2>, fillcolor="#d0f9e1"] ;
295 -> 296 ;
297 [label=<CONTACT_TYPE &le; 3.5<br/>gini = 0.597<br/>samples = 1535<br/>value = [142, 3, 875, 50, 71, 394]<br/>class = 2>, fillcolor="#acf4ca"] ;
296 -> 297 ;
298 [label=<FamilyRelationships &le; 0.5<br/>gini = 0.601<br/>samples = 662<br/>value = [64, 0, 353, 26, 6, 213]<br/>class = 2>, fillcolor="#c1f7d8"] ;
297 -> 298 ;
299 [label=<CommitDays &le; 526.0<br/>gini = 0.601<br/>samples = 601<br/>value = [53, 0, 314, 23, 6, 205]<br/>class = 2>, fillcolor="#c8f8dc"] ;
298 -> 299 ;
300 [label=<gini = 0.613<br/>samples = 117<br/>value = [6, 0, 49, 7, 2, 53]<br/>class = 5>, fillcolor="#fdf3f9"] ;
299 -> 300 ;
301 [label=<gini = 0.591<br/>samples = 484<br/>value = [47, 0, 265, 16, 4, 152]<br/>class = 2>, fillcolor="#bcf6d4"] ;
299 -> 301 ;
302 [label=<Psychiatric &le; 0.5<br/>gini = 0.539<br/>samples = 61<br/>value = [11, 0, 39, 3, 0, 8]<br/>class = 2>, fillcolor="#90f0b8"] ;
298 -> 302 ;
303 [label=<gini = 0.494<br/>samples = 57<br/>value = [8, 0, 39, 3, 0, 7]<br/>class = 2>, fillcolor="#82efaf"] ;
302 -> 303 ;
304 [label=<gini = 0.375<br/>samples = 4<br/>value = [3, 0, 0, 0, 0, 1]<br/>class = 0>, fillcolor="#eeab7b"] ;
302 -> 304 ;
305 [label=<CommitDays &le; 2248.5<br/>gini = 0.585<br/>samples = 873<br/>value = [78, 3, 522, 24, 65, 181]<br/>class = 2>, fillcolor="#9df2c1"] ;
297 -> 305 ;
306 [label=<CommitDays &le; 1701.5<br/>gini = 0.581<br/>samples = 858<br/>value = [78, 3, 518, 24, 62, 173]<br/>class = 2>, fillcolor="#9bf2c0"] ;
305 -> 306 ;
307 [label=<gini = 0.59<br/>samples = 799<br/>value = [75, 3, 473, 22, 58, 168]<br/>class = 2>, fillcolor="#9ff2c2"] ;
306 -> 307 ;
308 [label=<gini = 0.403<br/>samples = 59<br/>value = [3, 0, 45, 2, 4, 5]<br/>class = 2>, fillcolor="#6ceca2"] ;
306 -> 308 ;
309 [label=<AncillaryServices &le; 0.5<br/>gini = 0.604<br/>samples = 15<br/>value = [0, 0, 4, 0, 3, 8]<br/>class = 5>, fillcolor="#f6b7db"] ;
305 -> 309 ;
310 [label=<gini = 0.486<br/>samples = 12<br/>value = [0, 0, 3, 0, 1, 8]<br/>class = 5>, fillcolor="#f191c9"] ;
309 -> 310 ;
311 [label=<gini = 0.444<br/>samples = 3<br/>value = [0, 0, 1, 0, 2, 0]<br/>class = 4>, fillcolor="#c09cf2"] ;
309 -> 311 ;
312 [label=<BehaviorManagement &le; 0.5<br/>gini = 0.615<br/>samples = 5686<br/>value = [590, 99, 2757, 125, 3, 2112]<br/>class = 2>, fillcolor="#dbfae8"] ;
296 -> 312 ;
313 [label=<CommitDays &le; 693.0<br/>gini = 0.617<br/>samples = 4069<br/>value = [420, 78, 1881, 68, 3, 1619]<br/>class = 2>, fillcolor="#eafcf2"] ;
312 -> 313 ;
314 [label=<CommitDays &le; 675.5<br/>gini = 0.625<br/>samples = 1143<br/>value = [107, 32, 468, 29, 0, 507]<br/>class = 5>, fillcolor="#fdf4f9"] ;
313 -> 314 ;
315 [label=<gini = 0.629<br/>samples = 1076<br/>value = [103, 31, 453, 29, 0, 460]<br/>class = 5>, fillcolor="#fffdfe"] ;
314 -> 315 ;
316 [label=<gini = 0.454<br/>samples = 67<br/>value = [4, 1, 15, 0, 0, 47]<br/>class = 5>, fillcolor="#ef85c3"] ;
314 -> 316 ;
317 [label=<CommitDays &le; 768.5<br/>gini = 0.61<br/>samples = 2926<br/>value = [313, 46, 1413, 39, 3, 1112]<br/>class = 2>, fillcolor="#defbea"] ;
313 -> 317 ;
318 [label=<gini = 0.513<br/>samples = 197<br/>value = [24, 2, 129, 1, 0, 41]<br/>class = 2>, fillcolor="#8ff0b8"] ;
317 -> 318 ;
319 [label=<gini = 0.613<br/>samples = 2729<br/>value = [289, 44, 1284, 38, 3, 1071]<br/>class = 2>, fillcolor="#e6fcef"] ;
317 -> 319 ;
320 [label=<HealthServices &le; 0.5<br/>gini = 0.601<br/>samples = 1617<br/>value = [170, 21, 876, 57, 0, 493]<br/>class = 2>, fillcolor="#bcf6d4"] ;
312 -> 320 ;
321 [label=<AncillaryServices &le; 0.5<br/>gini = 0.587<br/>samples = 1504<br/>value = [144, 21, 846, 51, 0, 442]<br/>class = 2>, fillcolor="#b4f5cf"] ;
320 -> 321 ;
322 [label=<gini = 0.603<br/>samples = 1179<br/>value = [116, 17, 630, 43, 0, 373]<br/>class = 2>, fillcolor="#c0f7d7"] ;
321 -> 322 ;
323 [label=<gini = 0.505<br/>samples = 325<br/>value = [28, 4, 216, 8, 0, 69]<br/>class = 2>, fillcolor="#8df0b7"] ;
321 -> 323 ;
324 [label=<CommitDays &le; 1772.0<br/>gini = 0.67<br/>samples = 113<br/>value = [26, 0, 30, 6, 0, 51]<br/>class = 5>, fillcolor="#f8cde6"] ;
320 -> 324 ;
325 [label=<gini = 0.638<br/>samples = 95<br/>value = [14, 0, 27, 6, 0, 48]<br/>class = 5>, fillcolor="#f7c2e1"] ;
324 -> 325 ;
326 [label=<gini = 0.5<br/>samples = 18<br/>value = [12, 0, 3, 0, 0, 3]<br/>class = 0>, fillcolor="#efb388"] ;
324 -> 326 ;
327 [label=<CONTACT_TYPE &le; 6.5<br/>gini = 0.579<br/>samples = 23946<br/>value = [1590, 904, 13726, 707, 8, 7011]<br/>class = 2>, fillcolor="#b0f5cd"] ;
295 -> 327 ;
328 [label=<InternalCollateral &le; 0.5<br/>gini = 0.569<br/>samples = 14233<br/>value = [760, 818, 8535, 528, 8, 3584]<br/>class = 2>, fillcolor="#a3f3c4"] ;
327 -> 328 ;
329 [label=<BehaviorManagement &le; 0.5<br/>gini = 0.566<br/>samples = 12218<br/>value = [623, 713, 7299, 338, 3, 3242]<br/>class = 2>, fillcolor="#a6f3c6"] ;
328 -> 329 ;
330 [label=<Legal &le; 0.5<br/>gini = 0.571<br/>samples = 10512<br/>value = [534, 626, 6179, 256, 2, 2915]<br/>class = 2>, fillcolor="#aaf4c9"] ;
329 -> 330 ;
331 [label=<gini = 0.573<br/>samples = 10321<br/>value = [518, 619, 6033, 252, 1, 2898]<br/>class = 2>, fillcolor="#abf4ca"] ;
330 -> 331 ;
332 [label=<gini = 0.399<br/>samples = 191<br/>value = [16, 7, 146, 4, 1, 17]<br/>class = 2>, fillcolor="#6ceca2"] ;
330 -> 332 ;
333 [label=<Educational/Vocational &le; 0.5<br/>gini = 0.525<br/>samples = 1706<br/>value = [89, 87, 1120, 82, 1, 327]<br/>class = 2>, fillcolor="#8df0b7"] ;
329 -> 333 ;
334 [label=<gini = 0.496<br/>samples = 1515<br/>value = [73, 76, 1037, 76, 0, 253]<br/>class = 2>, fillcolor="#84efb1"] ;
333 -> 334 ;
335 [label=<gini = 0.65<br/>samples = 191<br/>value = [16, 11, 83, 6, 1, 74]<br/>class = 2>, fillcolor="#f0fdf5"] ;
333 -> 335 ;
336 [label=<CommitDays &le; 1793.0<br/>gini = 0.579<br/>samples = 2015<br/>value = [137, 105, 1236, 190, 5, 342]<br/>class = 2>, fillcolor="#95f1bc"] ;
328 -> 336 ;
337 [label=<FamilyRelationships &le; 0.5<br/>gini = 0.565<br/>samples = 1904<br/>value = [115, 84, 1190, 177, 5, 333]<br/>class = 2>, fillcolor="#93f1ba"] ;
336 -> 337 ;
338 [label=<gini = 0.579<br/>samples = 1705<br/>value = [111, 77, 1040, 159, 5, 313]<br/>class = 2>, fillcolor="#98f1bd"] ;
337 -> 338 ;
339 [label=<gini = 0.412<br/>samples = 199<br/>value = [4, 7, 150, 18, 0, 20]<br/>class = 2>, fillcolor="#6feca3"] ;
337 -> 339 ;
340 [label=<BehaviorManagement &le; 0.5<br/>gini = 0.733<br/>samples = 111<br/>value = [22, 21, 46, 13, 0, 9]<br/>class = 2>, fillcolor="#caf8dd"] ;
336 -> 340 ;
341 [label=<gini = 0.725<br/>samples = 94<br/>value = [22, 20, 38, 7, 0, 7]<br/>class = 2>, fillcolor="#d3f9e3"] ;
340 -> 341 ;
342 [label=<gini = 0.637<br/>samples = 17<br/>value = [0, 1, 8, 6, 0, 2]<br/>class = 2>, fillcolor="#dbfae8"] ;
340 -> 342 ;
343 [label=<CONTACT_TYPE &le; 8.0<br/>gini = 0.582<br/>samples = 9713<br/>value = [830, 86, 5191, 179, 0, 3427]<br/>class = 2>, fillcolor="#c7f8dc"] ;
327 -> 343 ;
344 [label=<CommitDays &le; 824.5<br/>gini = 0.584<br/>samples = 725<br/>value = [68, 8, 265, 5, 0, 379]<br/>class = 5>, fillcolor="#f9cee7"] ;
343 -> 344 ;
345 [label=<CommitDays &le; 605.5<br/>gini = 0.565<br/>samples = 220<br/>value = [28, 4, 58, 0, 0, 130]<br/>class = 5>, fillcolor="#f3a7d3"] ;
344 -> 345 ;
346 [label=<gini = 0.521<br/>samples = 152<br/>value = [10, 2, 46, 0, 0, 94]<br/>class = 5>, fillcolor="#f3a5d3"] ;
345 -> 346 ;
347 [label=<gini = 0.618<br/>samples = 68<br/>value = [18, 2, 12, 0, 0, 36]<br/>class = 5>, fillcolor="#f6b8dc"] ;
345 -> 347 ;
348 [label=<CommitDays &le; 1478.5<br/>gini = 0.582<br/>samples = 505<br/>value = [40, 4, 207, 5, 0, 249]<br/>class = 5>, fillcolor="#fbe3f1"] ;
344 -> 348 ;
349 [label=<gini = 0.567<br/>samples = 397<br/>value = [25, 3, 156, 5, 0, 208]<br/>class = 5>, fillcolor="#f9d4ea"] ;
348 -> 349 ;
350 [label=<gini = 0.614<br/>samples = 108<br/>value = [15, 1, 51, 0, 0, 41]<br/>class = 2>, fillcolor="#e1fbec"] ;
348 -> 350 ;
351 [label=<CommitDays &le; 1330.5<br/>gini = 0.577<br/>samples = 8988<br/>value = [762, 78, 4926, 174, 0, 3048]<br/>class = 2>, fillcolor="#c0f7d7"] ;
343 -> 351 ;
352 [label=<Housing &le; 0.5<br/>gini = 0.586<br/>samples = 7237<br/>value = [625, 60, 3833, 151, 0, 2568]<br/>class = 2>, fillcolor="#c9f8dd"] ;
351 -> 352 ;
353 [label=<gini = 0.586<br/>samples = 6752<br/>value = [559, 60, 3538, 141, 0, 2454]<br/>class = 2>, fillcolor="#cdf8df"] ;
352 -> 353 ;
354 [label=<gini = 0.556<br/>samples = 485<br/>value = [66, 0, 295, 10, 0, 114]<br/>class = 2>, fillcolor="#9ef2c2"] ;
352 -> 354 ;
355 [label=<CommitDays &le; 1365.0<br/>gini = 0.529<br/>samples = 1751<br/>value = [137, 18, 1093, 23, 0, 480]<br/>class = 2>, fillcolor="#a0f2c2"] ;
351 -> 355 ;
356 [label=<gini = 0.369<br/>samples = 253<br/>value = [9, 6, 197, 3, 0, 38]<br/>class = 2>, fillcolor="#6deca2"] ;
355 -> 356 ;
357 [label=<gini = 0.548<br/>samples = 1498<br/>value = [128, 12, 896, 20, 0, 442]<br/>class = 2>, fillcolor="#aaf4c9"] ;
355 -> 357 ;
358 [label=<CONTACT_TYPE &le; 5.5<br/>gini = 0.609<br/>samples = 8615<br/>value = [760, 124, 4182, 240, 7, 3302]<br/>class = 2>, fillcolor="#defbea"] ;
234 -> 358 ;
359 [label=<CONTACT_TYPE &le; 3.5<br/>gini = 0.62<br/>samples = 3071<br/>value = [330, 26, 1216, 81, 7, 1411]<br/>class = 5>, fillcolor="#fceaf5"] ;
358 -> 359 ;
360 [label=<FamilyRelationships &le; 0.5<br/>gini = 0.4<br/>samples = 189<br/>value = [18, 1, 144, 7, 1, 18]<br/>class = 2>, fillcolor="#6deca2"] ;
359 -> 360 ;
361 [label=<CommitDays &le; 295.0<br/>gini = 0.494<br/>samples = 105<br/>value = [12, 1, 72, 5, 0, 15]<br/>class = 2>, fillcolor="#82efaf"] ;
360 -> 361 ;
362 [label=<CommitDays &le; 222.0<br/>gini = 0.561<br/>samples = 14<br/>value = [7, 0, 6, 0, 0, 1]<br/>class = 0>, fillcolor="#fcefe6"] ;
361 -> 362 ;
363 [label=<Vocational &le; 0.5<br/>gini = 0.5<br/>samples = 6<br/>value = [1, 0, 4, 0, 0, 1]<br/>class = 2>, fillcolor="#88efb3"] ;
362 -> 363 ;
364 [label=<gini = 0.0<br/>samples = 4<br/>value = [0, 0, 4, 0, 0, 0]<br/>class = 2>, fillcolor="#39e581"] ;
363 -> 364 ;
365 [label=<gini = 0.5<br/>samples = 2<br/>value = [1, 0, 0, 0, 0, 1]<br/>class = 0>, fillcolor="#ffffff"] ;
363 -> 365 ;
366 [label=<ExternalCollateral &le; 0.5<br/>gini = 0.375<br/>samples = 8<br/>value = [6, 0, 2, 0, 0, 0]<br/>class = 0>, fillcolor="#eeab7b"] ;
362 -> 366 ;
367 [label=<gini = 0.0<br/>samples = 6<br/>value = [6, 0, 0, 0, 0, 0]<br/>class = 0>, fillcolor="#e58139"] ;
366 -> 367 ;
368 [label=<gini = 0.0<br/>samples = 2<br/>value = [0, 0, 2, 0, 0, 0]<br/>class = 2>, fillcolor="#39e581"] ;
366 -> 368 ;
369 [label=<CommitDays &le; 1731.5<br/>gini = 0.444<br/>samples = 91<br/>value = [5, 1, 66, 5, 0, 14]<br/>class = 2>, fillcolor="#79edaa"] ;
361 -> 369 ;
370 [label=<Legal &le; 0.5<br/>gini = 0.402<br/>samples = 86<br/>value = [4, 1, 65, 3, 0, 13]<br/>class = 2>, fillcolor="#72eca5"] ;
369 -> 370 ;
371 [label=<gini = 0.37<br/>samples = 82<br/>value = [3, 1, 64, 3, 0, 11]<br/>class = 2>, fillcolor="#6beca1"] ;
370 -> 371 ;
372 [label=<gini = 0.625<br/>samples = 4<br/>value = [1, 0, 1, 0, 0, 2]<br/>class = 5>, fillcolor="#f6bdde"] ;
370 -> 372 ;
373 [label=<Check-in &le; 0.5<br/>gini = 0.72<br/>samples = 5<br/>value = [1, 0, 1, 2, 0, 1]<br/>class = 3>, fillcolor="#cee6f8"] ;
369 -> 373 ;
374 [label=<gini = 0.667<br/>samples = 3<br/>value = [1, 0, 1, 0, 0, 1]<br/>class = 0>, fillcolor="#ffffff"] ;
373 -> 374 ;
375 [label=<gini = 0.0<br/>samples = 2<br/>value = [0, 0, 0, 2, 0, 0]<br/>class = 3>, fillcolor="#399de5"] ;
373 -> 375 ;
376 [label=<CommitDays &le; 1177.0<br/>gini = 0.258<br/>samples = 84<br/>value = [6, 0, 72, 2, 1, 3]<br/>class = 2>, fillcolor="#57e994"] ;
360 -> 376 ;
377 [label=<LevelReview &le; 0.5<br/>gini = 0.187<br/>samples = 70<br/>value = [2, 0, 63, 2, 0, 3]<br/>class = 2>, fillcolor="#4ee88e"] ;
376 -> 377 ;
378 [label=<LifeSkills &le; 0.5<br/>gini = 0.166<br/>samples = 68<br/>value = [2, 0, 62, 1, 0, 3]<br/>class = 2>, fillcolor="#4be78d"] ;
377 -> 378 ;
379 [label=<gini = 0.252<br/>samples = 43<br/>value = [2, 0, 37, 1, 0, 3]<br/>class = 2>, fillcolor="#57e994"] ;
378 -> 379 ;
380 [label=<gini = 0.0<br/>samples = 25<br/>value = [0, 0, 25, 0, 0, 0]<br/>class = 2>, fillcolor="#39e581"] ;
378 -> 380 ;
381 [label=<Vocational &le; 0.5<br/>gini = 0.5<br/>samples = 2<br/>value = [0, 0, 1, 1, 0, 0]<br/>class = 2>, fillcolor="#ffffff"] ;
377 -> 381 ;
382 [label=<gini = 0.0<br/>samples = 1<br/>value = [0, 0, 0, 1, 0, 0]<br/>class = 3>, fillcolor="#399de5"] ;
381 -> 382 ;
383 [label=<gini = 0.0<br/>samples = 1<br/>value = [0, 0, 1, 0, 0, 0]<br/>class = 2>, fillcolor="#39e581"] ;
381 -> 383 ;
384 [label=<CommitDays &le; 1311.5<br/>gini = 0.5<br/>samples = 14<br/>value = [4, 0, 9, 0, 1, 0]<br/>class = 2>, fillcolor="#9cf2c0"] ;
376 -> 384 ;
385 [label=<Housing &le; 0.5<br/>gini = 0.375<br/>samples = 4<br/>value = [3, 0, 1, 0, 0, 0]<br/>class = 0>, fillcolor="#eeab7b"] ;
384 -> 385 ;
386 [label=<gini = 0.0<br/>samples = 3<br/>value = [3, 0, 0, 0, 0, 0]<br/>class = 0>, fillcolor="#e58139"] ;
385 -> 386 ;
387 [label=<gini = 0.0<br/>samples = 1<br/>value = [0, 0, 1, 0, 0, 0]<br/>class = 2>, fillcolor="#39e581"] ;
385 -> 387 ;
388 [label=<CommitDays &le; 2107.5<br/>gini = 0.34<br/>samples = 10<br/>value = [1, 0, 8, 0, 1, 0]<br/>class = 2>, fillcolor="#65eb9d"] ;
384 -> 388 ;
389 [label=<gini = 0.219<br/>samples = 8<br/>value = [0, 0, 7, 0, 1, 0]<br/>class = 2>, fillcolor="#55e993"] ;
388 -> 389 ;
390 [label=<gini = 0.5<br/>samples = 2<br/>value = [1, 0, 1, 0, 0, 0]<br/>class = 0>, fillcolor="#ffffff"] ;
388 -> 390 ;
391 [label=<BehaviorManagement &le; 0.5<br/>gini = 0.616<br/>samples = 2882<br/>value = [312, 25, 1072, 74, 6, 1393]<br/>class = 5>, fillcolor="#fadcee"] ;
359 -> 391 ;
392 [label=<FamilyRelationships &le; 0.5<br/>gini = 0.551<br/>samples = 1558<br/>value = [105, 16, 512, 18, 4, 903]<br/>class = 5>, fillcolor="#f5b5da"] ;
391 -> 392 ;
393 [label=<InternalCollateral &le; 0.5<br/>gini = 0.522<br/>samples = 1332<br/>value = [72, 13, 422, 8, 2, 815]<br/>class = 5>, fillcolor="#f4a9d5"] ;
392 -> 393 ;
394 [label=<Vocational &le; 0.5<br/>gini = 0.493<br/>samples = 1108<br/>value = [45, 9, 334, 5, 2, 713]<br/>class = 5>, fillcolor="#f29ecf"] ;
393 -> 394 ;
395 [label=<gini = 0.465<br/>samples = 874<br/>value = [29, 6, 242, 5, 1, 591]<br/>class = 5>, fillcolor="#f192c9"] ;
394 -> 395 ;
396 [label=<gini = 0.569<br/>samples = 234<br/>value = [16, 3, 92, 0, 1, 122]<br/>class = 5>, fillcolor="#fad5ea"] ;
394 -> 396 ;
397 [label=<Check-in &le; 0.5<br/>gini = 0.623<br/>samples = 224<br/>value = [27, 4, 88, 3, 0, 102]<br/>class = 5>, fillcolor="#fcebf5"] ;
393 -> 397 ;
398 [label=<gini = 0.628<br/>samples = 69<br/>value = [16, 0, 34, 0, 0, 19]<br/>class = 2>, fillcolor="#c4f7d9"] ;
397 -> 398 ;
399 [label=<gini = 0.586<br/>samples = 155<br/>value = [11, 4, 54, 3, 0, 83]<br/>class = 5>, fillcolor="#f8c6e3"] ;
397 -> 399 ;
400 [label=<Recreation &le; 0.5<br/>gini = 0.666<br/>samples = 226<br/>value = [33, 3, 90, 10, 2, 88]<br/>class = 2>, fillcolor="#fcfffd"] ;
392 -> 400 ;
401 [label=<Legal &le; 0.5<br/>gini = 0.645<br/>samples = 211<br/>value = [25, 3, 87, 7, 2, 87]<br/>class = 2>, fillcolor="#ffffff"] ;
400 -> 401 ;
402 [label=<gini = 0.625<br/>samples = 193<br/>value = [21, 3, 78, 5, 0, 86]<br/>class = 5>, fillcolor="#fdf1f8"] ;
401 -> 402 ;
403 [label=<gini = 0.673<br/>samples = 18<br/>value = [4, 0, 9, 2, 2, 1]<br/>class = 2>, fillcolor="#b8f6d2"] ;
401 -> 403 ;
404 [label=<CommitDays &le; 973.0<br/>gini = 0.631<br/>samples = 15<br/>value = [8, 0, 3, 3, 0, 1]<br/>class = 0>, fillcolor="#f4caac"] ;
400 -> 404 ;
405 [label=<gini = 0.716<br/>samples = 9<br/>value = [2, 0, 3, 3, 0, 1]<br/>class = 2>, fillcolor="#ffffff"] ;
404 -> 405 ;
406 [label=<gini = 0.0<br/>samples = 6<br/>value = [6, 0, 0, 0, 0, 0]<br/>class = 0>, fillcolor="#e58139"] ;
404 -> 406 ;
407 [label=<LifeSkills &le; 0.5<br/>gini = 0.658<br/>samples = 1324<br/>value = [207, 9, 560, 56, 2, 490]<br/>class = 2>, fillcolor="#eefdf4"] ;
391 -> 407 ;
408 [label=<SubstanceAbuse &le; 0.5<br/>gini = 0.629<br/>samples = 907<br/>value = [100, 9, 424, 34, 2, 338]<br/>class = 2>, fillcolor="#e1fbec"] ;
407 -> 408 ;
409 [label=<Legal &le; 0.5<br/>gini = 0.635<br/>samples = 851<br/>value = [96, 9, 383, 33, 2, 328]<br/>class = 2>, fillcolor="#eafcf2"] ;
408 -> 409 ;
410 [label=<gini = 0.625<br/>samples = 787<br/>value = [83, 8, 355, 26, 1, 314]<br/>class = 2>, fillcolor="#eefdf4"] ;
409 -> 410 ;
411 [label=<gini = 0.707<br/>samples = 64<br/>value = [13, 1, 28, 7, 1, 14]<br/>class = 2>, fillcolor="#c8f8dc"] ;
409 -> 411 ;
412 [label=<CommitDays &le; 1683.5<br/>gini = 0.427<br/>samples = 56<br/>value = [4, 0, 41, 1, 0, 10]<br/>class = 2>, fillcolor="#7aedaa"] ;
408 -> 412 ;
413 [label=<gini = 0.408<br/>samples = 55<br/>value = [3, 0, 41, 1, 0, 10]<br/>class = 2>, fillcolor="#77eda8"] ;
412 -> 413 ;
414 [label=<gini = 0.0<br/>samples = 1<br/>value = [1, 0, 0, 0, 0, 0]<br/>class = 0>, fillcolor="#e58139"] ;
412 -> 414 ;
415 [label=<Legal &le; 0.5<br/>gini = 0.692<br/>samples = 417<br/>value = [107, 0, 136, 22, 0, 152]<br/>class = 5>, fillcolor="#fef4f9"] ;
407 -> 415 ;
416 [label=<InternalCollateral &le; 0.5<br/>gini = 0.678<br/>samples = 345<br/>value = [72, 0, 115, 18, 0, 140]<br/>class = 5>, fillcolor="#fce9f4"] ;
415 -> 416 ;
417 [label=<gini = 0.666<br/>samples = 274<br/>value = [59, 0, 76, 14, 0, 125]<br/>class = 5>, fillcolor="#f9cee7"] ;
416 -> 417 ;
418 [label=<gini = 0.617<br/>samples = 71<br/>value = [13, 0, 39, 4, 0, 15]<br/>class = 2>, fillcolor="#aaf4c9"] ;
416 -> 418 ;
419 [label=<CommitDays &le; 771.5<br/>gini = 0.648<br/>samples = 72<br/>value = [35, 0, 21, 4, 0, 12]<br/>class = 0>, fillcolor="#f8dcc9"] ;
415 -> 419 ;
420 [label=<gini = 0.656<br/>samples = 31<br/>value = [9, 0, 15, 4, 0, 3]<br/>class = 2>, fillcolor="#c9f8dd"] ;
419 -> 420 ;
421 [label=<gini = 0.528<br/>samples = 41<br/>value = [26, 0, 6, 0, 0, 9]<br/>class = 0>, fillcolor="#f1bc96"] ;
419 -> 421 ;
422 [label=<AncillaryServices &le; 0.5<br/>gini = 0.59<br/>samples = 5544<br/>value = [430, 98, 2966, 159, 0, 1891]<br/>class = 2>, fillcolor="#c5f7da"] ;
358 -> 422 ;
423 [label=<CommitDays &le; 1308.5<br/>gini = 0.573<br/>samples = 4639<br/>value = [280, 87, 2574, 126, 0, 1572]<br/>class = 2>, fillcolor="#bef7d6"] ;
422 -> 423 ;
424 [label=<InternalCollateral &le; 0.5<br/>gini = 0.581<br/>samples = 3944<br/>value = [232, 80, 2122, 118, 0, 1392]<br/>class = 2>, fillcolor="#c6f8db"] ;
423 -> 424 ;
425 [label=<CommitDays &le; 348.5<br/>gini = 0.578<br/>samples = 3383<br/>value = [189, 66, 1789, 82, 0, 1257]<br/>class = 2>, fillcolor="#cdf8df"] ;
424 -> 425 ;
426 [label=<CurfewManagement &le; 0.5<br/>gini = 0.556<br/>samples = 408<br/>value = [27, 17, 248, 10, 0, 106]<br/>class = 2>, fillcolor="#a2f3c4"] ;
425 -> 426 ;
427 [label=<gini = 0.585<br/>samples = 343<br/>value = [25, 16, 197, 10, 0, 95]<br/>class = 2>, fillcolor="#aef4cb"] ;
426 -> 427 ;
428 [label=<gini = 0.355<br/>samples = 65<br/>value = [2, 1, 51, 0, 0, 11]<br/>class = 2>, fillcolor="#6ceca2"] ;
426 -> 428 ;
429 [label=<CommitDays &le; 367.0<br/>gini = 0.578<br/>samples = 2975<br/>value = [162, 49, 1541, 72, 0, 1151]<br/>class = 2>, fillcolor="#d5f9e4"] ;
425 -> 429 ;
430 [label=<gini = 0.519<br/>samples = 50<br/>value = [4, 0, 9, 4, 0, 33]<br/>class = 5>, fillcolor="#f08bc6"] ;
429 -> 430 ;
431 [label=<gini = 0.576<br/>samples = 2925<br/>value = [158, 49, 1532, 68, 0, 1118]<br/>class = 2>, fillcolor="#d2f9e2"] ;
429 -> 431 ;
432 [label=<Housing &le; 0.5<br/>gini = 0.579<br/>samples = 561<br/>value = [43, 14, 333, 36, 0, 135]<br/>class = 2>, fillcolor="#a3f3c4"] ;
424 -> 432 ;
433 [label=<HealthServices &le; 0.5<br/>gini = 0.574<br/>samples = 464<br/>value = [32, 13, 273, 21, 0, 125]<br/>class = 2>, fillcolor="#a9f4c8"] ;
432 -> 433 ;
434 [label=<gini = 0.559<br/>samples = 443<br/>value = [26, 13, 268, 20, 0, 116]<br/>class = 2>, fillcolor="#a3f3c4"] ;
433 -> 434 ;
435 [label=<gini = 0.676<br/>samples = 21<br/>value = [6, 0, 5, 1, 0, 9]<br/>class = 5>, fillcolor="#fad7eb"] ;
433 -> 435 ;
436 [label=<BehaviorManagement &le; 0.5<br/>gini = 0.57<br/>samples = 97<br/>value = [11, 1, 60, 15, 0, 10]<br/>class = 2>, fillcolor="#92f1ba"] ;
432 -> 436 ;
437 [label=<gini = 0.689<br/>samples = 34<br/>value = [10, 1, 15, 5, 0, 3]<br/>class = 2>, fillcolor="#d6fae5"] ;
436 -> 437 ;
438 [label=<gini = 0.452<br/>samples = 63<br/>value = [1, 0, 45, 10, 0, 7]<br/>class = 2>, fillcolor="#7ceeac"] ;
436 -> 438 ;
439 [label=<BehaviorManagement &le; 0.5<br/>gini = 0.505<br/>samples = 695<br/>value = [48, 7, 452, 8, 0, 180]<br/>class = 2>, fillcolor="#96f1bc"] ;
423 -> 439 ;
440 [label=<Meeting &le; 0.5<br/>gini = 0.581<br/>samples = 375<br/>value = [33, 7, 206, 5, 0, 124]<br/>class = 2>, fillcolor="#bef7d6"] ;
439 -> 440 ;
441 [label=<CommitDays &le; 1421.5<br/>gini = 0.574<br/>samples = 368<br/>value = [32, 7, 206, 4, 0, 119]<br/>class = 2>, fillcolor="#baf6d3"] ;
440 -> 441 ;
442 [label=<gini = 0.513<br/>samples = 100<br/>value = [8, 3, 66, 2, 0, 21]<br/>class = 2>, fillcolor="#8ef0b7"] ;
441 -> 442 ;
443 [label=<gini = 0.585<br/>samples = 268<br/>value = [24, 4, 140, 2, 0, 98]<br/>class = 2>, fillcolor="#cef9e0"] ;
441 -> 443 ;
444 [label=<Guardian &le; 0.5<br/>gini = 0.449<br/>samples = 7<br/>value = [1, 0, 0, 1, 0, 5]<br/>class = 5>, fillcolor="#ee7bbe"] ;
440 -> 444 ;
445 [label=<gini = 0.278<br/>samples = 6<br/>value = [0, 0, 0, 1, 0, 5]<br/>class = 5>, fillcolor="#ea61b1"] ;
444 -> 445 ;
446 [label=<gini = 0.0<br/>samples = 1<br/>value = [1, 0, 0, 0, 0, 0]<br/>class = 0>, fillcolor="#e58139"] ;
444 -> 446 ;
447 [label=<ExternalCollateral &le; 0.5<br/>gini = 0.376<br/>samples = 320<br/>value = [15, 0, 246, 3, 0, 56]<br/>class = 2>, fillcolor="#70eca4"] ;
439 -> 447 ;
448 [label=<LifeSkills &le; 0.5<br/>gini = 0.346<br/>samples = 298<br/>value = [14, 0, 236, 1, 0, 47]<br/>class = 2>, fillcolor="#6aeba0"] ;
447 -> 448 ;
449 [label=<gini = 0.283<br/>samples = 249<br/>value = [7, 0, 208, 0, 0, 34]<br/>class = 2>, fillcolor="#5fea99"] ;
448 -> 449 ;
450 [label=<gini = 0.582<br/>samples = 49<br/>value = [7, 0, 28, 1, 0, 13]<br/>class = 2>, fillcolor="#acf4ca"] ;
448 -> 450 ;
451 [label=<FamilyRelationships &le; 0.5<br/>gini = 0.616<br/>samples = 22<br/>value = [1, 0, 10, 2, 0, 9]<br/>class = 2>, fillcolor="#f0fdf5"] ;
447 -> 451 ;
452 [label=<gini = 0.486<br/>samples = 12<br/>value = [0, 0, 3, 1, 0, 8]<br/>class = 5>, fillcolor="#f191c9"] ;
451 -> 452 ;
453 [label=<gini = 0.48<br/>samples = 10<br/>value = [1, 0, 7, 1, 0, 1]<br/>class = 2>, fillcolor="#7beeab"] ;
451 -> 453 ;
454 [label=<Vocational &le; 0.5<br/>gini = 0.659<br/>samples = 905<br/>value = [150, 11, 392, 33, 0, 319]<br/>class = 2>, fillcolor="#e6fcef"] ;
422 -> 454 ;
455 [label=<Family &le; 0.5<br/>gini = 0.639<br/>samples = 636<br/>value = [84, 7, 273, 19, 0, 253]<br/>class = 2>, fillcolor="#f5fef8"] ;
454 -> 455 ;
456 [label=<FamilyRelationships &le; 0.5<br/>gini = 0.639<br/>samples = 544<br/>value = [74, 5, 216, 16, 0, 233]<br/>class = 5>, fillcolor="#fef5fa"] ;
455 -> 456 ;
457 [label=<CONTACT_TYPE &le; 11.5<br/>gini = 0.615<br/>samples = 325<br/>value = [36, 3, 148, 6, 0, 132]<br/>class = 2>, fillcolor="#effdf5"] ;
456 -> 457 ;
458 [label=<gini = 0.616<br/>samples = 312<br/>value = [34, 3, 138, 6, 0, 131]<br/>class = 2>, fillcolor="#f7fefa"] ;
457 -> 458 ;
459 [label=<gini = 0.379<br/>samples = 13<br/>value = [2, 0, 10, 0, 0, 1]<br/>class = 2>, fillcolor="#6feca3"] ;
457 -> 459 ;
460 [label=<Parent/Guardian &le; 0.5<br/>gini = 0.659<br/>samples = 219<br/>value = [38, 2, 68, 10, 0, 101]<br/>class = 5>, fillcolor="#f9d4ea"] ;
456 -> 460 ;
461 [label=<gini = 0.679<br/>samples = 154<br/>value = [26, 2, 57, 9, 0, 60]<br/>class = 5>, fillcolor="#fef9fc"] ;
460 -> 461 ;
462 [label=<gini = 0.539<br/>samples = 65<br/>value = [12, 0, 11, 1, 0, 41]<br/>class = 5>, fillcolor="#f193c9"] ;
460 -> 462 ;
463 [label=<DrugScreening &le; 0.5<br/>gini = 0.556<br/>samples = 92<br/>value = [10, 2, 57, 3, 0, 20]<br/>class = 2>, fillcolor="#99f2be"] ;
455 -> 463 ;
464 [label=<CommitDays &le; 487.0<br/>gini = 0.533<br/>samples = 88<br/>value = [10, 2, 57, 3, 0, 16]<br/>class = 2>, fillcolor="#8ef0b7"] ;
463 -> 464 ;
465 [label=<gini = 0.628<br/>samples = 23<br/>value = [9, 0, 10, 0, 0, 4]<br/>class = 2>, fillcolor="#f1fdf6"] ;
464 -> 465 ;
466 [label=<gini = 0.44<br/>samples = 65<br/>value = [1, 2, 47, 3, 0, 12]<br/>class = 2>, fillcolor="#7ceeac"] ;
464 -> 466 ;
467 [label=<gini = 0.0<br/>samples = 4<br/>value = [0, 0, 0, 0, 0, 4]<br/>class = 5>, fillcolor="#e5399d"] ;
463 -> 467 ;
468 [label=<LifeSkills &le; 0.5<br/>gini = 0.681<br/>samples = 269<br/>value = [66, 4, 119, 14, 0, 66]<br/>class = 2>, fillcolor="#cbf8de"] ;
454 -> 468 ;
469 [label=<DrugScreening &le; 0.5<br/>gini = 0.6<br/>samples = 139<br/>value = [26, 1, 78, 3, 0, 31]<br/>class = 2>, fillcolor="#a9f4c8"] ;
468 -> 469 ;
470 [label=<ExternalCollateral &le; 0.5<br/>gini = 0.589<br/>samples = 135<br/>value = [26, 1, 78, 3, 0, 27]<br/>class = 2>, fillcolor="#a2f3c4"] ;
469 -> 470 ;
471 [label=<gini = 0.61<br/>samples = 123<br/>value = [26, 1, 67, 2, 0, 27]<br/>class = 2>, fillcolor="#acf4ca"] ;
470 -> 471 ;
472 [label=<gini = 0.153<br/>samples = 12<br/>value = [0, 0, 11, 1, 0, 0]<br/>class = 2>, fillcolor="#4be78c"] ;
470 -> 472 ;
473 [label=<gini = 0.0<br/>samples = 4<br/>value = [0, 0, 0, 0, 0, 4]<br/>class = 5>, fillcolor="#e5399d"] ;
469 -> 473 ;
474 [label=<Psychological &le; 0.5<br/>gini = 0.726<br/>samples = 130<br/>value = [40, 3, 41, 11, 0, 35]<br/>class = 2>, fillcolor="#fdfffe"] ;
468 -> 474 ;
475 [label=<InternalCollateral &le; 0.5<br/>gini = 0.717<br/>samples = 81<br/>value = [23, 3, 18, 6, 0, 31]<br/>class = 5>, fillcolor="#fbe4f1"] ;
474 -> 475 ;
476 [label=<gini = 0.702<br/>samples = 74<br/>value = [18, 3, 18, 4, 0, 31]<br/>class = 5>, fillcolor="#f9d1e8"] ;
475 -> 476 ;
477 [label=<gini = 0.408<br/>samples = 7<br/>value = [5, 0, 0, 2, 0, 0]<br/>class = 0>, fillcolor="#efb388"] ;
475 -> 477 ;
478 [label=<CommitDays &le; 872.5<br/>gini = 0.642<br/>samples = 49<br/>value = [17, 0, 23, 5, 0, 4]<br/>class = 2>, fillcolor="#dafae7"] ;
474 -> 478 ;
479 [label=<gini = 0.647<br/>samples = 36<br/>value = [17, 0, 12, 4, 0, 3]<br/>class = 0>, fillcolor="#fae5d6"] ;
478 -> 479 ;
480 [label=<gini = 0.272<br/>samples = 13<br/>value = [0, 0, 11, 1, 0, 1]<br/>class = 2>, fillcolor="#5ae996"] ;
478 -> 480 ;
481 [label=<CONTACT_TYPE &le; 23.5<br/>gini = 0.681<br/>samples = 25701<br/>value = [2484, 116, 11271, 3956, 19, 7855]<br/>class = 2>, fillcolor="#d9fae7"] ;
1 -> 481 ;
482 [label=<CONTACT_TYPE &le; 20.5<br/>gini = 0.698<br/>samples = 22242<br/>value = [2257, 107, 8793, 3847, 15, 7223]<br/>class = 2>, fillcolor="#eafcf2"] ;
481 -> 482 ;
483 [label=<Meeting &le; 0.5<br/>gini = 0.71<br/>samples = 17476<br/>value = [1913, 82, 6828, 3678, 15, 4960]<br/>class = 2>, fillcolor="#e1fbec"] ;
482 -> 483 ;
484 [label=<CONTACT_TYPE &le; 18.5<br/>gini = 0.702<br/>samples = 15450<br/>value = [1632, 75, 6320, 2996, 15, 4412]<br/>class = 2>, fillcolor="#ddfbe9"] ;
483 -> 484 ;
485 [label=<BehaviorManagement &le; 0.5<br/>gini = 0.699<br/>samples = 14616<br/>value = [1546, 71, 6038, 2639, 14, 4308]<br/>class = 2>, fillcolor="#defbea"] ;
484 -> 485 ;
486 [label=<Check-in &le; 0.5<br/>gini = 0.68<br/>samples = 8658<br/>value = [923, 55, 3905, 1268, 7, 2500]<br/>class = 2>, fillcolor="#d2f9e2"] ;
485 -> 486 ;
487 [label=<CommitDays &le; 273.5<br/>gini = 0.631<br/>samples = 1391<br/>value = [165, 4, 760, 192, 0, 270]<br/>class = 2>, fillcolor="#a8f4c8"] ;
486 -> 487 ;
488 [label=<SubstanceAbuse &le; 0.5<br/>gini = 0.676<br/>samples = 187<br/>value = [22, 2, 79, 19, 0, 65]<br/>class = 2>, fillcolor="#e8fcf1"] ;
487 -> 488 ;
489 [label=<gini = 0.675<br/>samples = 179<br/>value = [21, 2, 79, 19, 0, 58]<br/>class = 2>, fillcolor="#ddfae9"] ;
488 -> 489 ;
490 [label=<gini = 0.219<br/>samples = 8<br/>value = [1, 0, 0, 0, 0, 7]<br/>class = 5>, fillcolor="#e955ab"] ;
488 -> 490 ;
491 [label=<Client &le; 0.5<br/>gini = 0.616<br/>samples = 1204<br/>value = [143, 2, 681, 173, 0, 205]<br/>class = 2>, fillcolor="#a1f3c3"] ;
487 -> 491 ;
492 [label=<gini = 0.433<br/>samples = 196<br/>value = [10, 0, 144, 16, 0, 26]<br/>class = 2>, fillcolor="#76eda8"] ;
491 -> 492 ;
493 [label=<gini = 0.643<br/>samples = 1008<br/>value = [133, 2, 537, 157, 0, 179]<br/>class = 2>, fillcolor="#a9f4c9"] ;
491 -> 493 ;
494 [label=<RRT &le; 0.5<br/>gini = 0.686<br/>samples = 7267<br/>value = [758, 51, 3145, 1076, 7, 2230]<br/>class = 2>, fillcolor="#dbfae8"] ;
486 -> 494 ;
495 [label=<CommitDays &le; 1855.0<br/>gini = 0.684<br/>samples = 7068<br/>value = [736, 51, 3069, 1016, 7, 2189]<br/>class = 2>, fillcolor="#dbfae8"] ;
494 -> 495 ;
496 [label=<gini = 0.682<br/>samples = 6820<br/>value = [687, 50, 2967, 968, 6, 2142]<br/>class = 2>, fillcolor="#dcfae9"] ;
495 -> 496 ;
497 [label=<gini = 0.718<br/>samples = 248<br/>value = [49, 1, 102, 48, 1, 47]<br/>class = 2>, fillcolor="#caf8dd"] ;
495 -> 497 ;
498 [label=<CommitDays &le; 120.5<br/>gini = 0.709<br/>samples = 199<br/>value = [22, 0, 76, 60, 0, 41]<br/>class = 2>, fillcolor="#e8fcf0"] ;
494 -> 498 ;
499 [label=<gini = 0.338<br/>samples = 15<br/>value = [2, 0, 12, 1, 0, 0]<br/>class = 2>, fillcolor="#67eb9e"] ;
498 -> 499 ;
500 [label=<gini = 0.715<br/>samples = 184<br/>value = [20, 0, 64, 59, 0, 41]<br/>class = 2>, fillcolor="#f7fefa"] ;
498 -> 500 ;
501 [label=<Educational/Vocational &le; 0.5<br/>gini = 0.716<br/>samples = 5958<br/>value = [623, 16, 2133, 1371, 7, 1808]<br/>class = 2>, fillcolor="#effdf5"] ;
485 -> 501 ;
502 [label=<Educational &le; 0.5<br/>gini = 0.715<br/>samples = 4836<br/>value = [535, 14, 1843, 1125, 7, 1312]<br/>class = 2>, fillcolor="#e1fbec"] ;
501 -> 502 ;
503 [label=<InternalCollateral &le; 0.5<br/>gini = 0.706<br/>samples = 3421<br/>value = [361, 9, 1401, 794, 7, 849]<br/>class = 2>, fillcolor="#d5f9e4"] ;
502 -> 503 ;
504 [label=<gini = 0.687<br/>samples = 1407<br/>value = [156, 5, 638, 263, 0, 345]<br/>class = 2>, fillcolor="#c8f8dc"] ;
503 -> 504 ;
505 [label=<gini = 0.714<br/>samples = 2014<br/>value = [205, 4, 763, 531, 7, 504]<br/>class = 2>, fillcolor="#e0fbeb"] ;
503 -> 505 ;
506 [label=<Housing &le; 0.5<br/>gini = 0.726<br/>samples = 1415<br/>value = [174, 5, 442, 331, 0, 463]<br/>class = 5>, fillcolor="#fefbfd"] ;
502 -> 506 ;
507 [label=<gini = 0.717<br/>samples = 976<br/>value = [100, 4, 266, 250, 0, 356]<br/>class = 5>, fillcolor="#fce6f3"] ;
506 -> 507 ;
508 [label=<gini = 0.717<br/>samples = 439<br/>value = [74, 1, 176, 81, 0, 107]<br/>class = 2>, fillcolor="#d6fae5"] ;
506 -> 508 ;
509 [label=<CommitDays &le; 1043.5<br/>gini = 0.684<br/>samples = 1122<br/>value = [88, 2, 290, 246, 0, 496]<br/>class = 5>, fillcolor="#f9cee7"] ;
501 -> 509 ;
510 [label=<CommitDays &le; 712.5<br/>gini = 0.699<br/>samples = 747<br/>value = [61, 1, 202, 183, 0, 300]<br/>class = 5>, fillcolor="#fadbed"] ;
509 -> 510 ;
511 [label=<gini = 0.678<br/>samples = 474<br/>value = [37, 0, 125, 98, 0, 214]<br/>class = 5>, fillcolor="#f8cde6"] ;
510 -> 511 ;
512 [label=<gini = 0.717<br/>samples = 273<br/>value = [24, 1, 77, 85, 0, 86]<br/>class = 5>, fillcolor="#fffefe"] ;
510 -> 512 ;
513 [label=<CommitDays &le; 1109.0<br/>gini = 0.638<br/>samples = 375<br/>value = [27, 1, 88, 63, 0, 196]<br/>class = 5>, fillcolor="#f5b4da"] ;
509 -> 513 ;
514 [label=<gini = 0.392<br/>samples = 53<br/>value = [0, 0, 10, 3, 0, 40]<br/>class = 5>, fillcolor="#ed75bb"] ;
513 -> 514 ;
515 [label=<gini = 0.665<br/>samples = 322<br/>value = [27, 1, 78, 60, 0, 156]<br/>class = 5>, fillcolor="#f7c0e0"] ;
513 -> 515 ;
516 [label=<RRT &le; 0.5<br/>gini = 0.676<br/>samples = 834<br/>value = [86, 4, 282, 357, 1, 104]<br/>class = 3>, fillcolor="#e4f2fb"] ;
484 -> 516 ;
517 [label=<CommitDays &le; 311.0<br/>gini = 0.669<br/>samples = 422<br/>value = [47, 2, 192, 132, 0, 49]<br/>class = 2>, fillcolor="#d6fae5"] ;
516 -> 517 ;
518 [label=<Legal &le; 0.5<br/>gini = 0.585<br/>samples = 64<br/>value = [5, 0, 19, 36, 0, 4]<br/>class = 3>, fillcolor="#b4daf5"] ;
517 -> 518 ;
519 [label=<Client &le; 0.5<br/>gini = 0.56<br/>samples = 59<br/>value = [5, 0, 14, 36, 0, 4]<br/>class = 3>, fillcolor="#9ecff2"] ;
518 -> 519 ;
520 [label=<gini = 0.505<br/>samples = 54<br/>value = [4, 0, 11, 36, 0, 3]<br/>class = 3>, fillcolor="#8cc6f0"] ;
519 -> 520 ;
521 [label=<gini = 0.56<br/>samples = 5<br/>value = [1, 0, 3, 0, 0, 1]<br/>class = 2>, fillcolor="#9cf2c0"] ;
519 -> 521 ;
522 [label=<gini = 0.0<br/>samples = 5<br/>value = [0, 0, 5, 0, 0, 0]<br/>class = 2>, fillcolor="#39e581"] ;
518 -> 522 ;
523 [label=<Educational/Vocational &le; 0.5<br/>gini = 0.665<br/>samples = 358<br/>value = [42, 2, 173, 96, 0, 45]<br/>class = 2>, fillcolor="#c5f7da"] ;
517 -> 523 ;
524 [label=<Parent/Guardian &le; 0.5<br/>gini = 0.651<br/>samples = 290<br/>value = [37, 2, 150, 64, 0, 37]<br/>class = 2>, fillcolor="#b4f5cf"] ;
523 -> 524 ;
525 [label=<gini = 0.625<br/>samples = 257<br/>value = [29, 2, 142, 52, 0, 32]<br/>class = 2>, fillcolor="#a8f4c8"] ;
524 -> 525 ;
526 [label=<gini = 0.727<br/>samples = 33<br/>value = [8, 0, 8, 12, 0, 5]<br/>class = 3>, fillcolor="#dfeffb"] ;
524 -> 526 ;
527 [label=<CommitDays &le; 1564.5<br/>gini = 0.645<br/>samples = 68<br/>value = [5, 0, 23, 32, 0, 8]<br/>class = 3>, fillcolor="#d7ebfa"] ;
523 -> 527 ;
528 [label=<gini = 0.638<br/>samples = 63<br/>value = [5, 0, 18, 32, 0, 8]<br/>class = 3>, fillcolor="#c1e1f7"] ;
527 -> 528 ;
529 [label=<gini = 0.0<br/>samples = 5<br/>value = [0, 0, 5, 0, 0, 0]<br/>class = 2>, fillcolor="#39e581"] ;
527 -> 529 ;
530 [label=<Guardian &le; 0.5<br/>gini = 0.627<br/>samples = 412<br/>value = [39, 2, 90, 225, 1, 55]<br/>class = 3>, fillcolor="#acd6f4"] ;
516 -> 530 ;
531 [label=<FamilyRelationships &le; 0.5<br/>gini = 0.602<br/>samples = 346<br/>value = [32, 1, 60, 201, 1, 51]<br/>class = 3>, fillcolor="#9dcff2"] ;
530 -> 531 ;
532 [label=<Vocational &le; 0.5<br/>gini = 0.592<br/>samples = 332<br/>value = [32, 1, 54, 197, 1, 47]<br/>class = 3>, fillcolor="#99cdf2"] ;
531 -> 532 ;
533 [label=<gini = 0.589<br/>samples = 330<br/>value = [32, 1, 54, 197, 1, 45]<br/>class = 3>, fillcolor="#98ccf2"] ;
532 -> 533 ;
534 [label=<gini = 0.0<br/>samples = 2<br/>value = [0, 0, 0, 0, 0, 2]<br/>class = 5>, fillcolor="#e5399d"] ;
532 -> 534 ;
535 [label=<CommitDays &le; 254.0<br/>gini = 0.653<br/>samples = 14<br/>value = [0, 0, 6, 4, 0, 4]<br/>class = 2>, fillcolor="#d7fae6"] ;
531 -> 535 ;
536 [label=<gini = 0.0<br/>samples = 4<br/>value = [0, 0, 0, 4, 0, 0]<br/>class = 3>, fillcolor="#399de5"] ;
535 -> 536 ;
537 [label=<gini = 0.48<br/>samples = 10<br/>value = [0, 0, 6, 0, 0, 4]<br/>class = 2>, fillcolor="#bdf6d5"] ;
535 -> 537 ;
538 [label=<Psychological &le; 0.5<br/>gini = 0.646<br/>samples = 66<br/>value = [7, 1, 30, 24, 0, 4]<br/>class = 2>, fillcolor="#e3fbed"] ;
530 -> 538 ;
539 [label=<BehaviorManagement &le; 0.5<br/>gini = 0.645<br/>samples = 62<br/>value = [7, 1, 30, 20, 0, 4]<br/>class = 2>, fillcolor="#d0f9e1"] ;
538 -> 539 ;
540 [label=<gini = 0.608<br/>samples = 57<br/>value = [5, 0, 29, 20, 0, 3]<br/>class = 2>, fillcolor="#cff9e0"] ;
539 -> 540 ;
541 [label=<gini = 0.72<br/>samples = 5<br/>value = [2, 1, 1, 0, 0, 1]<br/>class = 0>, fillcolor="#f8e0ce"] ;
539 -> 541 ;
542 [label=<gini = 0.0<br/>samples = 4<br/>value = [0, 0, 0, 4, 0, 0]<br/>class = 3>, fillcolor="#399de5"] ;
538 -> 542 ;
543 [label=<Client &le; 0.5<br/>gini = 0.731<br/>samples = 2026<br/>value = [281, 7, 508, 682, 0, 548]<br/>class = 3>, fillcolor="#edf6fd"] ;
483 -> 543 ;
544 [label=<CommitDays &le; 121.0<br/>gini = 0.679<br/>samples = 159<br/>value = [11, 0, 65, 29, 0, 54]<br/>class = 2>, fillcolor="#eafcf2"] ;
543 -> 544 ;
545 [label=<CONTACT_TYPE &le; 19.0<br/>gini = 0.219<br/>samples = 8<br/>value = [0, 0, 0, 1, 0, 7]<br/>class = 5>, fillcolor="#e955ab"] ;
544 -> 545 ;
546 [label=<gini = 0.0<br/>samples = 7<br/>value = [0, 0, 0, 0, 0, 7]<br/>class = 5>, fillcolor="#e5399d"] ;
545 -> 546 ;
547 [label=<gini = 0.0<br/>samples = 1<br/>value = [0, 0, 0, 1, 0, 0]<br/>class = 3>, fillcolor="#399de5"] ;
545 -> 547 ;
548 [label=<BehaviorManagement &le; 0.5<br/>gini = 0.678<br/>samples = 151<br/>value = [11, 0, 65, 28, 0, 47]<br/>class = 2>, fillcolor="#ddfae9"] ;
544 -> 548 ;
549 [label=<CommitDays &le; 131.0<br/>gini = 0.645<br/>samples = 116<br/>value = [5, 0, 52, 17, 0, 42]<br/>class = 2>, fillcolor="#e4fbee"] ;
548 -> 549 ;
550 [label=<gini = 0.0<br/>samples = 2<br/>value = [2, 0, 0, 0, 0, 0]<br/>class = 0>, fillcolor="#e58139"] ;
549 -> 550 ;
551 [label=<CommitDays &le; 213.5<br/>gini = 0.633<br/>samples = 114<br/>value = [3, 0, 52, 17, 0, 42]<br/>class = 2>, fillcolor="#e4fbee"] ;
549 -> 551 ;
552 [label=<gini = 0.408<br/>samples = 14<br/>value = [0, 0, 4, 0, 0, 10]<br/>class = 5>, fillcolor="#ef88c4"] ;
551 -> 552 ;
553 [label=<gini = 0.637<br/>samples = 100<br/>value = [3, 0, 48, 17, 0, 32]<br/>class = 2>, fillcolor="#d0f9e1"] ;
551 -> 553 ;
554 [label=<SocialServices &le; 0.5<br/>gini = 0.713<br/>samples = 35<br/>value = [6, 0, 13, 11, 0, 5]<br/>class = 2>, fillcolor="#eefdf4"] ;
548 -> 554 ;
555 [label=<SubstanceAbuse &le; 0.5<br/>gini = 0.69<br/>samples = 22<br/>value = [3, 0, 5, 10, 0, 4]<br/>class = 3>, fillcolor="#c5e2f7"] ;
554 -> 555 ;
556 [label=<gini = 0.74<br/>samples = 17<br/>value = [3, 0, 5, 5, 0, 4]<br/>class = 2>, fillcolor="#ffffff"] ;
555 -> 556 ;
557 [label=<gini = 0.0<br/>samples = 5<br/>value = [0, 0, 0, 5, 0, 0]<br/>class = 3>, fillcolor="#399de5"] ;
555 -> 557 ;
558 [label=<CommitDays &le; 315.5<br/>gini = 0.556<br/>samples = 13<br/>value = [3, 0, 8, 1, 0, 1]<br/>class = 2>, fillcolor="#9cf2c0"] ;
554 -> 558 ;
559 [label=<gini = 0.37<br/>samples = 9<br/>value = [0, 0, 7, 1, 0, 1]<br/>class = 2>, fillcolor="#6aeca0"] ;
558 -> 559 ;
560 [label=<gini = 0.375<br/>samples = 4<br/>value = [3, 0, 1, 0, 0, 0]<br/>class = 0>, fillcolor="#eeab7b"] ;
558 -> 560 ;
561 [label=<Guardian &le; 0.5<br/>gini = 0.73<br/>samples = 1867<br/>value = [270, 7, 443, 653, 0, 494]<br/>class = 3>, fillcolor="#e8f4fc"] ;
543 -> 561 ;
562 [label=<LifeSkills &le; 0.5<br/>gini = 0.736<br/>samples = 1571<br/>value = [237, 7, 391, 510, 0, 426]<br/>class = 3>, fillcolor="#f0f8fd"] ;
561 -> 562 ;
563 [label=<CommitDays &le; 839.5<br/>gini = 0.734<br/>samples = 1339<br/>value = [206, 6, 334, 461, 0, 332]<br/>class = 3>, fillcolor="#e6f3fc"] ;
562 -> 563 ;
564 [label=<CommitDays &le; 706.0<br/>gini = 0.722<br/>samples = 848<br/>value = [98, 4, 222, 305, 0, 219]<br/>class = 3>, fillcolor="#e5f2fc"] ;
563 -> 564 ;
565 [label=<gini = 0.727<br/>samples = 710<br/>value = [92, 4, 169, 251, 0, 194]<br/>class = 3>, fillcolor="#e9f4fc"] ;
564 -> 565 ;
566 [label=<gini = 0.665<br/>samples = 138<br/>value = [6, 0, 53, 54, 0, 25]<br/>class = 3>, fillcolor="#fdfeff"] ;
564 -> 566 ;
567 [label=<Check-in &le; 0.5<br/>gini = 0.746<br/>samples = 491<br/>value = [108, 2, 112, 156, 0, 113]<br/>class = 3>, fillcolor="#e8f4fc"] ;
563 -> 567 ;
568 [label=<gini = 0.729<br/>samples = 258<br/>value = [71, 0, 46, 92, 0, 49]<br/>class = 3>, fillcolor="#e9f4fc"] ;
567 -> 568 ;
569 [label=<gini = 0.744<br/>samples = 233<br/>value = [37, 2, 66, 64, 0, 64]<br/>class = 2>, fillcolor="#fdfffe"] ;
567 -> 569 ;
570 [label=<Psychiatric &le; 0.5<br/>gini = 0.713<br/>samples = 232<br/>value = [31, 1, 57, 49, 0, 94]<br/>class = 5>, fillcolor="#fad5ea"] ;
562 -> 570 ;
571 [label=<Educational &le; 0.5<br/>gini = 0.73<br/>samples = 151<br/>value = [25, 0, 31, 42, 0, 53]<br/>class = 5>, fillcolor="#fcebf5"] ;
570 -> 571 ;
572 [label=<gini = 0.705<br/>samples = 35<br/>value = [12, 0, 12, 8, 0, 3]<br/>class = 0>, fillcolor="#ffffff"] ;
571 -> 572 ;
573 [label=<gini = 0.689<br/>samples = 116<br/>value = [13, 0, 19, 34, 0, 50]<br/>class = 5>, fillcolor="#fad8ec"] ;
571 -> 573 ;
574 [label=<Psychological &le; 0.5<br/>gini = 0.628<br/>samples = 81<br/>value = [6, 1, 26, 7, 0, 41]<br/>class = 5>, fillcolor="#f8c9e4"] ;
570 -> 574 ;
575 [label=<gini = 0.0<br/>samples = 3<br/>value = [0, 0, 3, 0, 0, 0]<br/>class = 2>, fillcolor="#39e581"] ;
574 -> 575 ;
576 [label=<gini = 0.623<br/>samples = 78<br/>value = [6, 1, 23, 7, 0, 41]<br/>class = 5>, fillcolor="#f6bedf"] ;
574 -> 576 ;
577 [label=<CurfewManagement &le; 0.5<br/>gini = 0.671<br/>samples = 296<br/>value = [33, 0, 52, 143, 0, 68]<br/>class = 3>, fillcolor="#bedff6"] ;
561 -> 577 ;
578 [label=<CommitDays &le; 338.5<br/>gini = 0.66<br/>samples = 286<br/>value = [32, 0, 47, 143, 0, 64]<br/>class = 3>, fillcolor="#b9dcf6"] ;
577 -> 578 ;
579 [label=<SocialServices &le; 0.5<br/>gini = 0.74<br/>samples = 33<br/>value = [7, 0, 7, 8, 0, 11]<br/>class = 5>, fillcolor="#fce7f3"] ;
578 -> 579 ;
580 [label=<gini = 0.709<br/>samples = 28<br/>value = [7, 0, 7, 3, 0, 11]<br/>class = 5>, fillcolor="#fad9ec"] ;
579 -> 580 ;
581 [label=<gini = 0.0<br/>samples = 5<br/>value = [0, 0, 0, 5, 0, 0]<br/>class = 3>, fillcolor="#399de5"] ;
579 -> 581 ;
582 [label=<CommitDays &le; 1856.5<br/>gini = 0.637<br/>samples = 253<br/>value = [25, 0, 40, 135, 0, 53]<br/>class = 3>, fillcolor="#aed7f4"] ;
578 -> 582 ;
583 [label=<gini = 0.621<br/>samples = 243<br/>value = [20, 0, 39, 134, 0, 50]<br/>class = 3>, fillcolor="#a9d4f4"] ;
582 -> 583 ;
584 [label=<gini = 0.64<br/>samples = 10<br/>value = [5, 0, 1, 1, 0, 3]<br/>class = 0>, fillcolor="#f8dbc6"] ;
582 -> 584 ;
585 [label=<CommitDays &le; 1328.0<br/>gini = 0.58<br/>samples = 10<br/>value = [1, 0, 5, 0, 0, 4]<br/>class = 2>, fillcolor="#defbea"] ;
577 -> 585 ;
586 [label=<CommitDays &le; 422.5<br/>gini = 0.531<br/>samples = 8<br/>value = [1, 0, 5, 0, 0, 2]<br/>class = 2>, fillcolor="#9cf2c0"] ;
585 -> 586 ;
587 [label=<gini = 0.0<br/>samples = 1<br/>value = [1, 0, 0, 0, 0, 0]<br/>class = 0>, fillcolor="#e58139"] ;
586 -> 587 ;
588 [label=<gini = 0.408<br/>samples = 7<br/>value = [0, 0, 5, 0, 0, 2]<br/>class = 2>, fillcolor="#88efb3"] ;
586 -> 588 ;
589 [label=<gini = 0.0<br/>samples = 2<br/>value = [0, 0, 0, 0, 0, 2]<br/>class = 5>, fillcolor="#e5399d"] ;
585 -> 589 ;
590 [label=<CONTACT_TYPE &le; 22.0<br/>gini = 0.598<br/>samples = 4766<br/>value = [344, 25, 1965, 169, 0, 2263]<br/>class = 5>, fillcolor="#fceaf5"] ;
482 -> 590 ;
591 [label=<CommitDays &le; 503.5<br/>gini = 0.588<br/>samples = 3452<br/>value = [209, 13, 1304, 153, 0, 1773]<br/>class = 5>, fillcolor="#f9d4ea"] ;
590 -> 591 ;
592 [label=<FamilyRelationships &le; 0.5<br/>gini = 0.595<br/>samples = 549<br/>value = [31, 0, 269, 30, 0, 219]<br/>class = 2>, fillcolor="#e1fbec"] ;
591 -> 592 ;
593 [label=<CommitDays &le; 492.0<br/>gini = 0.608<br/>samples = 448<br/>value = [26, 0, 206, 30, 0, 186]<br/>class = 2>, fillcolor="#f0fdf5"] ;
592 -> 593 ;
594 [label=<CommitDays &le; 299.0<br/>gini = 0.61<br/>samples = 421<br/>value = [25, 0, 187, 28, 0, 181]<br/>class = 2>, fillcolor="#fafefc"] ;
593 -> 594 ;
595 [label=<BehaviorManagement &le; 0.5<br/>gini = 0.597<br/>samples = 103<br/>value = [6, 0, 56, 9, 0, 32]<br/>class = 2>, fillcolor="#bcf6d4"] ;
594 -> 595 ;
596 [label=<gini = 0.659<br/>samples = 69<br/>value = [6, 0, 30, 8, 0, 25]<br/>class = 2>, fillcolor="#e8fcf1"] ;
595 -> 596 ;
597 [label=<gini = 0.372<br/>samples = 34<br/>value = [0, 0, 26, 1, 0, 7]<br/>class = 2>, fillcolor="#74eda6"] ;
595 -> 597 ;
598 [label=<CommitDays &le; 301.5<br/>gini = 0.604<br/>samples = 318<br/>value = [19, 0, 131, 19, 0, 149]<br/>class = 5>, fillcolor="#fcecf6"] ;
594 -> 598 ;
599 [label=<gini = 0.463<br/>samples = 21<br/>value = [2, 0, 2, 2, 0, 15]<br/>class = 5>, fillcolor="#ed78bc"] ;
598 -> 599 ;
600 [label=<gini = 0.601<br/>samples = 297<br/>value = [17, 0, 129, 17, 0, 134]<br/>class = 5>, fillcolor="#fef9fc"] ;
598 -> 600 ;
601 [label=<BehaviorManagement &le; 0.5<br/>gini = 0.464<br/>samples = 27<br/>value = [1, 0, 19, 2, 0, 5]<br/>class = 2>, fillcolor="#81eeaf"] ;
593 -> 601 ;
602 [label=<Check-in &le; 0.5<br/>gini = 0.39<br/>samples = 25<br/>value = [0, 0, 19, 2, 0, 4]<br/>class = 2>, fillcolor="#72eca5"] ;
601 -> 602 ;
603 [label=<gini = 0.444<br/>samples = 6<br/>value = [0, 0, 4, 2, 0, 0]<br/>class = 2>, fillcolor="#9cf2c0"] ;
602 -> 603 ;
604 [label=<gini = 0.332<br/>samples = 19<br/>value = [0, 0, 15, 0, 0, 4]<br/>class = 2>, fillcolor="#6eeca3"] ;
602 -> 604 ;
605 [label=<Father &le; 0.5<br/>gini = 0.5<br/>samples = 2<br/>value = [1, 0, 0, 0, 0, 1]<br/>class = 0>, fillcolor="#ffffff"] ;
601 -> 605 ;
606 [label=<gini = 0.0<br/>samples = 1<br/>value = [0, 0, 0, 0, 0, 1]<br/>class = 5>, fillcolor="#e5399d"] ;
605 -> 606 ;
607 [label=<gini = 0.0<br/>samples = 1<br/>value = [1, 0, 0, 0, 0, 0]<br/>class = 0>, fillcolor="#e58139"] ;
605 -> 607 ;
608 [label=<CommitDays &le; 461.0<br/>gini = 0.502<br/>samples = 101<br/>value = [5, 0, 63, 0, 0, 33]<br/>class = 2>, fillcolor="#a8f4c7"] ;
592 -> 608 ;
609 [label=<AncillaryServices &le; 0.5<br/>gini = 0.486<br/>samples = 97<br/>value = [5, 0, 63, 0, 0, 29]<br/>class = 2>, fillcolor="#9cf2c0"] ;
608 -> 609 ;
610 [label=<CommitDays &le; 254.5<br/>gini = 0.428<br/>samples = 85<br/>value = [2, 0, 60, 0, 0, 23]<br/>class = 2>, fillcolor="#89efb4"] ;
609 -> 610 ;
611 [label=<gini = 0.444<br/>samples = 12<br/>value = [0, 0, 4, 0, 0, 8]<br/>class = 5>, fillcolor="#f29cce"] ;
610 -> 611 ;
612 [label=<gini = 0.369<br/>samples = 73<br/>value = [2, 0, 56, 0, 0, 15]<br/>class = 2>, fillcolor="#73eda6"] ;
610 -> 612 ;
613 [label=<Vocational &le; 0.5<br/>gini = 0.625<br/>samples = 12<br/>value = [3, 0, 3, 0, 0, 6]<br/>class = 5>, fillcolor="#f6bdde"] ;
609 -> 613 ;
614 [label=<gini = 0.444<br/>samples = 9<br/>value = [0, 0, 3, 0, 0, 6]<br/>class = 5>, fillcolor="#f29cce"] ;
613 -> 614 ;
615 [label=<gini = 0.0<br/>samples = 3<br/>value = [3, 0, 0, 0, 0, 0]<br/>class = 0>, fillcolor="#e58139"] ;
613 -> 615 ;
616 [label=<gini = 0.0<br/>samples = 4<br/>value = [0, 0, 0, 0, 0, 4]<br/>class = 5>, fillcolor="#e5399d"] ;
608 -> 616 ;
617 [label=<Educational &le; 0.5<br/>gini = 0.581<br/>samples = 2903<br/>value = [178, 13, 1035, 123, 0, 1554]<br/>class = 5>, fillcolor="#f8c8e4"] ;
591 -> 617 ;
618 [label=<InternalCollateral &le; 0.5<br/>gini = 0.581<br/>samples = 1293<br/>value = [69, 6, 530, 46, 0, 642]<br/>class = 5>, fillcolor="#fbe2f1"] ;
617 -> 618 ;
619 [label=<CommitDays &le; 533.0<br/>gini = 0.569<br/>samples = 1106<br/>value = [56, 6, 440, 30, 0, 574]<br/>class = 5>, fillcolor="#fad7eb"] ;
618 -> 619 ;
620 [label=<CommitDays &le; 505.0<br/>gini = 0.381<br/>samples = 39<br/>value = [1, 0, 6, 2, 0, 30]<br/>class = 5>, fillcolor="#ec6fb8"] ;
619 -> 620 ;
621 [label=<gini = 0.32<br/>samples = 5<br/>value = [1, 0, 4, 0, 0, 0]<br/>class = 2>, fillcolor="#6aeca0"] ;
620 -> 621 ;
622 [label=<gini = 0.215<br/>samples = 34<br/>value = [0, 0, 2, 2, 0, 30]<br/>class = 5>, fillcolor="#e852a9"] ;
620 -> 622 ;
623 [label=<Legal &le; 0.5<br/>gini = 0.571<br/>samples = 1067<br/>value = [55, 6, 434, 28, 0, 544]<br/>class = 5>, fillcolor="#faddee"] ;
619 -> 623 ;
624 [label=<gini = 0.569<br/>samples = 1052<br/>value = [53, 6, 423, 27, 0, 543]<br/>class = 5>, fillcolor="#fad9ec"] ;
623 -> 624 ;
625 [label=<gini = 0.436<br/>samples = 15<br/>value = [2, 0, 11, 1, 0, 1]<br/>class = 2>, fillcolor="#76eda8"] ;
623 -> 625 ;
626 [label=<Meeting &le; 0.5<br/>gini = 0.624<br/>samples = 187<br/>value = [13, 0, 90, 16, 0, 68]<br/>class = 2>, fillcolor="#dafae8"] ;
618 -> 626 ;
627 [label=<ExternalCollateral &le; 0.5<br/>gini = 0.601<br/>samples = 176<br/>value = [13, 0, 88, 9, 0, 66]<br/>class = 2>, fillcolor="#d7fae6"] ;
626 -> 627 ;
628 [label=<gini = 0.547<br/>samples = 115<br/>value = [6, 0, 67, 4, 0, 38]<br/>class = 2>, fillcolor="#b4f5d0"] ;
627 -> 628 ;
629 [label=<gini = 0.651<br/>samples = 61<br/>value = [7, 0, 21, 5, 0, 28]<br/>class = 5>, fillcolor="#fadcee"] ;
627 -> 629 ;
630 [label=<Check-in &le; 0.5<br/>gini = 0.529<br/>samples = 11<br/>value = [0, 0, 2, 7, 0, 2]<br/>class = 3>, fillcolor="#91c9f1"] ;
626 -> 630 ;
631 [label=<gini = 0.346<br/>samples = 9<br/>value = [0, 0, 0, 7, 0, 2]<br/>class = 3>, fillcolor="#72b9ec"] ;
630 -> 631 ;
632 [label=<gini = 0.0<br/>samples = 2<br/>value = [0, 0, 2, 0, 0, 0]<br/>class = 2>, fillcolor="#39e581"] ;
630 -> 632 ;
633 [label=<CurfewManagement &le; 0.5<br/>gini = 0.574<br/>samples = 1610<br/>value = [109, 7, 505, 77, 0, 912]<br/>class = 5>, fillcolor="#f5b6db"] ;
617 -> 633 ;
634 [label=<BehaviorManagement &le; 0.5<br/>gini = 0.57<br/>samples = 1552<br/>value = [108, 7, 468, 75, 0, 894]<br/>class = 5>, fillcolor="#f5b1d8"] ;
633 -> 634 ;
635 [label=<Check-in &le; 0.5<br/>gini = 0.533<br/>samples = 941<br/>value = [66, 2, 264, 27, 0, 582]<br/>class = 5>, fillcolor="#f3a2d1"] ;
634 -> 635 ;
636 [label=<gini = 0.597<br/>samples = 354<br/>value = [35, 0, 117, 14, 0, 188]<br/>class = 5>, fillcolor="#f7c4e2"] ;
635 -> 636 ;
637 [label=<gini = 0.483<br/>samples = 587<br/>value = [31, 2, 147, 13, 0, 394]<br/>class = 5>, fillcolor="#f090c8"] ;
635 -> 637 ;
638 [label=<Schoolvisit &le; 0.5<br/>gini = 0.617<br/>samples = 611<br/>value = [42, 5, 204, 48, 0, 312]<br/>class = 5>, fillcolor="#f8cae5"] ;
634 -> 638 ;
639 [label=<gini = 0.616<br/>samples = 607<br/>value = [42, 5, 200, 48, 0, 312]<br/>class = 5>, fillcolor="#f8c9e4"] ;
638 -> 639 ;
640 [label=<gini = 0.0<br/>samples = 4<br/>value = [0, 0, 4, 0, 0, 0]<br/>class = 2>, fillcolor="#39e581"] ;
638 -> 640 ;
641 [label=<InternalCollateral &le; 0.5<br/>gini = 0.495<br/>samples = 58<br/>value = [1, 0, 37, 2, 0, 18]<br/>class = 2>, fillcolor="#a1f3c3"] ;
633 -> 641 ;
642 [label=<ClothingVoucher &le; 0.5<br/>gini = 0.442<br/>samples = 54<br/>value = [0, 0, 37, 1, 0, 16]<br/>class = 2>, fillcolor="#92f1b9"] ;
641 -> 642 ;
643 [label=<gini = 0.421<br/>samples = 52<br/>value = [0, 0, 37, 1, 0, 14]<br/>class = 2>, fillcolor="#87efb3"] ;
642 -> 643 ;
644 [label=<gini = 0.0<br/>samples = 2<br/>value = [0, 0, 0, 0, 0, 2]<br/>class = 5>, fillcolor="#e5399d"] ;
642 -> 644 ;
645 [label=<CommunityService &le; 0.5<br/>gini = 0.625<br/>samples = 4<br/>value = [1, 0, 0, 1, 0, 2]<br/>class = 5>, fillcolor="#f6bdde"] ;
641 -> 645 ;
646 [label=<gini = 0.444<br/>samples = 3<br/>value = [0, 0, 0, 1, 0, 2]<br/>class = 5>, fillcolor="#f29cce"] ;
645 -> 646 ;
647 [label=<gini = 0.0<br/>samples = 1<br/>value = [1, 0, 0, 0, 0, 0]<br/>class = 0>, fillcolor="#e58139"] ;
645 -> 647 ;
648 [label=<InternalCollateral &le; 0.5<br/>gini = 0.597<br/>samples = 1314<br/>value = [135, 12, 661, 16, 0, 490]<br/>class = 2>, fillcolor="#d6fae5"] ;
590 -> 648 ;
649 [label=<CommitDays &le; 1372.0<br/>gini = 0.579<br/>samples = 1051<br/>value = [117, 10, 581, 6, 0, 337]<br/>class = 2>, fillcolor="#bbf6d4"] ;
648 -> 649 ;
650 [label=<CommitDays &le; 1159.0<br/>gini = 0.586<br/>samples = 873<br/>value = [95, 8, 465, 5, 0, 300]<br/>class = 2>, fillcolor="#c6f8db"] ;
649 -> 650 ;
651 [label=<CommitDays &le; 942.5<br/>gini = 0.57<br/>samples = 755<br/>value = [80, 7, 427, 4, 0, 237]<br/>class = 2>, fillcolor="#b6f5d1"] ;
650 -> 651 ;
652 [label=<CommitDays &le; 901.5<br/>gini = 0.582<br/>samples = 560<br/>value = [55, 5, 298, 4, 0, 198]<br/>class = 2>, fillcolor="#c8f8dc"] ;
651 -> 652 ;
653 [label=<gini = 0.573<br/>samples = 503<br/>value = [52, 5, 283, 4, 0, 159]<br/>class = 2>, fillcolor="#b8f6d2"] ;
652 -> 653 ;
654 [label=<gini = 0.46<br/>samples = 57<br/>value = [3, 0, 15, 0, 0, 39]<br/>class = 5>, fillcolor="#f08ec7"] ;
652 -> 654 ;
655 [label=<Client &le; 0.5<br/>gini = 0.506<br/>samples = 195<br/>value = [25, 2, 129, 0, 0, 39]<br/>class = 2>, fillcolor="#8df0b6"] ;
651 -> 655 ;
656 [label=<gini = 0.313<br/>samples = 44<br/>value = [3, 0, 36, 0, 0, 5]<br/>class = 2>, fillcolor="#62ea9b"] ;
655 -> 656 ;
657 [label=<gini = 0.549<br/>samples = 151<br/>value = [22, 2, 93, 0, 0, 34]<br/>class = 2>, fillcolor="#9bf2bf"] ;
655 -> 657 ;
658 [label=<CommitDays &le; 1225.0<br/>gini = 0.595<br/>samples = 118<br/>value = [15, 1, 38, 1, 0, 63]<br/>class = 5>, fillcolor="#f7c1e0"] ;
650 -> 658 ;
659 [label=<Housing &le; 0.5<br/>gini = 0.38<br/>samples = 33<br/>value = [1, 0, 7, 0, 0, 25]<br/>class = 5>, fillcolor="#ed76bb"] ;
658 -> 659 ;
660 [label=<gini = 0.238<br/>samples = 29<br/>value = [0, 0, 4, 0, 0, 25]<br/>class = 5>, fillcolor="#e959ad"] ;
659 -> 660 ;
661 [label=<gini = 0.375<br/>samples = 4<br/>value = [1, 0, 3, 0, 0, 0]<br/>class = 2>, fillcolor="#7beeab"] ;
659 -> 661 ;
662 [label=<BehaviorManagement &le; 0.5<br/>gini = 0.64<br/>samples = 85<br/>value = [14, 1, 31, 1, 0, 38]<br/>class = 5>, fillcolor="#fce5f2"] ;
658 -> 662 ;
663 [label=<gini = 0.645<br/>samples = 75<br/>value = [14, 1, 24, 1, 0, 35]<br/>class = 5>, fillcolor="#f9d4ea"] ;
662 -> 663 ;
664 [label=<gini = 0.42<br/>samples = 10<br/>value = [0, 0, 7, 0, 0, 3]<br/>class = 2>, fillcolor="#8ef0b7"] ;
662 -> 664 ;
665 [label=<Recreation &le; 0.5<br/>gini = 0.517<br/>samples = 178<br/>value = [22, 2, 116, 1, 0, 37]<br/>class = 2>, fillcolor="#90f0b8"] ;
649 -> 665 ;
666 [label=<ExternalCollateral &le; 0.5<br/>gini = 0.506<br/>samples = 175<br/>value = [21, 2, 116, 1, 0, 35]<br/>class = 2>, fillcolor="#8cf0b6"] ;
665 -> 666 ;
667 [label=<Parent/Guardian &le; 0.5<br/>gini = 0.493<br/>samples = 171<br/>value = [19, 2, 115, 0, 0, 35]<br/>class = 2>, fillcolor="#8bf0b5"] ;
666 -> 667 ;
668 [label=<gini = 0.47<br/>samples = 145<br/>value = [16, 2, 101, 0, 0, 26]<br/>class = 2>, fillcolor="#82efb0"] ;
667 -> 668 ;
669 [label=<gini = 0.577<br/>samples = 26<br/>value = [3, 0, 14, 0, 0, 9]<br/>class = 2>, fillcolor="#c5f7da"] ;
667 -> 669 ;
670 [label=<CommitDays &le; 1655.5<br/>gini = 0.625<br/>samples = 4<br/>value = [2, 0, 1, 1, 0, 0]<br/>class = 0>, fillcolor="#f6d5bd"] ;
666 -> 670 ;
671 [label=<gini = 0.0<br/>samples = 2<br/>value = [2, 0, 0, 0, 0, 0]<br/>class = 0>, fillcolor="#e58139"] ;
670 -> 671 ;
672 [label=<gini = 0.5<br/>samples = 2<br/>value = [0, 0, 1, 1, 0, 0]<br/>class = 2>, fillcolor="#ffffff"] ;
670 -> 672 ;
673 [label=<HealthServices &le; 0.5<br/>gini = 0.444<br/>samples = 3<br/>value = [1, 0, 0, 0, 0, 2]<br/>class = 5>, fillcolor="#f29cce"] ;
665 -> 673 ;
674 [label=<Mother &le; 0.5<br/>gini = 0.5<br/>samples = 2<br/>value = [1, 0, 0, 0, 0, 1]<br/>class = 0>, fillcolor="#ffffff"] ;
673 -> 674 ;
675 [label=<gini = 0.0<br/>samples = 1<br/>value = [1, 0, 0, 0, 0, 0]<br/>class = 0>, fillcolor="#e58139"] ;
674 -> 675 ;
676 [label=<gini = 0.0<br/>samples = 1<br/>value = [0, 0, 0, 0, 0, 1]<br/>class = 5>, fillcolor="#e5399d"] ;
674 -> 676 ;
677 [label=<gini = 0.0<br/>samples = 1<br/>value = [0, 0, 0, 0, 0, 1]<br/>class = 5>, fillcolor="#e5399d"] ;
673 -> 677 ;
678 [label=<CommitDays &le; 1672.0<br/>gini = 0.563<br/>samples = 263<br/>value = [18, 2, 80, 10, 0, 153]<br/>class = 5>, fillcolor="#f5b0d8"] ;
648 -> 678 ;
679 [label=<BehaviorManagement &le; 0.5<br/>gini = 0.626<br/>samples = 184<br/>value = [16, 2, 70, 10, 0, 86]<br/>class = 5>, fillcolor="#fbe3f1"] ;
678 -> 679 ;
680 [label=<AncillaryServices &le; 0.5<br/>gini = 0.585<br/>samples = 145<br/>value = [15, 2, 49, 1, 0, 78]<br/>class = 5>, fillcolor="#f7c3e1"] ;
679 -> 680 ;
681 [label=<CommitDays &le; 718.5<br/>gini = 0.574<br/>samples = 133<br/>value = [15, 2, 39, 1, 0, 76]<br/>class = 5>, fillcolor="#f5b1d8"] ;
680 -> 681 ;
682 [label=<gini = 0.494<br/>samples = 93<br/>value = [5, 2, 25, 0, 0, 61]<br/>class = 5>, fillcolor="#f196cb"] ;
681 -> 682 ;
683 [label=<gini = 0.674<br/>samples = 40<br/>value = [10, 0, 14, 1, 0, 15]<br/>class = 5>, fillcolor="#fef7fb"] ;
681 -> 683 ;
684 [label=<Legal &le; 0.5<br/>gini = 0.278<br/>samples = 12<br/>value = [0, 0, 10, 0, 0, 2]<br/>class = 2>, fillcolor="#61ea9a"] ;
680 -> 684 ;
685 [label=<gini = 0.165<br/>samples = 11<br/>value = [0, 0, 10, 0, 0, 1]<br/>class = 2>, fillcolor="#4de88e"] ;
684 -> 685 ;
686 [label=<gini = 0.0<br/>samples = 1<br/>value = [0, 0, 0, 0, 0, 1]<br/>class = 5>, fillcolor="#e5399d"] ;
684 -> 686 ;
687 [label=<Client &le; 0.5<br/>gini = 0.614<br/>samples = 39<br/>value = [1, 0, 21, 9, 0, 8]<br/>class = 2>, fillcolor="#b0f5cd"] ;
679 -> 687 ;
688 [label=<CommitDays &le; 744.5<br/>gini = 0.43<br/>samples = 11<br/>value = [0, 0, 1, 8, 0, 2]<br/>class = 3>, fillcolor="#7bbeee"] ;
687 -> 688 ;
689 [label=<gini = 0.0<br/>samples = 4<br/>value = [0, 0, 0, 4, 0, 0]<br/>class = 3>, fillcolor="#399de5"] ;
688 -> 689 ;
690 [label=<gini = 0.571<br/>samples = 7<br/>value = [0, 0, 1, 4, 0, 2]<br/>class = 3>, fillcolor="#b0d8f5"] ;
688 -> 690 ;
691 [label=<Mother &le; 0.5<br/>gini = 0.441<br/>samples = 28<br/>value = [1, 0, 20, 1, 0, 6]<br/>class = 2>, fillcolor="#81eeaf"] ;
687 -> 691 ;
692 [label=<gini = 0.333<br/>samples = 25<br/>value = [0, 0, 20, 1, 0, 4]<br/>class = 2>, fillcolor="#68eb9f"] ;
691 -> 692 ;
693 [label=<gini = 0.444<br/>samples = 3<br/>value = [1, 0, 0, 0, 0, 2]<br/>class = 5>, fillcolor="#f29cce"] ;
691 -> 693 ;
694 [label=<CommitDays &le; 2331.5<br/>gini = 0.264<br/>samples = 79<br/>value = [2, 0, 10, 0, 0, 67]<br/>class = 5>, fillcolor="#ea5bae"] ;
678 -> 694 ;
695 [label=<CommitDays &le; 1969.5<br/>gini = 0.209<br/>samples = 76<br/>value = [0, 0, 9, 0, 0, 67]<br/>class = 5>, fillcolor="#e854aa"] ;
694 -> 695 ;
696 [label=<FamilyRelationships &le; 0.5<br/>gini = 0.176<br/>samples = 72<br/>value = [0, 0, 7, 0, 0, 65]<br/>class = 5>, fillcolor="#e84ea8"] ;
695 -> 696 ;
697 [label=<gini = 0.18<br/>samples = 70<br/>value = [0, 0, 7, 0, 0, 63]<br/>class = 5>, fillcolor="#e84fa8"] ;
696 -> 697 ;
698 [label=<gini = 0.0<br/>samples = 2<br/>value = [0, 0, 0, 0, 0, 2]<br/>class = 5>, fillcolor="#e5399d"] ;
696 -> 698 ;
699 [label=<CommitDays &le; 2101.5<br/>gini = 0.5<br/>samples = 4<br/>value = [0, 0, 2, 0, 0, 2]<br/>class = 2>, fillcolor="#ffffff"] ;
695 -> 699 ;
700 [label=<gini = 0.0<br/>samples = 2<br/>value = [0, 0, 2, 0, 0, 0]<br/>class = 2>, fillcolor="#39e581"] ;
699 -> 700 ;
701 [label=<gini = 0.0<br/>samples = 2<br/>value = [0, 0, 0, 0, 0, 2]<br/>class = 5>, fillcolor="#e5399d"] ;
699 -> 701 ;
702 [label=<Housing &le; 0.5<br/>gini = 0.444<br/>samples = 3<br/>value = [2, 0, 1, 0, 0, 0]<br/>class = 0>, fillcolor="#f2c09c"] ;
694 -> 702 ;
703 [label=<gini = 0.0<br/>samples = 1<br/>value = [0, 0, 1, 0, 0, 0]<br/>class = 2>, fillcolor="#39e581"] ;
702 -> 703 ;
