|--- CONTACT_TYPE <= 15.50
|   |--- Client <= 0.50
|   |   |--- InternalCollateral <= 0.50
|   |   |   |--- ExternalCollateral <= 0.50
|   |   |   |   |--- CONTACT_TYPE <= 6.50
|   |   |   |   |   |--- RRT <= 0.50
|   |   |   |   |   |   |--- CurfewManagement <= 0.50
|   |   |   |   |   |   |   |--- InitialVisit <= 0.50
|   |   |   |   |   |   |   |   |--- Educational <= 0.50
|   |   |   |   |   |   |   |   |   |--- Legal <= 0.50
|   |   |   |   |   |   |   |   |   |   |--- CommitDays <= 211.00
|   |   |   |   |   |   |   |   |   |   |   |--- truncated branch of depth 23
|   |   |   |   |   |   |   |   |   |   |--- CommitDays >  211.00
|   |   |   |   |   |   |   |   |   |   |   |--- truncated branch of depth 50
|   |   |   |   |   |   |   |   |   |--- Legal >  0.50
|   |   |   |   |   |   |   |   |   |   |--- Mother <= 0.50
|   |   |   |   |   |   |   |   |   |   |   |--- truncated branch of depth 30
|   |   |   |   |   |   |   |   |   |   |--- Mother >  0.50
|   |   |   |   |   |   |   |   |   |   |   |--- truncated branch of depth 29
|   |   |   |   |   |   |   |   |--- Educational >  0.50
|   |   |   |   |   |   |   |   |   |--- AncillaryServices <= 0.50
|   |   |   |   |   |   |   |   |   |   |--- Psychological <= 0.50
|   |   |   |   |   |   |   |   |   |   |   |--- truncated branch of depth 27
|   |   |   |   |   |   |   |   |   |   |--- Psychological >  0.50
|   |   |   |   |   |   |   |   |   |   |   |--- truncated branch of depth 14
|   |   |   |   |   |   |   |   |   |--- AncillaryServices >  0.50
|   |   |   |   |   |   |   |   |   |   |--- Guardian <= 0.50
|   |   |   |   |   |   |   |   |   |   |   |--- truncated branch of depth 16
|   |   |   |   |   |   |   |   |   |   |--- Guardian >  0.50
|   |   |   |   |   |   |   |   |   |   |   |--- truncated branch of depth 15
|   |   |   |   |   |   |   |--- InitialVisit >  0.50
|   |   |   |   |   |   |   |   |--- SubstanceAbuse <= 0.50
|   |   |   |   |   |   |   |   |   |--- CommitDays <= 1078.50
|   |   |   |   |   |   |   |   |   |   |--- CommitDays <= 318.50
|   |   |   |   |   |   |   |   |   |   |   |--- truncated branch of depth 14
|   |   |   |   |   |   |   |   |   |   |--- CommitDays >  318.50
|   |   |   |   |   |   |   |   |   |   |   |--- truncated branch of depth 12
|   |   |   |   |   |   |   |   |   |--- CommitDays >  1078.50
|   |   |   |   |   |   |   |   |   |   |--- FamilyMember(s) <= 0.50
|   |   |   |   |   |   |   |   |   |   |   |--- truncated branch of depth 4
|   |   |   |   |   |   |   |   |   |   |--- FamilyMember(s) >  0.50
|   |   |   |   |   |   |   |   |   |   |   |--- class: 4
|   |   |   |   |   |   |   |   |--- SubstanceAbuse >  0.50
|   |   |   |   |   |   |   |   |   |--- Housing <= 0.50
|   |   |   |   |   |   |   |   |   |   |--- class: 3
|   |   |   |   |   |   |   |   |   |--- Housing >  0.50
|   |   |   |   |   |   |   |   |   |   |--- class: 1
|   |   |   |   |   |   |--- CurfewManagement >  0.50
|   |   |   |   |   |   |   |--- Meeting <= 0.50
|   |   |   |   |   |   |   |   |--- AncillaryServices <= 0.50
|   |   |   |   |   |   |   |   |   |--- Psychiatric <= 0.50
|   |   |   |   |   |   |   |   |   |   |--- CommitDays <= 823.50
|   |   |   |   |   |   |   |   |   |   |   |--- truncated branch of depth 15
|   |   |   |   |   |   |   |   |   |   |--- CommitDays >  823.50
|   |   |   |   |   |   |   |   |   |   |   |--- truncated branch of depth 21
|   |   |   |   |   |   |   |   |   |--- Psychiatric >  0.50
|   |   |   |   |   |   |   |   |   |   |--- Legal <= 0.50
|   |   |   |   |   |   |   |   |   |   |   |--- truncated branch of depth 6
|   |   |   |   |   |   |   |   |   |   |--- Legal >  0.50
|   |   |   |   |   |   |   |   |   |   |   |--- class: 1
|   |   |   |   |   |   |   |   |--- AncillaryServices >  0.50
|   |   |   |   |   |   |   |   |   |--- CommitDays <= 344.50
|   |   |   |   |   |   |   |   |   |   |--- class: 4
|   |   |   |   |   |   |   |   |   |--- CommitDays >  344.50
|   |   |   |   |   |   |   |   |   |   |--- CommitDays <= 948.00
|   |   |   |   |   |   |   |   |   |   |   |--- truncated branch of depth 12
|   |   |   |   |   |   |   |   |   |   |--- CommitDays >  948.00
|   |   |   |   |   |   |   |   |   |   |   |--- truncated branch of depth 7
|   |   |   |   |   |   |   |--- Meeting >  0.50
|   |   |   |   |   |   |   |   |--- SupervisedVisit <= 0.50
|   |   |   |   |   |   |   |   |   |--- class: 1
|   |   |   |   |   |   |   |   |--- SupervisedVisit >  0.50
|   |   |   |   |   |   |   |   |   |--- class: 3
|   |   |   |   |   |--- RRT >  0.50
|   |   |   |   |   |   |--- CommitDays <= 942.00
|   |   |   |   |   |   |   |--- CommitDays <= 904.00
|   |   |   |   |   |   |   |   |--- CommitDays <= 578.50
|   |   |   |   |   |   |   |   |   |--- CommitDays <= 378.50
|   |   |   |   |   |   |   |   |   |   |--- Guardian <= 0.50
|   |   |   |   |   |   |   |   |   |   |   |--- truncated branch of depth 11
|   |   |   |   |   |   |   |   |   |   |--- Guardian >  0.50
|   |   |   |   |   |   |   |   |   |   |   |--- truncated branch of depth 6
|   |   |   |   |   |   |   |   |   |--- CommitDays >  378.50
|   |   |   |   |   |   |   |   |   |   |--- CONTACT_TYPE <= 5.50
|   |   |   |   |   |   |   |   |   |   |   |--- class: 3
|   |   |   |   |   |   |   |   |   |   |--- CONTACT_TYPE >  5.50
|   |   |   |   |   |   |   |   |   |   |   |--- truncated branch of depth 4
|   |   |   |   |   |   |   |   |--- CommitDays >  578.50
|   |   |   |   |   |   |   |   |   |--- CommitDays <= 720.50
|   |   |   |   |   |   |   |   |   |   |--- Check-in <= 0.50
|   |   |   |   |   |   |   |   |   |   |   |--- truncated branch of depth 3
|   |   |   |   |   |   |   |   |   |   |--- Check-in >  0.50
|   |   |   |   |   |   |   |   |   |   |   |--- truncated branch of depth 6
|   |   |   |   |   |   |   |   |   |--- CommitDays >  720.50
|   |   |   |   |   |   |   |   |   |   |--- Educational <= 0.50
|   |   |   |   |   |   |   |   |   |   |   |--- truncated branch of depth 7
|   |   |   |   |   |   |   |   |   |   |--- Educational >  0.50
|   |   |   |   |   |   |   |   |   |   |   |--- class: 0
|   |   |   |   |   |   |   |--- CommitDays >  904.00
|   |   |   |   |   |   |   |   |--- Parent/Guardian <= 0.50
|   |   |   |   |   |   |   |   |   |--- class: 5
|   |   |   |   |   |   |   |   |--- Parent/Guardian >  0.50
|   |   |   |   |   |   |   |   |   |--- CommitDays <= 922.50
|   |   |   |   |   |   |   |   |   |   |--- class: 4
|   |   |   |   |   |   |   |   |   |--- CommitDays >  922.50
|   |   |   |   |   |   |   |   |   |   |--- class: 3
|   |   |   |   |   |   |--- CommitDays >  942.00
|   |   |   |   |   |   |   |--- DistrictOfficevisit <= 0.50
|   |   |   |   |   |   |   |   |--- Parent/Guardian <= 0.50
|   |   |   |   |   |   |   |   |   |--- CONTACT_TYPE <= 5.00
|   |   |   |   |   |   |   |   |   |   |--- BehaviorManagement <= 0.50
|   |   |   |   |   |   |   |   |   |   |   |--- class: 0
|   |   |   |   |   |   |   |   |   |   |--- BehaviorManagement >  0.50
|   |   |   |   |   |   |   |   |   |   |   |--- class: 1
|   |   |   |   |   |   |   |   |   |--- CONTACT_TYPE >  5.00
|   |   |   |   |   |   |   |   |   |   |--- Educational <= 0.50
|   |   |   |   |   |   |   |   |   |   |   |--- class: 1
|   |   |   |   |   |   |   |   |   |   |--- Educational >  0.50
|   |   |   |   |   |   |   |   |   |   |   |--- truncated branch of depth 2
|   |   |   |   |   |   |   |   |--- Parent/Guardian >  0.50
|   |   |   |   |   |   |   |   |   |--- CommitDays <= 968.50
|   |   |   |   |   |   |   |   |   |   |--- class: 3
|   |   |   |   |   |   |   |   |   |--- CommitDays >  968.50
|   |   |   |   |   |   |   |   |   |   |--- CommitDays <= 1200.50
|   |   |   |   |   |   |   |   |   |   |   |--- truncated branch of depth 6
|   |   |   |   |   |   |   |   |   |   |--- CommitDays >  1200.50
|   |   |   |   |   |   |   |   |   |   |   |--- truncated branch of depth 6
|   |   |   |   |   |   |   |--- DistrictOfficevisit >  0.50
|   |   |   |   |   |   |   |   |--- class: 0
|   |   |   |   |--- CONTACT_TYPE >  6.50
|   |   |   |   |   |--- InitialVisit <= 0.50
|   |   |   |   |   |   |--- CommitDays <= 236.50
|   |   |   |   |   |   |   |--- CommitDays <= 213.50
|   |   |   |   |   |   |   |   |--- CommitDays <= 163.00
|   |   |   |   |   |   |   |   |   |--- Recreation <= 0.50
|   |   |   |   |   |   |   |   |   |   |--- CommitDays <= 125.00
|   |   |   |   |   |   |   |   |   |   |   |--- truncated branch of depth 17
|   |   |   |   |   |   |   |   |   |   |--- CommitDays >  125.00
|   |   |   |   |   |   |   |   |   |   |   |--- truncated branch of depth 10
|   |   |   |   |   |   |   |   |   |--- Recreation >  0.50
|   |   |   |   |   |   |   |   |   |   |--- ClothingVoucher <= 0.50
|   |   |   |   |   |   |   |   |   |   |   |--- class: 0
|   |   |   |   |   |   |   |   |   |   |--- ClothingVoucher >  0.50
|   |   |   |   |   |   |   |   |   |   |   |--- class: 3
|   |   |   |   |   |   |   |   |--- CommitDays >  163.00
|   |   |   |   |   |   |   |   |   |--- Check-in <= 0.50
|   |   |   |   |   |   |   |   |   |   |--- AncillaryServices <= 0.50
|   |   |   |   |   |   |   |   |   |   |   |--- truncated branch of depth 2
|   |   |   |   |   |   |   |   |   |   |--- AncillaryServices >  0.50
|   |   |   |   |   |   |   |   |   |   |   |--- class: 1
|   |   |   |   |   |   |   |   |   |--- Check-in >  0.50
|   |   |   |   |   |   |   |   |   |   |--- BehaviorManagement <= 0.50
|   |   |   |   |   |   |   |   |   |   |   |--- truncated branch of depth 7
|   |   |   |   |   |   |   |   |   |   |--- BehaviorManagement >  0.50
|   |   |   |   |   |   |   |   |   |   |   |--- truncated branch of depth 5
|   |   |   |   |   |   |   |--- CommitDays >  213.50
|   |   |   |   |   |   |   |   |--- Parent/Guardian <= 0.50
|   |   |   |   |   |   |   |   |   |--- class: 1
|   |   |   |   |   |   |   |   |--- Parent/Guardian >  0.50
|   |   |   |   |   |   |   |   |   |--- BehaviorManagement <= 0.50
|   |   |   |   |   |   |   |   |   |   |--- CommitDays <= 226.50
|   |   |   |   |   |   |   |   |   |   |   |--- truncated branch of depth 3
|   |   |   |   |   |   |   |   |   |   |--- CommitDays >  226.50
|   |   |   |   |   |   |   |   |   |   |   |--- class: 1
|   |   |   |   |   |   |   |   |   |--- BehaviorManagement >  0.50
|   |   |   |   |   |   |   |   |   |   |--- CommitDays <= 222.00
|   |   |   |   |   |   |   |   |   |   |   |--- truncated branch of depth 3
|   |   |   |   |   |   |   |   |   |   |--- CommitDays >  222.00
|   |   |   |   |   |   |   |   |   |   |   |--- class: 5
|   |   |   |   |   |   |--- CommitDays >  236.50
|   |   |   |   |   |   |   |--- FamilyMember(s) <= 0.50
|   |   |   |   |   |   |   |   |--- Homevisit <= 0.50
|   |   |   |   |   |   |   |   |   |--- CurfewManagement <= 0.50
|   |   |   |   |   |   |   |   |   |   |--- CommitDays <= 1588.50
|   |   |   |   |   |   |   |   |   |   |   |--- truncated branch of depth 47
|   |   |   |   |   |   |   |   |   |   |--- CommitDays >  1588.50
|   |   |   |   |   |   |   |   |   |   |   |--- truncated branch of depth 21
|   |   |   |   |   |   |   |   |   |--- CurfewManagement >  0.50
|   |   |   |   |   |   |   |   |   |   |--- CommitDays <= 1007.50
|   |   |   |   |   |   |   |   |   |   |   |--- truncated branch of depth 11
|   |   |   |   |   |   |   |   |   |   |--- CommitDays >  1007.50
|   |   |   |   |   |   |   |   |   |   |   |--- truncated branch of depth 8
|   |   |   |   |   |   |   |   |--- Homevisit >  0.50
|   |   |   |   |   |   |   |   |   |--- Housing <= 0.50
|   |   |   |   |   |   |   |   |   |   |--- Psychological <= 0.50
|   |   |   |   |   |   |   |   |   |   |   |--- truncated branch of depth 15
|   |   |   |   |   |   |   |   |   |   |--- Psychological >  0.50
|   |   |   |   |   |   |   |   |   |   |   |--- class: 1
|   |   |   |   |   |   |   |   |   |--- Housing >  0.50
|   |   |   |   |   |   |   |   |   |   |--- Psychological <= 0.50
|   |   |   |   |   |   |   |   |   |   |   |--- truncated branch of depth 6
|   |   |   |   |   |   |   |   |   |   |--- Psychological >  0.50
|   |   |   |   |   |   |   |   |   |   |   |--- class: 0
|   |   |   |   |   |   |   |--- FamilyMember(s) >  0.50
|   |   |   |   |   |   |   |   |--- HealthServices <= 0.50
|   |   |   |   |   |   |   |   |   |--- CommitDays <= 1146.00
|   |   |   |   |   |   |   |   |   |   |--- CommitDays <= 1078.00
|   |   |   |   |   |   |   |   |   |   |   |--- truncated branch of depth 28
|   |   |   |   |   |   |   |   |   |   |--- CommitDays >  1078.00
|   |   |   |   |   |   |   |   |   |   |   |--- truncated branch of depth 6
|   |   |   |   |   |   |   |   |   |--- CommitDays >  1146.00
|   |   |   |   |   |   |   |   |   |   |--- CommitDays <= 1212.50
|   |   |   |   |   |   |   |   |   |   |   |--- truncated branch of depth 5
|   |   |   |   |   |   |   |   |   |   |--- CommitDays >  1212.50
|   |   |   |   |   |   |   |   |   |   |   |--- truncated branch of depth 20
|   |   |   |   |   |   |   |   |--- HealthServices >  0.50
|   |   |   |   |   |   |   |   |   |--- CommitDays <= 381.00
|   |   |   |   |   |   |   |   |   |   |--- CommitDays <= 262.50
|   |   |   |   |   |   |   |   |   |   |   |--- class: 3
|   |   |   |   |   |   |   |   |   |   |--- CommitDays >  262.50
|   |   |   |   |   |   |   |   |   |   |   |--- class: 0
|   |   |   |   |   |   |   |   |   |--- CommitDays >  381.00
|   |   |   |   |   |   |   |   |   |   |--- Psychiatric <= 0.50
|   |   |   |   |   |   |   |   |   |   |   |--- truncated branch of depth 5
|   |   |   |   |   |   |   |   |   |   |--- Psychiatric >  0.50
|   |   |   |   |   |   |   |   |   |   |   |--- truncated branch of depth 10
|   |   |   |   |   |--- InitialVisit >  0.50
|   |   |   |   |   |   |--- CONTACT_TYPE <= 11.00
|   |   |   |   |   |   |   |--- SubstanceAbuse <= 0.50
|   |   |   |   |   |   |   |   |--- LifeSkills <= 0.50
|   |   |   |   |   |   |   |   |   |--- CommitDays <= 323.00
|   |   |   |   |   |   |   |   |   |   |--- CommitDays <= 122.00
|   |   |   |   |   |   |   |   |   |   |   |--- truncated branch of depth 11
|   |   |   |   |   |   |   |   |   |   |--- CommitDays >  122.00
|   |   |   |   |   |   |   |   |   |   |   |--- truncated branch of depth 12
|   |   |   |   |   |   |   |   |   |--- CommitDays >  323.00
|   |   |   |   |   |   |   |   |   |   |--- CommitDays <= 336.00
|   |   |   |   |   |   |   |   |   |   |   |--- class: 0
|   |   |   |   |   |   |   |   |   |   |--- CommitDays >  336.00
|   |   |   |   |   |   |   |   |   |   |   |--- truncated branch of depth 18
|   |   |   |   |   |   |   |   |--- LifeSkills >  0.50
|   |   |   |   |   |   |   |   |   |--- AncillaryServices <= 0.50
|   |   |   |   |   |   |   |   |   |   |--- class: 3
|   |   |   |   |   |   |   |   |   |--- AncillaryServices >  0.50
|   |   |   |   |   |   |   |   |   |   |--- class: 0
|   |   |   |   |   |   |   |--- SubstanceAbuse >  0.50
|   |   |   |   |   |   |   |   |--- CommitDays <= 131.00
|   |   |   |   |   |   |   |   |   |--- BehaviorManagement <= 0.50
|   |   |   |   |   |   |   |   |   |   |--- class: 0
|   |   |   |   |   |   |   |   |   |--- BehaviorManagement >  0.50
|   |   |   |   |   |   |   |   |   |   |--- class: 3
|   |   |   |   |   |   |   |   |--- CommitDays >  131.00
|   |   |   |   |   |   |   |   |   |--- BehaviorManagement <= 0.50
|   |   |   |   |   |   |   |   |   |   |--- LifeSkills <= 0.50
|   |   |   |   |   |   |   |   |   |   |   |--- truncated branch of depth 2
|   |   |   |   |   |   |   |   |   |   |--- LifeSkills >  0.50
|   |   |   |   |   |   |   |   |   |   |   |--- class: 3
|   |   |   |   |   |   |   |   |   |--- BehaviorManagement >  0.50
|   |   |   |   |   |   |   |   |   |   |--- CommitDays <= 1346.50
|   |   |   |   |   |   |   |   |   |   |   |--- truncated branch of depth 8
|   |   |   |   |   |   |   |   |   |   |--- CommitDays >  1346.50
|   |   |   |   |   |   |   |   |   |   |   |--- class: 0
|   |   |   |   |   |   |--- CONTACT_TYPE >  11.00
|   |   |   |   |   |   |   |--- CommitDays <= 102.50
|   |   |   |   |   |   |   |   |--- class: 1
|   |   |   |   |   |   |   |--- CommitDays >  102.50
|   |   |   |   |   |   |   |   |--- AncillaryServices <= 0.50
|   |   |   |   |   |   |   |   |   |--- Meeting <= 0.50
|   |   |   |   |   |   |   |   |   |   |--- Family <= 0.50
|   |   |   |   |   |   |   |   |   |   |   |--- truncated branch of depth 2
|   |   |   |   |   |   |   |   |   |   |--- Family >  0.50
|   |   |   |   |   |   |   |   |   |   |   |--- class: 0
|   |   |   |   |   |   |   |   |   |--- Meeting >  0.50
|   |   |   |   |   |   |   |   |   |   |--- class: 1
|   |   |   |   |   |   |   |   |--- AncillaryServices >  0.50
|   |   |   |   |   |   |   |   |   |--- class: 0
|   |   |   |--- ExternalCollateral >  0.50
|   |   |   |   |--- Psychological <= 0.50
|   |   |   |   |   |--- Vocational <= 0.50
|   |   |   |   |   |   |--- CONTACT_TYPE <= 4.50
|   |   |   |   |   |   |   |--- CommitDays <= 1647.00
|   |   |   |   |   |   |   |   |--- CommitDays <= 698.50
|   |   |   |   |   |   |   |   |   |--- Check-in <= 0.50
|   |   |   |   |   |   |   |   |   |   |--- CommitDays <= 695.00
|   |   |   |   |   |   |   |   |   |   |   |--- truncated branch of depth 16
|   |   |   |   |   |   |   |   |   |   |--- CommitDays >  695.00
|   |   |   |   |   |   |   |   |   |   |   |--- class: 3
|   |   |   |   |   |   |   |   |   |--- Check-in >  0.50
|   |   |   |   |   |   |   |   |   |   |--- CommitDays <= 622.00
|   |   |   |   |   |   |   |   |   |   |   |--- truncated branch of depth 14
|   |   |   |   |   |   |   |   |   |   |--- CommitDays >  622.00
|   |   |   |   |   |   |   |   |   |   |   |--- truncated branch of depth 6
|   |   |   |   |   |   |   |   |--- CommitDays >  698.50
|   |   |   |   |   |   |   |   |   |--- CommitDays <= 728.50
|   |   |   |   |   |   |   |   |   |   |--- CommitDays <= 713.50
|   |   |   |   |   |   |   |   |   |   |   |--- class: 1
|   |   |   |   |   |   |   |   |   |   |--- CommitDays >  713.50
|   |   |   |   |   |   |   |   |   |   |   |--- truncated branch of depth 3
|   |   |   |   |   |   |   |   |   |--- CommitDays >  728.50
|   |   |   |   |   |   |   |   |   |   |--- CommitDays <= 939.50
|   |   |   |   |   |   |   |   |   |   |   |--- truncated branch of depth 18
|   |   |   |   |   |   |   |   |   |   |--- CommitDays >  939.50
|   |   |   |   |   |   |   |   |   |   |   |--- truncated branch of depth 23
|   |   |   |   |   |   |   |--- CommitDays >  1647.00
|   |   |   |   |   |   |   |   |--- SubstanceAbuse <= 0.50
|   |   |   |   |   |   |   |   |   |--- Check-in <= 0.50
|   |   |   |   |   |   |   |   |   |   |--- CommitDays <= 1754.00
|   |   |   |   |   |   |   |   |   |   |   |--- class: 4
|   |   |   |   |   |   |   |   |   |   |--- CommitDays >  1754.00
|   |   |   |   |   |   |   |   |   |   |   |--- truncated branch of depth 9
|   |   |   |   |   |   |   |   |   |--- Check-in >  0.50
|   |   |   |   |   |   |   |   |   |   |--- CONTACT_TYPE <= 2.50
|   |   |   |   |   |   |   |   |   |   |   |--- truncated branch of depth 6
|   |   |   |   |   |   |   |   |   |   |--- CONTACT_TYPE >  2.50
|   |   |   |   |   |   |   |   |   |   |   |--- truncated branch of depth 12
|   |   |   |   |   |   |   |   |--- SubstanceAbuse >  0.50
|   |   |   |   |   |   |   |   |   |--- class: 0
|   |   |   |   |   |   |--- CONTACT_TYPE >  4.50
|   |   |   |   |   |   |   |--- Housing <= 0.50
|   |   |   |   |   |   |   |   |--- BehaviorManagement <= 0.50
|   |   |   |   |   |   |   |   |   |--- Educational/Vocational <= 0.50
|   |   |   |   |   |   |   |   |   |   |--- CommitDays <= 155.50
|   |   |   |   |   |   |   |   |   |   |   |--- truncated branch of depth 20
|   |   |   |   |   |   |   |   |   |   |--- CommitDays >  155.50
|   |   |   |   |   |   |   |   |   |   |   |--- truncated branch of depth 48
|   |   |   |   |   |   |   |   |   |--- Educational/Vocational >  0.50
|   |   |   |   |   |   |   |   |   |   |--- CONTACT_TYPE <= 6.50
|   |   |   |   |   |   |   |   |   |   |   |--- truncated branch of depth 23
|   |   |   |   |   |   |   |   |   |   |--- CONTACT_TYPE >  6.50
|   |   |   |   |   |   |   |   |   |   |   |--- truncated branch of depth 10
|   |   |   |   |   |   |   |   |--- BehaviorManagement >  0.50
|   |   |   |   |   |   |   |   |   |--- Psychiatric <= 0.50
|   |   |   |   |   |   |   |   |   |   |--- FamilyRelationships <= 0.50
|   |   |   |   |   |   |   |   |   |   |   |--- truncated branch of depth 35
|   |   |   |   |   |   |   |   |   |   |--- FamilyRelationships >  0.50
|   |   |   |   |   |   |   |   |   |   |   |--- truncated branch of depth 19
|   |   |   |   |   |   |   |   |   |--- Psychiatric >  0.50
|   |   |   |   |   |   |   |   |   |   |--- AncillaryServices <= 0.50
|   |   |   |   |   |   |   |   |   |   |   |--- truncated branch of depth 9
|   |   |   |   |   |   |   |   |   |   |--- AncillaryServices >  0.50
|   |   |   |   |   |   |   |   |   |   |   |--- truncated branch of depth 2
|   |   |   |   |   |   |   |--- Housing >  0.50
|   |   |   |   |   |   |   |   |--- CommitDays <= 259.00
|   |   |   |   |   |   |   |   |   |--- CommitDays <= 78.50
|   |   |   |   |   |   |   |   |   |   |--- Educational <= 0.50
|   |   |   |   |   |   |   |   |   |   |   |--- truncated branch of depth 6
|   |   |   |   |   |   |   |   |   |   |--- Educational >  0.50
|   |   |   |   |   |   |   |   |   |   |   |--- class: 1
|   |   |   |   |   |   |   |   |   |--- CommitDays >  78.50
|   |   |   |   |   |   |   |   |   |   |--- Psychiatric <= 0.50
|   |   |   |   |   |   |   |   |   |   |   |--- truncated branch of depth 6
|   |   |   |   |   |   |   |   |   |   |--- Psychiatric >  0.50
|   |   |   |   |   |   |   |   |   |   |   |--- truncated branch of depth 2
|   |   |   |   |   |   |   |   |--- CommitDays >  259.00
|   |   |   |   |   |   |   |   |   |--- FamilyRelationships <= 0.50
|   |   |   |   |   |   |   |   |   |   |--- AncillaryServices <= 0.50
|   |   |   |   |   |   |   |   |   |   |   |--- truncated branch of depth 24
|   |   |   |   |   |   |   |   |   |   |--- AncillaryServices >  0.50
|   |   |   |   |   |   |   |   |   |   |   |--- truncated branch of depth 8
|   |   |   |   |   |   |   |   |   |--- FamilyRelationships >  0.50
|   |   |   |   |   |   |   |   |   |   |--- Meeting <= 0.50
|   |   |   |   |   |   |   |   |   |   |   |--- truncated branch of depth 17
|   |   |   |   |   |   |   |   |   |   |--- Meeting >  0.50
|   |   |   |   |   |   |   |   |   |   |   |--- truncated branch of depth 6
|   |   |   |   |   |--- Vocational >  0.50
|   |   |   |   |   |   |--- CurfewManagement <= 0.50
|   |   |   |   |   |   |   |--- CommitDays <= 340.00
|   |   |   |   |   |   |   |   |--- CONTACT_TYPE <= 5.50
|   |   |   |   |   |   |   |   |   |--- class: 3
|   |   |   |   |   |   |   |   |--- CONTACT_TYPE >  5.50
|   |   |   |   |   |   |   |   |   |--- Legal <= 0.50
|   |   |   |   |   |   |   |   |   |   |--- CommitDays <= 282.50
|   |   |   |   |   |   |   |   |   |   |   |--- truncated branch of depth 4
|   |   |   |   |   |   |   |   |   |   |--- CommitDays >  282.50
|   |   |   |   |   |   |   |   |   |   |   |--- class: 0
|   |   |   |   |   |   |   |   |   |--- Legal >  0.50
|   |   |   |   |   |   |   |   |   |   |--- class: 3
|   |   |   |   |   |   |   |--- CommitDays >  340.00
|   |   |   |   |   |   |   |   |--- CommitDays <= 2001.50
|   |   |   |   |   |   |   |   |   |--- Legal <= 0.50
|   |   |   |   |   |   |   |   |   |   |--- CommitDays <= 445.50
|   |   |   |   |   |   |   |   |   |   |   |--- truncated branch of depth 6
|   |   |   |   |   |   |   |   |   |   |--- CommitDays >  445.50
|   |   |   |   |   |   |   |   |   |   |   |--- truncated branch of depth 21
|   |   |   |   |   |   |   |   |   |--- Legal >  0.50
|   |   |   |   |   |   |   |   |   |   |--- DrugScreening <= 0.50
|   |   |   |   |   |   |   |   |   |   |   |--- truncated branch of depth 4
|   |   |   |   |   |   |   |   |   |   |--- DrugScreening >  0.50
|   |   |   |   |   |   |   |   |   |   |   |--- class: 0
|   |   |   |   |   |   |   |   |--- CommitDays >  2001.50
|   |   |   |   |   |   |   |   |   |--- Check-in <= 0.50
|   |   |   |   |   |   |   |   |   |   |--- class: 5
|   |   |   |   |   |   |   |   |   |--- Check-in >  0.50
|   |   |   |   |   |   |   |   |   |   |--- BehaviorManagement <= 0.50
|   |   |   |   |   |   |   |   |   |   |   |--- truncated branch of depth 3
|   |   |   |   |   |   |   |   |   |   |--- BehaviorManagement >  0.50
|   |   |   |   |   |   |   |   |   |   |   |--- class: 1
|   |   |   |   |   |   |--- CurfewManagement >  0.50
|   |   |   |   |   |   |   |--- class: 3
|   |   |   |   |--- Psychological >  0.50
|   |   |   |   |   |--- LifeSkills <= 0.50
|   |   |   |   |   |   |--- Guardian <= 0.50
|   |   |   |   |   |   |   |--- CommitDays <= 831.00
|   |   |   |   |   |   |   |   |--- Housing <= 0.50
|   |   |   |   |   |   |   |   |   |--- Psychiatric <= 0.50
|   |   |   |   |   |   |   |   |   |   |--- Check-in <= 0.50
|   |   |   |   |   |   |   |   |   |   |   |--- truncated branch of depth 14
|   |   |   |   |   |   |   |   |   |   |--- Check-in >  0.50
|   |   |   |   |   |   |   |   |   |   |   |--- truncated branch of depth 23
|   |   |   |   |   |   |   |   |   |--- Psychiatric >  0.50
|   |   |   |   |   |   |   |   |   |   |--- Educational <= 0.50
|   |   |   |   |   |   |   |   |   |   |   |--- truncated branch of depth 13
|   |   |   |   |   |   |   |   |   |   |--- Educational >  0.50
|   |   |   |   |   |   |   |   |   |   |   |--- truncated branch of depth 4
|   |   |   |   |   |   |   |   |--- Housing >  0.50
|   |   |   |   |   |   |   |   |   |--- Legal <= 0.50
|   |   |   |   |   |   |   |   |   |   |--- CommitDays <= 551.00
|   |   |   |   |   |   |   |   |   |   |   |--- truncated branch of depth 4
|   |   |   |   |   |   |   |   |   |   |--- CommitDays >  551.00
|   |   |   |   |   |   |   |   |   |   |   |--- truncated branch of depth 3
|   |   |   |   |   |   |   |   |   |--- Legal >  0.50
|   |   |   |   |   |   |   |   |   |   |--- Psychiatric <= 0.50
|   |   |   |   |   |   |   |   |   |   |   |--- class: 4
|   |   |   |   |   |   |   |   |   |   |--- Psychiatric >  0.50
|   |   |   |   |   |   |   |   |   |   |   |--- class: 0
|   |   |   |   |   |   |   |--- CommitDays >  831.00
|   |   |   |   |   |   |   |   |--- CommitDays <= 1061.50
|   |   |   |   |   |   |   |   |   |--- CommitDays <= 1036.00
|   |   |   |   |   |   |   |   |   |   |--- CommitDays <= 1013.50
|   |   |   |   |   |   |   |   |   |   |   |--- truncated branch of depth 14
|   |   |   |   |   |   |   |   |   |   |--- CommitDays >  1013.50
|   |   |   |   |   |   |   |   |   |   |   |--- truncated branch of depth 2
|   |   |   |   |   |   |   |   |   |--- CommitDays >  1036.00
|   |   |   |   |   |   |   |   |   |   |--- class: 1
|   |   |   |   |   |   |   |   |--- CommitDays >  1061.50
|   |   |   |   |   |   |   |   |   |--- CommitDays <= 2292.50
|   |   |   |   |   |   |   |   |   |   |--- Legal <= 0.50
|   |   |   |   |   |   |   |   |   |   |   |--- truncated branch of depth 18
|   |   |   |   |   |   |   |   |   |   |--- Legal >  0.50
|   |   |   |   |   |   |   |   |   |   |   |--- truncated branch of depth 4
|   |   |   |   |   |   |   |   |   |--- CommitDays >  2292.50
|   |   |   |   |   |   |   |   |   |   |--- CommitDays <= 2366.50
|   |   |   |   |   |   |   |   |   |   |   |--- class: 1
|   |   |   |   |   |   |   |   |   |   |--- CommitDays >  2366.50
|   |   |   |   |   |   |   |   |   |   |   |--- class: 1
|   |   |   |   |   |   |--- Guardian >  0.50
|   |   |   |   |   |   |   |--- SubstanceAbuse <= 0.50
|   |   |   |   |   |   |   |   |--- Check-in <= 0.50
|   |   |   |   |   |   |   |   |   |--- CommitDays <= 603.50
|   |   |   |   |   |   |   |   |   |   |--- BehaviorManagement <= 0.50
|   |   |   |   |   |   |   |   |   |   |   |--- class: 4
|   |   |   |   |   |   |   |   |   |   |--- BehaviorManagement >  0.50
|   |   |   |   |   |   |   |   |   |   |   |--- class: 5
|   |   |   |   |   |   |   |   |   |--- CommitDays >  603.50
|   |   |   |   |   |   |   |   |   |   |--- CurfewManagement <= 0.50
|   |   |   |   |   |   |   |   |   |   |   |--- truncated branch of depth 7
|   |   |   |   |   |   |   |   |   |   |--- CurfewManagement >  0.50
|   |   |   |   |   |   |   |   |   |   |   |--- class: 4
|   |   |   |   |   |   |   |   |--- Check-in >  0.50
|   |   |   |   |   |   |   |   |   |--- CommitDays <= 1611.50
|   |   |   |   |   |   |   |   |   |   |--- Psychiatric <= 0.50
|   |   |   |   |   |   |   |   |   |   |   |--- truncated branch of depth 4
|   |   |   |   |   |   |   |   |   |   |--- Psychiatric >  0.50
|   |   |   |   |   |   |   |   |   |   |   |--- class: 1
|   |   |   |   |   |   |   |   |   |--- CommitDays >  1611.50
|   |   |   |   |   |   |   |   |   |   |--- class: 0
|   |   |   |   |   |   |   |--- SubstanceAbuse >  0.50
|   |   |   |   |   |   |   |   |--- CommitDays <= 623.00
|   |   |   |   |   |   |   |   |   |--- Check-in <= 0.50
|   |   |   |   |   |   |   |   |   |   |--- class: 1
|   |   |   |   |   |   |   |   |   |--- Check-in >  0.50
|   |   |   |   |   |   |   |   |   |   |--- class: 3
|   |   |   |   |   |   |   |   |--- CommitDays >  623.00
|   |   |   |   |   |   |   |   |   |--- FamilyRelationships <= 0.50
|   |   |   |   |   |   |   |   |   |   |--- HealthServices <= 0.50
|   |   |   |   |   |   |   |   |   |   |   |--- class: 4
|   |   |   |   |   |   |   |   |   |   |--- HealthServices >  0.50
|   |   |   |   |   |   |   |   |   |   |   |--- class: 0
|   |   |   |   |   |   |   |   |   |--- FamilyRelationships >  0.50
|   |   |   |   |   |   |   |   |   |   |--- class: 0
|   |   |   |   |   |--- LifeSkills >  0.50
|   |   |   |   |   |   |--- CommitDays <= 143.50
|   |   |   |   |   |   |   |--- BehaviorManagement <= 0.50
|   |   |   |   |   |   |   |   |--- class: 3
|   |   |   |   |   |   |   |--- BehaviorManagement >  0.50
|   |   |   |   |   |   |   |   |--- class: 1
|   |   |   |   |   |   |--- CommitDays >  143.50
|   |   |   |   |   |   |   |--- CommitDays <= 155.50
|   |   |   |   |   |   |   |   |--- class: 2
|   |   |   |   |   |   |   |--- CommitDays >  155.50
|   |   |   |   |   |   |   |   |--- CommitDays <= 685.50
|   |   |   |   |   |   |   |   |   |--- AncillaryServices <= 0.50
|   |   |   |   |   |   |   |   |   |   |--- BehaviorManagement <= 0.50
|   |   |   |   |   |   |   |   |   |   |   |--- class: 1
|   |   |   |   |   |   |   |   |   |   |--- BehaviorManagement >  0.50
|   |   |   |   |   |   |   |   |   |   |   |--- truncated branch of depth 7
|   |   |   |   |   |   |   |   |   |--- AncillaryServices >  0.50
|   |   |   |   |   |   |   |   |   |   |--- Legal <= 0.50
|   |   |   |   |   |   |   |   |   |   |   |--- class: 1
|   |   |   |   |   |   |   |   |   |   |--- Legal >  0.50
|   |   |   |   |   |   |   |   |   |   |   |--- class: 0
|   |   |   |   |   |   |   |   |--- CommitDays >  685.50
|   |   |   |   |   |   |   |   |   |--- CommitDays <= 1109.00
|   |   |   |   |   |   |   |   |   |   |--- CommitDays <= 905.00
|   |   |   |   |   |   |   |   |   |   |   |--- truncated branch of depth 9
|   |   |   |   |   |   |   |   |   |   |--- CommitDays >  905.00
|   |   |   |   |   |   |   |   |   |   |   |--- truncated branch of depth 5
|   |   |   |   |   |   |   |   |   |--- CommitDays >  1109.00
|   |   |   |   |   |   |   |   |   |   |--- Educational/Vocational <= 0.50
|   |   |   |   |   |   |   |   |   |   |   |--- truncated branch of depth 5
|   |   |   |   |   |   |   |   |   |   |--- Educational/Vocational >  0.50
|   |   |   |   |   |   |   |   |   |   |   |--- truncated branch of depth 4
|   |   |--- InternalCollateral >  0.50
|   |   |   |--- Educational <= 0.50
|   |   |   |   |--- Vocational <= 0.50
|   |   |   |   |   |--- BehaviorManagement <= 0.50
|   |   |   |   |   |   |--- Housing <= 0.50
|   |   |   |   |   |   |   |--- RRT <= 0.50
|   |   |   |   |   |   |   |   |--- LifeSkills <= 0.50
|   |   |   |   |   |   |   |   |   |--- ExternalCollateral <= 0.50
|   |   |   |   |   |   |   |   |   |   |--- Educational/Vocational <= 0.50
|   |   |   |   |   |   |   |   |   |   |   |--- truncated branch of depth 40
|   |   |   |   |   |   |   |   |   |   |--- Educational/Vocational >  0.50
|   |   |   |   |   |   |   |   |   |   |   |--- truncated branch of depth 32
|   |   |   |   |   |   |   |   |   |--- ExternalCollateral >  0.50
|   |   |   |   |   |   |   |   |   |   |--- Legal <= 0.50
|   |   |   |   |   |   |   |   |   |   |   |--- truncated branch of depth 30
|   |   |   |   |   |   |   |   |   |   |--- Legal >  0.50
|   |   |   |   |   |   |   |   |   |   |   |--- truncated branch of depth 17
|   |   |   |   |   |   |   |   |--- LifeSkills >  0.50
|   |   |   |   |   |   |   |   |   |--- FamilyRelationships <= 0.50
|   |   |   |   |   |   |   |   |   |   |--- CommitDays <= 860.50
|   |   |   |   |   |   |   |   |   |   |   |--- truncated branch of depth 18
|   |   |   |   |   |   |   |   |   |   |--- CommitDays >  860.50
|   |   |   |   |   |   |   |   |   |   |   |--- truncated branch of depth 14
|   |   |   |   |   |   |   |   |   |--- FamilyRelationships >  0.50
|   |   |   |   |   |   |   |   |   |   |--- CommitDays <= 1073.50
|   |   |   |   |   |   |   |   |   |   |   |--- truncated branch of depth 10
|   |   |   |   |   |   |   |   |   |   |--- CommitDays >  1073.50
|   |   |   |   |   |   |   |   |   |   |   |--- truncated branch of depth 4
|   |   |   |   |   |   |   |--- RRT >  0.50
|   |   |   |   |   |   |   |   |--- AncillaryServices <= 0.50
|   |   |   |   |   |   |   |   |   |--- CONTACT_TYPE <= 4.50
|   |   |   |   |   |   |   |   |   |   |--- CommitDays <= 741.00
|   |   |   |   |   |   |   |   |   |   |   |--- class: 4
|   |   |   |   |   |   |   |   |   |   |--- CommitDays >  741.00
|   |   |   |   |   |   |   |   |   |   |   |--- class: 0
|   |   |   |   |   |   |   |   |   |--- CONTACT_TYPE >  4.50
|   |   |   |   |   |   |   |   |   |   |--- Father <= 0.50
|   |   |   |   |   |   |   |   |   |   |   |--- truncated branch of depth 20
|   |   |   |   |   |   |   |   |   |   |--- Father >  0.50
|   |   |   |   |   |   |   |   |   |   |   |--- class: 4
|   |   |   |   |   |   |   |   |--- AncillaryServices >  0.50
|   |   |   |   |   |   |   |   |   |--- CommitDays <= 752.50
|   |   |   |   |   |   |   |   |   |   |--- CommitDays <= 337.50
|   |   |   |   |   |   |   |   |   |   |   |--- truncated branch of depth 2
|   |   |   |   |   |   |   |   |   |   |--- CommitDays >  337.50
|   |   |   |   |   |   |   |   |   |   |   |--- truncated branch of depth 3
|   |   |   |   |   |   |   |   |   |--- CommitDays >  752.50
|   |   |   |   |   |   |   |   |   |   |--- Pass <= 0.50
|   |   |   |   |   |   |   |   |   |   |   |--- truncated branch of depth 5
|   |   |   |   |   |   |   |   |   |   |--- Pass >  0.50
|   |   |   |   |   |   |   |   |   |   |   |--- class: 4
|   |   |   |   |   |   |--- Housing >  0.50
|   |   |   |   |   |   |   |--- Mother <= 0.50
|   |   |   |   |   |   |   |   |--- CONTACT_TYPE <= 3.50
|   |   |   |   |   |   |   |   |   |--- class: 3
|   |   |   |   |   |   |   |   |--- CONTACT_TYPE >  3.50
|   |   |   |   |   |   |   |   |   |--- AncillaryServices <= 0.50
|   |   |   |   |   |   |   |   |   |   |--- Father <= 0.50
|   |   |   |   |   |   |   |   |   |   |   |--- truncated branch of depth 33
|   |   |   |   |   |   |   |   |   |   |--- Father >  0.50
|   |   |   |   |   |   |   |   |   |   |   |--- truncated branch of depth 5
|   |   |   |   |   |   |   |   |   |--- AncillaryServices >  0.50
|   |   |   |   |   |   |   |   |   |   |--- Pass <= 0.50
|   |   |   |   |   |   |   |   |   |   |   |--- truncated branch of depth 21
|   |   |   |   |   |   |   |   |   |   |--- Pass >  0.50
|   |   |   |   |   |   |   |   |   |   |   |--- truncated branch of depth 2
|   |   |   |   |   |   |   |--- Mother >  0.50
|   |   |   |   |   |   |   |   |--- CommitDays <= 638.50
|   |   |   |   |   |   |   |   |   |--- CommitDays <= 400.50
|   |   |   |   |   |   |   |   |   |   |--- Check-in <= 0.50
|   |   |   |   |   |   |   |   |   |   |   |--- truncated branch of depth 2
|   |   |   |   |   |   |   |   |   |   |--- Check-in >  0.50
|   |   |   |   |   |   |   |   |   |   |   |--- truncated branch of depth 4
|   |   |   |   |   |   |   |   |   |--- CommitDays >  400.50
|   |   |   |   |   |   |   |   |   |   |--- FamilyMember(s) <= 0.50
|   |   |   |   |   |   |   |   |   |   |   |--- truncated branch of depth 5
|   |   |   |   |   |   |   |   |   |   |--- FamilyMember(s) >  0.50
|   |   |   |   |   |   |   |   |   |   |   |--- class: 1
|   |   |   |   |   |   |   |   |--- CommitDays >  638.50
|   |   |   |   |   |   |   |   |   |--- CommunityService <= 0.50
|   |   |   |   |   |   |   |   |   |   |--- Psychological <= 0.50
|   |   |   |   |   |   |   |   |   |   |   |--- truncated branch of depth 6
|   |   |   |   |   |   |   |   |   |   |--- Psychological >  0.50
|   |   |   |   |   |   |   |   |   |   |   |--- truncated branch of depth 2
|   |   |   |   |   |   |   |   |   |--- CommunityService >  0.50
|   |   |   |   |   |   |   |   |   |   |--- class: 0
|   |   |   |   |   |--- BehaviorManagement >  0.50
|   |   |   |   |   |   |--- FamilyRelationships <= 0.50
|   |   |   |   |   |   |   |--- Mother <= 0.50
|   |   |   |   |   |   |   |   |--- CurfewManagement <= 0.50
|   |   |   |   |   |   |   |   |   |--- Psychological <= 0.50
|   |   |   |   |   |   |   |   |   |   |--- FamilyMember(s) <= 0.50
|   |   |   |   |   |   |   |   |   |   |   |--- truncated branch of depth 42
|   |   |   |   |   |   |   |   |   |   |--- FamilyMember(s) >  0.50
|   |   |   |   |   |   |   |   |   |   |   |--- truncated branch of depth 6
|   |   |   |   |   |   |   |   |   |--- Psychological >  0.50
|   |   |   |   |   |   |   |   |   |   |--- Meeting <= 0.50
|   |   |   |   |   |   |   |   |   |   |   |--- truncated branch of depth 16
|   |   |   |   |   |   |   |   |   |   |--- Meeting >  0.50
|   |   |   |   |   |   |   |   |   |   |   |--- truncated branch of depth 4
|   |   |   |   |   |   |   |   |--- CurfewManagement >  0.50
|   |   |   |   |   |   |   |   |   |--- Parent/Guardian <= 0.50
|   |   |   |   |   |   |   |   |   |   |--- CONTACT_TYPE <= 5.50
|   |   |   |   |   |   |   |   |   |   |   |--- truncated branch of depth 3
|   |   |   |   |   |   |   |   |   |   |--- CONTACT_TYPE >  5.50
|   |   |   |   |   |   |   |   |   |   |   |--- truncated branch of depth 10
|   |   |   |   |   |   |   |   |   |--- Parent/Guardian >  0.50
|   |   |   |   |   |   |   |   |   |   |--- CommitDays <= 732.00
|   |   |   |   |   |   |   |   |   |   |   |--- class: 0
|   |   |   |   |   |   |   |   |   |   |--- CommitDays >  732.00
|   |   |   |   |   |   |   |   |   |   |   |--- truncated branch of depth 2
|   |   |   |   |   |   |   |--- Mother >  0.50
|   |   |   |   |   |   |   |   |--- CommitDays <= 1025.00
|   |   |   |   |   |   |   |   |   |--- InitialVisit <= 0.50
|   |   |   |   |   |   |   |   |   |   |--- CommitDays <= 375.00
|   |   |   |   |   |   |   |   |   |   |   |--- truncated branch of depth 6
|   |   |   |   |   |   |   |   |   |   |--- CommitDays >  375.00
|   |   |   |   |   |   |   |   |   |   |   |--- truncated branch of depth 16
|   |   |   |   |   |   |   |   |   |--- InitialVisit >  0.50
|   |   |   |   |   |   |   |   |   |   |--- class: 5
|   |   |   |   |   |   |   |   |--- CommitDays >  1025.00
|   |   |   |   |   |   |   |   |   |--- CommitDays <= 1365.50
|   |   |   |   |   |   |   |   |   |   |--- CommitDays <= 1093.50
|   |   |   |   |   |   |   |   |   |   |   |--- truncated branch of depth 3
|   |   |   |   |   |   |   |   |   |   |--- CommitDays >  1093.50
|   |   |   |   |   |   |   |   |   |   |   |--- truncated branch of depth 2
|   |   |   |   |   |   |   |   |   |--- CommitDays >  1365.50
|   |   |   |   |   |   |   |   |   |   |--- CurfewManagement <= 0.50
|   |   |   |   |   |   |   |   |   |   |   |--- truncated branch of depth 3
|   |   |   |   |   |   |   |   |   |   |--- CurfewManagement >  0.50
|   |   |   |   |   |   |   |   |   |   |   |--- class: 4
|   |   |   |   |   |   |--- FamilyRelationships >  0.50
|   |   |   |   |   |   |   |--- Psychological <= 0.50
|   |   |   |   |   |   |   |   |--- AncillaryServices <= 0.50
|   |   |   |   |   |   |   |   |   |--- CommitDays <= 991.50
|   |   |   |   |   |   |   |   |   |   |--- RevocationHearing <= 0.50
|   |   |   |   |   |   |   |   |   |   |   |--- truncated branch of depth 26
|   |   |   |   |   |   |   |   |   |   |--- RevocationHearing >  0.50
|   |   |   |   |   |   |   |   |   |   |   |--- class: 3
|   |   |   |   |   |   |   |   |   |--- CommitDays >  991.50
|   |   |   |   |   |   |   |   |   |   |--- Meeting <= 0.50
|   |   |   |   |   |   |   |   |   |   |   |--- truncated branch of depth 19
|   |   |   |   |   |   |   |   |   |   |--- Meeting >  0.50
|   |   |   |   |   |   |   |   |   |   |   |--- truncated branch of depth 4
|   |   |   |   |   |   |   |   |--- AncillaryServices >  0.50
|   |   |   |   |   |   |   |   |   |--- Dental <= 0.50
|   |   |   |   |   |   |   |   |   |   |--- CommitDays <= 129.00
|   |   |   |   |   |   |   |   |   |   |   |--- truncated branch of depth 2
|   |   |   |   |   |   |   |   |   |   |--- CommitDays >  129.00
|   |   |   |   |   |   |   |   |   |   |   |--- truncated branch of depth 13
|   |   |   |   |   |   |   |   |   |--- Dental >  0.50
|   |   |   |   |   |   |   |   |   |   |--- CommitDays <= 820.50
|   |   |   |   |   |   |   |   |   |   |   |--- truncated branch of depth 3
|   |   |   |   |   |   |   |   |   |   |--- CommitDays >  820.50
|   |   |   |   |   |   |   |   |   |   |   |--- truncated branch of depth 2
|   |   |   |   |   |   |   |--- Psychological >  0.50
|   |   |   |   |   |   |   |   |--- CommitDays <= 914.00
|   |   |   |   |   |   |   |   |   |--- Educational/Vocational <= 0.50
|   |   |   |   |   |   |   |   |   |   |--- Mother <= 0.50
|   |   |   |   |   |   |   |   |   |   |   |--- truncated branch of depth 11
|   |   |   |   |   |   |   |   |   |   |--- Mother >  0.50
|   |   |   |   |   |   |   |   |   |   |   |--- class: 0
|   |   |   |   |   |   |   |   |   |--- Educational/Vocational >  0.50
|   |   |   |   |   |   |   |   |   |   |--- Psychiatric <= 0.50
|   |   |   |   |   |   |   |   |   |   |   |--- truncated branch of depth 7
|   |   |   |   |   |   |   |   |   |   |--- Psychiatric >  0.50
|   |   |   |   |   |   |   |   |   |   |   |--- truncated branch of depth 2
|   |   |   |   |   |   |   |   |--- CommitDays >  914.00
|   |   |   |   |   |   |   |   |   |--- Dental <= 0.50
|   |   |   |   |   |   |   |   |   |   |--- CONTACT_TYPE <= 12.50
|   |   |   |   |   |   |   |   |   |   |   |--- truncated branch of depth 8
|   |   |   |   |   |   |   |   |   |   |--- CONTACT_TYPE >  12.50
|   |   |   |   |   |   |   |   |   |   |   |--- class: 3
|   |   |   |   |   |   |   |   |   |--- Dental >  0.50
|   |   |   |   |   |   |   |   |   |   |--- CommitDays <= 1948.50
|   |   |   |   |   |   |   |   |   |   |   |--- class: 3
|   |   |   |   |   |   |   |   |   |   |--- CommitDays >  1948.50
|   |   |   |   |   |   |   |   |   |   |   |--- class: 1
|   |   |   |   |--- Vocational >  0.50
|   |   |   |   |   |--- CommitDays <= 278.00
|   |   |   |   |   |   |--- Legal <= 0.50
|   |   |   |   |   |   |   |--- CONTACT_TYPE <= 5.50
|   |   |   |   |   |   |   |   |--- class: 1
|   |   |   |   |   |   |   |--- CONTACT_TYPE >  5.50
|   |   |   |   |   |   |   |   |--- CommitDays <= 229.50
|   |   |   |   |   |   |   |   |   |--- CommitDays <= 191.50
|   |   |   |   |   |   |   |   |   |   |--- CommitDays <= 123.50
|   |   |   |   |   |   |   |   |   |   |   |--- truncated branch of depth 2
|   |   |   |   |   |   |   |   |   |   |--- CommitDays >  123.50
|   |   |   |   |   |   |   |   |   |   |   |--- truncated branch of depth 2
|   |   |   |   |   |   |   |   |   |--- CommitDays >  191.50
|   |   |   |   |   |   |   |   |   |   |--- class: 2
|   |   |   |   |   |   |   |   |--- CommitDays >  229.50
|   |   |   |   |   |   |   |   |   |--- class: 1
|   |   |   |   |   |   |--- Legal >  0.50
|   |   |   |   |   |   |   |--- class: 4
|   |   |   |   |   |--- CommitDays >  278.00
|   |   |   |   |   |   |--- CommitDays <= 684.50
|   |   |   |   |   |   |   |--- Legal <= 0.50
|   |   |   |   |   |   |   |   |--- Father <= 0.50
|   |   |   |   |   |   |   |   |   |--- Housing <= 0.50
|   |   |   |   |   |   |   |   |   |   |--- CommitDays <= 319.00
|   |   |   |   |   |   |   |   |   |   |   |--- class: 0
|   |   |   |   |   |   |   |   |   |   |--- CommitDays >  319.00
|   |   |   |   |   |   |   |   |   |   |   |--- truncated branch of depth 15
|   |   |   |   |   |   |   |   |   |--- Housing >  0.50
|   |   |   |   |   |   |   |   |   |   |--- CommitDays <= 368.00
|   |   |   |   |   |   |   |   |   |   |   |--- truncated branch of depth 3
|   |   |   |   |   |   |   |   |   |   |--- CommitDays >  368.00
|   |   |   |   |   |   |   |   |   |   |   |--- truncated branch of depth 2
|   |   |   |   |   |   |   |   |--- Father >  0.50
|   |   |   |   |   |   |   |   |   |--- BehaviorManagement <= 0.50
|   |   |   |   |   |   |   |   |   |   |--- class: 1
|   |   |   |   |   |   |   |   |   |--- BehaviorManagement >  0.50
|   |   |   |   |   |   |   |   |   |   |--- CommitDays <= 548.00
|   |   |   |   |   |   |   |   |   |   |   |--- class: 3
|   |   |   |   |   |   |   |   |   |   |--- CommitDays >  548.00
|   |   |   |   |   |   |   |   |   |   |   |--- truncated branch of depth 2
|   |   |   |   |   |   |   |--- Legal >  0.50
|   |   |   |   |   |   |   |   |--- class: 1
|   |   |   |   |   |   |--- CommitDays >  684.50
|   |   |   |   |   |   |   |--- CommitDays <= 1104.50
|   |   |   |   |   |   |   |   |--- CommitDays <= 811.50
|   |   |   |   |   |   |   |   |   |--- CommitDays <= 732.50
|   |   |   |   |   |   |   |   |   |   |--- CommitDays <= 696.50
|   |   |   |   |   |   |   |   |   |   |   |--- truncated branch of depth 10
|   |   |   |   |   |   |   |   |   |   |--- CommitDays >  696.50
|   |   |   |   |   |   |   |   |   |   |   |--- truncated branch of depth 6
|   |   |   |   |   |   |   |   |   |--- CommitDays >  732.50
|   |   |   |   |   |   |   |   |   |   |--- LifeSkills <= 0.50
|   |   |   |   |   |   |   |   |   |   |   |--- truncated branch of depth 10
|   |   |   |   |   |   |   |   |   |   |--- LifeSkills >  0.50
|   |   |   |   |   |   |   |   |   |   |   |--- truncated branch of depth 3
|   |   |   |   |   |   |   |   |--- CommitDays >  811.50
|   |   |   |   |   |   |   |   |   |--- AncillaryServices <= 0.50
|   |   |   |   |   |   |   |   |   |   |--- CONTACT_TYPE <= 5.50
|   |   |   |   |   |   |   |   |   |   |   |--- truncated branch of depth 9
|   |   |   |   |   |   |   |   |   |   |--- CONTACT_TYPE >  5.50
|   |   |   |   |   |   |   |   |   |   |   |--- truncated branch of depth 14
|   |   |   |   |   |   |   |   |   |--- AncillaryServices >  0.50
|   |   |   |   |   |   |   |   |   |   |--- Legal <= 0.50
|   |   |   |   |   |   |   |   |   |   |   |--- truncated branch of depth 6
|   |   |   |   |   |   |   |   |   |   |--- Legal >  0.50
|   |   |   |   |   |   |   |   |   |   |   |--- class: 1
|   |   |   |   |   |   |   |--- CommitDays >  1104.50
|   |   |   |   |   |   |   |   |--- LifeSkills <= 0.50
|   |   |   |   |   |   |   |   |   |--- CommitDays <= 2316.00
|   |   |   |   |   |   |   |   |   |   |--- CONTACT_TYPE <= 4.00
|   |   |   |   |   |   |   |   |   |   |   |--- class: 4
|   |   |   |   |   |   |   |   |   |   |--- CONTACT_TYPE >  4.00
|   |   |   |   |   |   |   |   |   |   |   |--- truncated branch of depth 19
|   |   |   |   |   |   |   |   |   |--- CommitDays >  2316.00
|   |   |   |   |   |   |   |   |   |   |--- class: 0
|   |   |   |   |   |   |   |   |--- LifeSkills >  0.50
|   |   |   |   |   |   |   |   |   |--- FamilyRelationships <= 0.50
|   |   |   |   |   |   |   |   |   |   |--- Meeting <= 0.50
|   |   |   |   |   |   |   |   |   |   |   |--- truncated branch of depth 5
|   |   |   |   |   |   |   |   |   |   |--- Meeting >  0.50
|   |   |   |   |   |   |   |   |   |   |   |--- class: 1
|   |   |   |   |   |   |   |   |   |--- FamilyRelationships >  0.50
|   |   |   |   |   |   |   |   |   |   |--- Check-in <= 0.50
|   |   |   |   |   |   |   |   |   |   |   |--- class: 1
|   |   |   |   |   |   |   |   |   |   |--- Check-in >  0.50
|   |   |   |   |   |   |   |   |   |   |   |--- class: 3
|   |   |   |--- Educational >  0.50
|   |   |   |   |--- FamilyRelationships <= 0.50
|   |   |   |   |   |--- CommitDays <= 1547.00
|   |   |   |   |   |   |--- Mother <= 0.50
|   |   |   |   |   |   |   |--- SubstanceAbuse <= 0.50
|   |   |   |   |   |   |   |   |--- CONTACT_TYPE <= 4.00
|   |   |   |   |   |   |   |   |   |--- Check-in <= 0.50
|   |   |   |   |   |   |   |   |   |   |--- class: 3
|   |   |   |   |   |   |   |   |   |--- Check-in >  0.50
|   |   |   |   |   |   |   |   |   |   |--- class: 5
|   |   |   |   |   |   |   |   |--- CONTACT_TYPE >  4.00
|   |   |   |   |   |   |   |   |   |--- SocialServices <= 0.50
|   |   |   |   |   |   |   |   |   |   |--- Father <= 0.50
|   |   |   |   |   |   |   |   |   |   |   |--- truncated branch of depth 39
|   |   |   |   |   |   |   |   |   |   |--- Father >  0.50
|   |   |   |   |   |   |   |   |   |   |   |--- truncated branch of depth 6
|   |   |   |   |   |   |   |   |   |--- SocialServices >  0.50
|   |   |   |   |   |   |   |   |   |   |--- CONTACT_TYPE <= 10.50
|   |   |   |   |   |   |   |   |   |   |   |--- class: 0
|   |   |   |   |   |   |   |   |   |   |--- CONTACT_TYPE >  10.50
|   |   |   |   |   |   |   |   |   |   |   |--- class: 3
|   |   |   |   |   |   |   |--- SubstanceAbuse >  0.50
|   |   |   |   |   |   |   |   |--- Recreation <= 0.50
|   |   |   |   |   |   |   |   |   |--- Guardian <= 0.50
|   |   |   |   |   |   |   |   |   |   |--- Psychiatric <= 0.50
|   |   |   |   |   |   |   |   |   |   |   |--- truncated branch of depth 3
|   |   |   |   |   |   |   |   |   |   |--- Psychiatric >  0.50
|   |   |   |   |   |   |   |   |   |   |   |--- truncated branch of depth 2
|   |   |   |   |   |   |   |   |   |--- Guardian >  0.50
|   |   |   |   |   |   |   |   |   |   |--- Check-in <= 0.50
|   |   |   |   |   |   |   |   |   |   |   |--- class: 4
|   |   |   |   |   |   |   |   |   |   |--- Check-in >  0.50
|   |   |   |   |   |   |   |   |   |   |   |--- class: 0
|   |   |   |   |   |   |   |   |--- Recreation >  0.50
|   |   |   |   |   |   |   |   |   |--- class: 1
|   |   |   |   |   |   |--- Mother >  0.50
|   |   |   |   |   |   |   |--- CommitDays <= 652.50
|   |   |   |   |   |   |   |   |--- Psychological <= 0.50
|   |   |   |   |   |   |   |   |   |--- BehaviorManagement <= 0.50
|   |   |   |   |   |   |   |   |   |   |--- Housing <= 0.50
|   |   |   |   |   |   |   |   |   |   |   |--- truncated branch of depth 10
|   |   |   |   |   |   |   |   |   |   |--- Housing >  0.50
|   |   |   |   |   |   |   |   |   |   |   |--- class: 2
|   |   |   |   |   |   |   |   |   |--- BehaviorManagement >  0.50
|   |   |   |   |   |   |   |   |   |   |--- CommitDays <= 199.50
|   |   |   |   |   |   |   |   |   |   |   |--- class: 1
|   |   |   |   |   |   |   |   |   |   |--- CommitDays >  199.50
|   |   |   |   |   |   |   |   |   |   |   |--- truncated branch of depth 2
|   |   |   |   |   |   |   |   |--- Psychological >  0.50
|   |   |   |   |   |   |   |   |   |--- class: 1
|   |   |   |   |   |   |   |--- CommitDays >  652.50
|   |   |   |   |   |   |   |   |--- BehaviorManagement <= 0.50
|   |   |   |   |   |   |   |   |   |--- Check-in <= 0.50
|   |   |   |   |   |   |   |   |   |   |--- CommitDays <= 1141.00
|   |   |   |   |   |   |   |   |   |   |   |--- truncated branch of depth 4
|   |   |   |   |   |   |   |   |   |   |--- CommitDays >  1141.00
|   |   |   |   |   |   |   |   |   |   |   |--- class: 3
|   |   |   |   |   |   |   |   |   |--- Check-in >  0.50
|   |   |   |   |   |   |   |   |   |   |--- CONTACT_TYPE <= 5.50
|   |   |   |   |   |   |   |   |   |   |   |--- class: 0
|   |   |   |   |   |   |   |   |   |   |--- CONTACT_TYPE >  5.50
|   |   |   |   |   |   |   |   |   |   |   |--- truncated branch of depth 8
|   |   |   |   |   |   |   |   |--- BehaviorManagement >  0.50
|   |   |   |   |   |   |   |   |   |--- HealthServices <= 0.50
|   |   |   |   |   |   |   |   |   |   |--- class: 1
|   |   |   |   |   |   |   |   |   |--- HealthServices >  0.50
|   |   |   |   |   |   |   |   |   |   |--- class: 4
|   |   |   |   |   |--- CommitDays >  1547.00
|   |   |   |   |   |   |--- CommitDays <= 1573.50
|   |   |   |   |   |   |   |--- CONTACT_TYPE <= 5.50
|   |   |   |   |   |   |   |   |--- Vocational <= 0.50
|   |   |   |   |   |   |   |   |   |--- AncillaryServices <= 0.50
|   |   |   |   |   |   |   |   |   |   |--- Recreation <= 0.50
|   |   |   |   |   |   |   |   |   |   |   |--- truncated branch of depth 4
|   |   |   |   |   |   |   |   |   |   |--- Recreation >  0.50
|   |   |   |   |   |   |   |   |   |   |   |--- class: 3
|   |   |   |   |   |   |   |   |   |--- AncillaryServices >  0.50
|   |   |   |   |   |   |   |   |   |   |--- LifeSkills <= 0.50
|   |   |   |   |   |   |   |   |   |   |   |--- truncated branch of depth 2
|   |   |   |   |   |   |   |   |   |   |--- LifeSkills >  0.50
|   |   |   |   |   |   |   |   |   |   |   |--- class: 4
|   |   |   |   |   |   |   |   |--- Vocational >  0.50
|   |   |   |   |   |   |   |   |   |--- class: 4
|   |   |   |   |   |   |   |--- CONTACT_TYPE >  5.50
|   |   |   |   |   |   |   |   |--- BehaviorManagement <= 0.50
|   |   |   |   |   |   |   |   |   |--- Check-in <= 0.50
|   |   |   |   |   |   |   |   |   |   |--- Housing <= 0.50
|   |   |   |   |   |   |   |   |   |   |   |--- truncated branch of depth 5
|   |   |   |   |   |   |   |   |   |   |--- Housing >  0.50
|   |   |   |   |   |   |   |   |   |   |   |--- class: 4
|   |   |   |   |   |   |   |   |   |--- Check-in >  0.50
|   |   |   |   |   |   |   |   |   |   |--- class: 4
|   |   |   |   |   |   |   |   |--- BehaviorManagement >  0.50
|   |   |   |   |   |   |   |   |   |--- SubstanceAbuse <= 0.50
|   |   |   |   |   |   |   |   |   |   |--- AncillaryServices <= 0.50
|   |   |   |   |   |   |   |   |   |   |   |--- class: 1
|   |   |   |   |   |   |   |   |   |   |--- AncillaryServices >  0.50
|   |   |   |   |   |   |   |   |   |   |   |--- class: 4
|   |   |   |   |   |   |   |   |   |--- SubstanceAbuse >  0.50
|   |   |   |   |   |   |   |   |   |   |--- class: 4
|   |   |   |   |   |   |--- CommitDays >  1573.50
|   |   |   |   |   |   |   |--- Vocational <= 0.50
|   |   |   |   |   |   |   |   |--- CommitDays <= 1596.00
|   |   |   |   |   |   |   |   |   |--- class: 0
|   |   |   |   |   |   |   |   |--- CommitDays >  1596.00
|   |   |   |   |   |   |   |   |   |--- CommitDays <= 1614.50
|   |   |   |   |   |   |   |   |   |   |--- class: 3
|   |   |   |   |   |   |   |   |   |--- CommitDays >  1614.50
|   |   |   |   |   |   |   |   |   |   |--- CommitDays <= 1661.50
|   |   |   |   |   |   |   |   |   |   |   |--- class: 1
|   |   |   |   |   |   |   |   |   |   |--- CommitDays >  1661.50
|   |   |   |   |   |   |   |   |   |   |   |--- truncated branch of depth 13
|   |   |   |   |   |   |   |--- Vocational >  0.50
|   |   |   |   |   |   |   |   |--- CommitDays <= 1793.50
|   |   |   |   |   |   |   |   |   |--- class: 1
|   |   |   |   |   |   |   |   |--- CommitDays >  1793.50
|   |   |   |   |   |   |   |   |   |--- CommitDays <= 1968.00
|   |   |   |   |   |   |   |   |   |   |--- class: 0
|   |   |   |   |   |   |   |   |   |--- CommitDays >  1968.00
|   |   |   |   |   |   |   |   |   |   |--- class: 1
|   |   |   |   |--- FamilyRelationships >  0.50
|   |   |   |   |   |--- Father <= 0.50
|   |   |   |   |   |   |--- ClothingVoucher <= 0.50
|   |   |   |   |   |   |   |--- RRT <= 0.50
|   |   |   |   |   |   |   |   |--- CONTACT_TYPE <= 11.00
|   |   |   |   |   |   |   |   |   |--- RevocationHearing <= 0.50
|   |   |   |   |   |   |   |   |   |   |--- CommitDays <= 77.00
|   |   |   |   |   |   |   |   |   |   |   |--- truncated branch of depth 5
|   |   |   |   |   |   |   |   |   |   |--- CommitDays >  77.00
|   |   |   |   |   |   |   |   |   |   |   |--- truncated branch of depth 17
|   |   |   |   |   |   |   |   |   |--- RevocationHearing >  0.50
|   |   |   |   |   |   |   |   |   |   |--- class: 4
|   |   |   |   |   |   |   |   |--- CONTACT_TYPE >  11.00
|   |   |   |   |   |   |   |   |   |--- Psychiatric <= 0.50
|   |   |   |   |   |   |   |   |   |   |--- Mother <= 0.50
|   |   |   |   |   |   |   |   |   |   |   |--- truncated branch of depth 3
|   |   |   |   |   |   |   |   |   |   |--- Mother >  0.50
|   |   |   |   |   |   |   |   |   |   |   |--- truncated branch of depth 2
|   |   |   |   |   |   |   |   |   |--- Psychiatric >  0.50
|   |   |   |   |   |   |   |   |   |   |--- Meeting <= 0.50
|   |   |   |   |   |   |   |   |   |   |   |--- truncated branch of depth 2
|   |   |   |   |   |   |   |   |   |   |--- Meeting >  0.50
|   |   |   |   |   |   |   |   |   |   |   |--- truncated branch of depth 2
|   |   |   |   |   |   |   |--- RRT >  0.50
|   |   |   |   |   |   |   |   |--- Pass <= 0.50
|   |   |   |   |   |   |   |   |   |--- CommitDays <= 664.00
|   |   |   |   |   |   |   |   |   |   |--- Parent/Guardian <= 0.50
|   |   |   |   |   |   |   |   |   |   |   |--- class: 0
|   |   |   |   |   |   |   |   |   |   |--- Parent/Guardian >  0.50
|   |   |   |   |   |   |   |   |   |   |   |--- class: 1
|   |   |   |   |   |   |   |   |   |--- CommitDays >  664.00
|   |   |   |   |   |   |   |   |   |   |--- class: 1
|   |   |   |   |   |   |   |   |--- Pass >  0.50
|   |   |   |   |   |   |   |   |   |--- class: 2
|   |   |   |   |   |   |--- ClothingVoucher >  0.50
|   |   |   |   |   |   |   |--- class: 0
|   |   |   |   |   |--- Father >  0.50
|   |   |   |   |   |   |--- Housing <= 0.50
|   |   |   |   |   |   |   |--- CommitDays <= 528.50
|   |   |   |   |   |   |   |   |--- CommitDays <= 323.50
|   |   |   |   |   |   |   |   |   |--- class: 0
|   |   |   |   |   |   |   |   |--- CommitDays >  323.50
|   |   |   |   |   |   |   |   |   |--- Psychological <= 0.50
|   |   |   |   |   |   |   |   |   |   |--- class: 1
|   |   |   |   |   |   |   |   |   |--- Psychological >  0.50
|   |   |   |   |   |   |   |   |   |   |--- class: 3
|   |   |   |   |   |   |   |--- CommitDays >  528.50
|   |   |   |   |   |   |   |   |--- class: 0
|   |   |   |   |   |   |--- Housing >  0.50
|   |   |   |   |   |   |   |--- Mother <= 0.50
|   |   |   |   |   |   |   |   |--- CommitDays <= 580.50
|   |   |   |   |   |   |   |   |   |--- class: 1
|   |   |   |   |   |   |   |   |--- CommitDays >  580.50
|   |   |   |   |   |   |   |   |   |--- Family <= 0.50
|   |   |   |   |   |   |   |   |   |   |--- class: 0
|   |   |   |   |   |   |   |   |   |--- Family >  0.50
|   |   |   |   |   |   |   |   |   |   |--- class: 1
|   |   |   |   |   |   |   |--- Mother >  0.50
|   |   |   |   |   |   |   |   |--- SubstanceAbuse <= 0.50
|   |   |   |   |   |   |   |   |   |--- Vocational <= 0.50
|   |   |   |   |   |   |   |   |   |   |--- Psychiatric <= 0.50
|   |   |   |   |   |   |   |   |   |   |   |--- class: 4
|   |   |   |   |   |   |   |   |   |   |--- Psychiatric >  0.50
|   |   |   |   |   |   |   |   |   |   |   |--- class: 0
|   |   |   |   |   |   |   |   |   |--- Vocational >  0.50
|   |   |   |   |   |   |   |   |   |   |--- class: 0
|   |   |   |   |   |   |   |   |--- SubstanceAbuse >  0.50
|   |   |   |   |   |   |   |   |   |--- Guardian <= 0.50
|   |   |   |   |   |   |   |   |   |   |--- class: 1
|   |   |   |   |   |   |   |   |   |--- Guardian >  0.50
|   |   |   |   |   |   |   |   |   |   |--- class: 3
|   |--- Client >  0.50
|   |   |--- CONTACT_TYPE <= 6.50
|   |   |   |--- CONTACT_TYPE <= 5.50
|   |   |   |   |--- CONTACT_TYPE <= 4.50
|   |   |   |   |   |--- CONTACT_TYPE <= 3.50
|   |   |   |   |   |   |--- CommitDays <= 478.00
|   |   |   |   |   |   |   |--- ClothingVoucher <= 0.50
|   |   |   |   |   |   |   |   |--- LifeSkills <= 0.50
|   |   |   |   |   |   |   |   |   |--- CommitDays <= 362.50
|   |   |   |   |   |   |   |   |   |   |--- CommitDays <= 341.50
|   |   |   |   |   |   |   |   |   |   |   |--- truncated branch of depth 18
|   |   |   |   |   |   |   |   |   |   |--- CommitDays >  341.50
|   |   |   |   |   |   |   |   |   |   |   |--- truncated branch of depth 5
|   |   |   |   |   |   |   |   |   |--- CommitDays >  362.50
|   |   |   |   |   |   |   |   |   |   |--- Check-in <= 0.50
|   |   |   |   |   |   |   |   |   |   |   |--- truncated branch of depth 8
|   |   |   |   |   |   |   |   |   |   |--- Check-in >  0.50
|   |   |   |   |   |   |   |   |   |   |   |--- truncated branch of depth 7
|   |   |   |   |   |   |   |   |--- LifeSkills >  0.50
|   |   |   |   |   |   |   |   |   |--- Family <= 0.50
|   |   |   |   |   |   |   |   |   |   |--- CommitDays <= 219.50
|   |   |   |   |   |   |   |   |   |   |   |--- truncated branch of depth 3
|   |   |   |   |   |   |   |   |   |   |--- CommitDays >  219.50
|   |   |   |   |   |   |   |   |   |   |   |--- truncated branch of depth 6
|   |   |   |   |   |   |   |   |   |--- Family >  0.50
|   |   |   |   |   |   |   |   |   |   |--- AncillaryServices <= 0.50
|   |   |   |   |   |   |   |   |   |   |   |--- truncated branch of depth 2
|   |   |   |   |   |   |   |   |   |   |--- AncillaryServices >  0.50
|   |   |   |   |   |   |   |   |   |   |   |--- class: 1
|   |   |   |   |   |   |   |--- ClothingVoucher >  0.50
|   |   |   |   |   |   |   |   |--- Housing <= 0.50
|   |   |   |   |   |   |   |   |   |--- LifeSkills <= 0.50
|   |   |   |   |   |   |   |   |   |   |--- CommitDays <= 244.50
|   |   |   |   |   |   |   |   |   |   |   |--- truncated branch of depth 4
|   |   |   |   |   |   |   |   |   |   |--- CommitDays >  244.50
|   |   |   |   |   |   |   |   |   |   |   |--- truncated branch of depth 7
|   |   |   |   |   |   |   |   |   |--- LifeSkills >  0.50
|   |   |   |   |   |   |   |   |   |   |--- class: 0
|   |   |   |   |   |   |   |   |--- Housing >  0.50
|   |   |   |   |   |   |   |   |   |--- class: 1
|   |   |   |   |   |   |--- CommitDays >  478.00
|   |   |   |   |   |   |   |--- Recreation <= 0.50
|   |   |   |   |   |   |   |   |--- CONTACT_TYPE <= 2.50
|   |   |   |   |   |   |   |   |   |--- CommitDays <= 1045.50
|   |   |   |   |   |   |   |   |   |   |--- CommitDays <= 571.50
|   |   |   |   |   |   |   |   |   |   |   |--- truncated branch of depth 2
|   |   |   |   |   |   |   |   |   |   |--- CommitDays >  571.50
|   |   |   |   |   |   |   |   |   |   |   |--- truncated branch of depth 7
|   |   |   |   |   |   |   |   |   |--- CommitDays >  1045.50
|   |   |   |   |   |   |   |   |   |   |--- CommitDays <= 1654.50
|   |   |   |   |   |   |   |   |   |   |   |--- truncated branch of depth 19
|   |   |   |   |   |   |   |   |   |   |--- CommitDays >  1654.50
|   |   |   |   |   |   |   |   |   |   |   |--- truncated branch of depth 14
|   |   |   |   |   |   |   |   |--- CONTACT_TYPE >  2.50
|   |   |   |   |   |   |   |   |   |--- CommitDays <= 1867.00
|   |   |   |   |   |   |   |   |   |   |--- Guardian <= 0.50
|   |   |   |   |   |   |   |   |   |   |   |--- truncated branch of depth 32
|   |   |   |   |   |   |   |   |   |   |--- Guardian >  0.50
|   |   |   |   |   |   |   |   |   |   |   |--- truncated branch of depth 10
|   |   |   |   |   |   |   |   |   |--- CommitDays >  1867.00
|   |   |   |   |   |   |   |   |   |   |--- CommitDays <= 2380.00
|   |   |   |   |   |   |   |   |   |   |   |--- truncated branch of depth 12
|   |   |   |   |   |   |   |   |   |   |--- CommitDays >  2380.00
|   |   |   |   |   |   |   |   |   |   |   |--- truncated branch of depth 2
|   |   |   |   |   |   |   |--- Recreation >  0.50
|   |   |   |   |   |   |   |   |--- CommitDays <= 951.50
|   |   |   |   |   |   |   |   |   |--- Mother <= 0.50
|   |   |   |   |   |   |   |   |   |   |--- AncillaryServices <= 0.50
|   |   |   |   |   |   |   |   |   |   |   |--- truncated branch of depth 12
|   |   |   |   |   |   |   |   |   |   |--- AncillaryServices >  0.50
|   |   |   |   |   |   |   |   |   |   |   |--- truncated branch of depth 2
|   |   |   |   |   |   |   |   |   |--- Mother >  0.50
|   |   |   |   |   |   |   |   |   |   |--- Psychiatric <= 0.50
|   |   |   |   |   |   |   |   |   |   |   |--- truncated branch of depth 6
|   |   |   |   |   |   |   |   |   |   |--- Psychiatric >  0.50
|   |   |   |   |   |   |   |   |   |   |   |--- class: 0
|   |   |   |   |   |   |   |   |--- CommitDays >  951.50
|   |   |   |   |   |   |   |   |   |--- CommitDays <= 989.50
|   |   |   |   |   |   |   |   |   |   |--- Vocational <= 0.50
|   |   |   |   |   |   |   |   |   |   |   |--- truncated branch of depth 4
|   |   |   |   |   |   |   |   |   |   |--- Vocational >  0.50
|   |   |   |   |   |   |   |   |   |   |   |--- class: 0
|   |   |   |   |   |   |   |   |   |--- CommitDays >  989.50
|   |   |   |   |   |   |   |   |   |   |--- CommitDays <= 997.50
|   |   |   |   |   |   |   |   |   |   |   |--- class: 4
|   |   |   |   |   |   |   |   |   |   |--- CommitDays >  997.50
|   |   |   |   |   |   |   |   |   |   |   |--- truncated branch of depth 17
|   |   |   |   |   |--- CONTACT_TYPE >  3.50
|   |   |   |   |   |   |--- CommitDays <= 1139.00
|   |   |   |   |   |   |   |--- CommitDays <= 1049.00
|   |   |   |   |   |   |   |   |--- CommitDays <= 492.50
|   |   |   |   |   |   |   |   |   |--- CommitDays <= 461.00
|   |   |   |   |   |   |   |   |   |   |--- CommitDays <= 438.00
|   |   |   |   |   |   |   |   |   |   |   |--- truncated branch of depth 22
|   |   |   |   |   |   |   |   |   |   |--- CommitDays >  438.00
|   |   |   |   |   |   |   |   |   |   |   |--- truncated branch of depth 7
|   |   |   |   |   |   |   |   |   |--- CommitDays >  461.00
|   |   |   |   |   |   |   |   |   |   |--- AncillaryServices <= 0.50
|   |   |   |   |   |   |   |   |   |   |   |--- truncated branch of depth 8
|   |   |   |   |   |   |   |   |   |   |--- AncillaryServices >  0.50
|   |   |   |   |   |   |   |   |   |   |   |--- truncated branch of depth 4
|   |   |   |   |   |   |   |   |--- CommitDays >  492.50
|   |   |   |   |   |   |   |   |   |--- CommitDays <= 990.50
|   |   |   |   |   |   |   |   |   |   |--- CommitDays <= 751.00
|   |   |   |   |   |   |   |   |   |   |   |--- truncated branch of depth 23
|   |   |   |   |   |   |   |   |   |   |--- CommitDays >  751.00
|   |   |   |   |   |   |   |   |   |   |   |--- truncated branch of depth 26
|   |   |   |   |   |   |   |   |   |--- CommitDays >  990.50
|   |   |   |   |   |   |   |   |   |   |--- ExternalCollateral <= 0.50
|   |   |   |   |   |   |   |   |   |   |   |--- truncated branch of depth 12
|   |   |   |   |   |   |   |   |   |   |--- ExternalCollateral >  0.50
|   |   |   |   |   |   |   |   |   |   |   |--- truncated branch of depth 12
|   |   |   |   |   |   |   |--- CommitDays >  1049.00
|   |   |   |   |   |   |   |   |--- Guardian <= 0.50
|   |   |   |   |   |   |   |   |   |--- Father <= 0.50
|   |   |   |   |   |   |   |   |   |   |--- CommitDays <= 1054.50
|   |   |   |   |   |   |   |   |   |   |   |--- truncated branch of depth 2
|   |   |   |   |   |   |   |   |   |   |--- CommitDays >  1054.50
|   |   |   |   |   |   |   |   |   |   |   |--- truncated branch of depth 15
|   |   |   |   |   |   |   |   |   |--- Father >  0.50
|   |   |   |   |   |   |   |   |   |   |--- Educational <= 0.50
|   |   |   |   |   |   |   |   |   |   |   |--- truncated branch of depth 5
|   |   |   |   |   |   |   |   |   |   |--- Educational >  0.50
|   |   |   |   |   |   |   |   |   |   |   |--- class: 4
|   |   |   |   |   |   |   |   |--- Guardian >  0.50
|   |   |   |   |   |   |   |   |   |--- Check-in <= 0.50
|   |   |   |   |   |   |   |   |   |   |--- Educational/Vocational <= 0.50
|   |   |   |   |   |   |   |   |   |   |   |--- truncated branch of depth 11
|   |   |   |   |   |   |   |   |   |   |--- Educational/Vocational >  0.50
|   |   |   |   |   |   |   |   |   |   |   |--- class: 0
|   |   |   |   |   |   |   |   |   |--- Check-in >  0.50
|   |   |   |   |   |   |   |   |   |   |--- CommitDays <= 1064.00
|   |   |   |   |   |   |   |   |   |   |   |--- class: 1
|   |   |   |   |   |   |   |   |   |   |--- CommitDays >  1064.00
|   |   |   |   |   |   |   |   |   |   |   |--- truncated branch of depth 11
|   |   |   |   |   |   |--- CommitDays >  1139.00
|   |   |   |   |   |   |   |--- Parent/Guardian <= 0.50
|   |   |   |   |   |   |   |   |--- CommitDays <= 1753.00
|   |   |   |   |   |   |   |   |   |--- FamilySupport(s) <= 0.50
|   |   |   |   |   |   |   |   |   |   |--- Educational/Vocational <= 0.50
|   |   |   |   |   |   |   |   |   |   |   |--- truncated branch of depth 23
|   |   |   |   |   |   |   |   |   |   |--- Educational/Vocational >  0.50
|   |   |   |   |   |   |   |   |   |   |   |--- class: 2
|   |   |   |   |   |   |   |   |   |--- FamilySupport(s) >  0.50
|   |   |   |   |   |   |   |   |   |   |--- Check-in <= 0.50
|   |   |   |   |   |   |   |   |   |   |   |--- truncated branch of depth 2
|   |   |   |   |   |   |   |   |   |   |--- Check-in >  0.50
|   |   |   |   |   |   |   |   |   |   |   |--- class: 0
|   |   |   |   |   |   |   |   |--- CommitDays >  1753.00
|   |   |   |   |   |   |   |   |   |--- Check-in <= 0.50
|   |   |   |   |   |   |   |   |   |   |--- CommitDays <= 1917.50
|   |   |   |   |   |   |   |   |   |   |   |--- truncated branch of depth 12
|   |   |   |   |   |   |   |   |   |   |--- CommitDays >  1917.50
|   |   |   |   |   |   |   |   |   |   |   |--- truncated branch of depth 11
|   |   |   |   |   |   |   |   |   |--- Check-in >  0.50
|   |   |   |   |   |   |   |   |   |   |--- CommitDays <= 1783.50
|   |   |   |   |   |   |   |   |   |   |   |--- truncated branch of depth 2
|   |   |   |   |   |   |   |   |   |   |--- CommitDays >  1783.50
|   |   |   |   |   |   |   |   |   |   |   |--- truncated branch of depth 12
|   |   |   |   |   |   |   |--- Parent/Guardian >  0.50
|   |   |   |   |   |   |   |   |--- CommitDays <= 1329.00
|   |   |   |   |   |   |   |   |   |--- Meeting <= 0.50
|   |   |   |   |   |   |   |   |   |   |--- CommitDays <= 1321.50
|   |   |   |   |   |   |   |   |   |   |   |--- truncated branch of depth 11
|   |   |   |   |   |   |   |   |   |   |--- CommitDays >  1321.50
|   |   |   |   |   |   |   |   |   |   |   |--- class: 3
|   |   |   |   |   |   |   |   |   |--- Meeting >  0.50
|   |   |   |   |   |   |   |   |   |   |--- class: 4
|   |   |   |   |   |   |   |   |--- CommitDays >  1329.00
|   |   |   |   |   |   |   |   |   |--- LifeSkills <= 0.50
|   |   |   |   |   |   |   |   |   |   |--- CommitDays <= 2227.50
|   |   |   |   |   |   |   |   |   |   |   |--- truncated branch of depth 11
|   |   |   |   |   |   |   |   |   |   |--- CommitDays >  2227.50
|   |   |   |   |   |   |   |   |   |   |   |--- truncated branch of depth 6
|   |   |   |   |   |   |   |   |   |--- LifeSkills >  0.50
|   |   |   |   |   |   |   |   |   |   |--- CommitDays <= 1799.50
|   |   |   |   |   |   |   |   |   |   |   |--- truncated branch of depth 2
|   |   |   |   |   |   |   |   |   |   |--- CommitDays >  1799.50
|   |   |   |   |   |   |   |   |   |   |   |--- class: 3
|   |   |   |   |--- CONTACT_TYPE >  4.50
|   |   |   |   |   |--- Vocational <= 0.50
|   |   |   |   |   |   |--- Educational <= 0.50
|   |   |   |   |   |   |   |--- Guardian <= 0.50
|   |   |   |   |   |   |   |   |--- AncillaryServices <= 0.50
|   |   |   |   |   |   |   |   |   |--- InternalCollateral <= 0.50
|   |   |   |   |   |   |   |   |   |   |--- Psychiatric <= 0.50
|   |   |   |   |   |   |   |   |   |   |   |--- truncated branch of depth 34
|   |   |   |   |   |   |   |   |   |   |--- Psychiatric >  0.50
|   |   |   |   |   |   |   |   |   |   |   |--- truncated branch of depth 7
|   |   |   |   |   |   |   |   |   |--- InternalCollateral >  0.50
|   |   |   |   |   |   |   |   |   |   |--- CommitDays <= 2215.50
|   |   |   |   |   |   |   |   |   |   |   |--- truncated branch of depth 27
|   |   |   |   |   |   |   |   |   |   |--- CommitDays >  2215.50
|   |   |   |   |   |   |   |   |   |   |   |--- truncated branch of depth 11
|   |   |   |   |   |   |   |   |--- AncillaryServices >  0.50
|   |   |   |   |   |   |   |   |   |--- LifeSkills <= 0.50
|   |   |   |   |   |   |   |   |   |   |--- BehaviorManagement <= 0.50
|   |   |   |   |   |   |   |   |   |   |   |--- truncated branch of depth 17
|   |   |   |   |   |   |   |   |   |   |--- BehaviorManagement >  0.50
|   |   |   |   |   |   |   |   |   |   |   |--- truncated branch of depth 19
|   |   |   |   |   |   |   |   |   |--- LifeSkills >  0.50
|   |   |   |   |   |   |   |   |   |   |--- InternalCollateral <= 0.50
|   |   |   |   |   |   |   |   |   |   |   |--- truncated branch of depth 18
|   |   |   |   |   |   |   |   |   |   |--- InternalCollateral >  0.50
|   |   |   |   |   |   |   |   |   |   |   |--- truncated branch of depth 5
|   |   |   |   |   |   |   |--- Guardian >  0.50
|   |   |   |   |   |   |   |   |--- Housing <= 0.50
|   |   |   |   |   |   |   |   |   |--- CommitDays <= 529.00
|   |   |   |   |   |   |   |   |   |   |--- CommitDays <= 444.50
|   |   |   |   |   |   |   |   |   |   |   |--- truncated branch of depth 18
|   |   |   |   |   |   |   |   |   |   |--- CommitDays >  444.50
|   |   |   |   |   |   |   |   |   |   |   |--- truncated branch of depth 7
|   |   |   |   |   |   |   |   |   |--- CommitDays >  529.00
|   |   |   |   |   |   |   |   |   |   |--- AncillaryServices <= 0.50
|   |   |   |   |   |   |   |   |   |   |   |--- truncated branch of depth 35
|   |   |   |   |   |   |   |   |   |   |--- AncillaryServices >  0.50
|   |   |   |   |   |   |   |   |   |   |   |--- truncated branch of depth 13
|   |   |   |   |   |   |   |   |--- Housing >  0.50
|   |   |   |   |   |   |   |   |   |--- CommitDays <= 414.00
|   |   |   |   |   |   |   |   |   |   |--- class: 1
|   |   |   |   |   |   |   |   |   |--- CommitDays >  414.00
|   |   |   |   |   |   |   |   |   |   |--- CommitDays <= 472.50
|   |   |   |   |   |   |   |   |   |   |   |--- class: 3
|   |   |   |   |   |   |   |   |   |   |--- CommitDays >  472.50
|   |   |   |   |   |   |   |   |   |   |   |--- truncated branch of depth 12
|   |   |   |   |   |   |--- Educational >  0.50
|   |   |   |   |   |   |   |--- CommitDays <= 647.00
|   |   |   |   |   |   |   |   |--- Check-in <= 0.50
|   |   |   |   |   |   |   |   |   |--- BehaviorManagement <= 0.50
|   |   |   |   |   |   |   |   |   |   |--- Father <= 0.50
|   |   |   |   |   |   |   |   |   |   |   |--- truncated branch of depth 8
|   |   |   |   |   |   |   |   |   |   |--- Father >  0.50
|   |   |   |   |   |   |   |   |   |   |   |--- class: 1
|   |   |   |   |   |   |   |   |   |--- BehaviorManagement >  0.50
|   |   |   |   |   |   |   |   |   |   |--- Meeting <= 0.50
|   |   |   |   |   |   |   |   |   |   |   |--- truncated branch of depth 12
|   |   |   |   |   |   |   |   |   |   |--- Meeting >  0.50
|   |   |   |   |   |   |   |   |   |   |   |--- truncated branch of depth 2
|   |   |   |   |   |   |   |   |--- Check-in >  0.50
|   |   |   |   |   |   |   |   |   |--- CommitDays <= 235.00
|   |   |   |   |   |   |   |   |   |   |--- FamilyRelationships <= 0.50
|   |   |   |   |   |   |   |   |   |   |   |--- truncated branch of depth 8
|   |   |   |   |   |   |   |   |   |   |--- FamilyRelationships >  0.50
|   |   |   |   |   |   |   |   |   |   |   |--- truncated branch of depth 4
|   |   |   |   |   |   |   |   |   |--- CommitDays >  235.00
|   |   |   |   |   |   |   |   |   |   |--- CommitDays <= 351.00
|   |   |   |   |   |   |   |   |   |   |   |--- truncated branch of depth 12
|   |   |   |   |   |   |   |   |   |   |--- CommitDays >  351.00
|   |   |   |   |   |   |   |   |   |   |   |--- truncated branch of depth 22
|   |   |   |   |   |   |   |--- CommitDays >  647.00
|   |   |   |   |   |   |   |   |--- CommitDays <= 678.00
|   |   |   |   |   |   |   |   |   |--- CommitDays <= 674.50
|   |   |   |   |   |   |   |   |   |   |--- Parent/Guardian <= 0.50
|   |   |   |   |   |   |   |   |   |   |   |--- truncated branch of depth 13
|   |   |   |   |   |   |   |   |   |   |--- Parent/Guardian >  0.50
|   |   |   |   |   |   |   |   |   |   |   |--- truncated branch of depth 3
|   |   |   |   |   |   |   |   |   |--- CommitDays >  674.50
|   |   |   |   |   |   |   |   |   |   |--- LifeSkills <= 0.50
|   |   |   |   |   |   |   |   |   |   |   |--- truncated branch of depth 9
|   |   |   |   |   |   |   |   |   |   |--- LifeSkills >  0.50
|   |   |   |   |   |   |   |   |   |   |   |--- class: 0
|   |   |   |   |   |   |   |   |--- CommitDays >  678.00
|   |   |   |   |   |   |   |   |   |--- BehaviorManagement <= 0.50
|   |   |   |   |   |   |   |   |   |   |--- Check-in <= 0.50
|   |   |   |   |   |   |   |   |   |   |   |--- truncated branch of depth 20
|   |   |   |   |   |   |   |   |   |   |--- Check-in >  0.50
|   |   |   |   |   |   |   |   |   |   |   |--- truncated branch of depth 26
|   |   |   |   |   |   |   |   |   |--- BehaviorManagement >  0.50
|   |   |   |   |   |   |   |   |   |   |--- LifeSkills <= 0.50
|   |   |   |   |   |   |   |   |   |   |   |--- truncated branch of depth 25
|   |   |   |   |   |   |   |   |   |   |--- LifeSkills >  0.50
|   |   |   |   |   |   |   |   |   |   |   |--- truncated branch of depth 14
|   |   |   |   |   |--- Vocational >  0.50
|   |   |   |   |   |   |--- LevelReview <= 0.50
|   |   |   |   |   |   |   |--- CommitDays <= 1342.50
|   |   |   |   |   |   |   |   |--- Housing <= 0.50
|   |   |   |   |   |   |   |   |   |--- CommitDays <= 262.50
|   |   |   |   |   |   |   |   |   |   |--- Educational <= 0.50
|   |   |   |   |   |   |   |   |   |   |   |--- truncated branch of depth 8
|   |   |   |   |   |   |   |   |   |   |--- Educational >  0.50
|   |   |   |   |   |   |   |   |   |   |   |--- truncated branch of depth 5
|   |   |   |   |   |   |   |   |   |--- CommitDays >  262.50
|   |   |   |   |   |   |   |   |   |   |--- BehaviorManagement <= 0.50
|   |   |   |   |   |   |   |   |   |   |   |--- truncated branch of depth 24
|   |   |   |   |   |   |   |   |   |   |--- BehaviorManagement >  0.50
|   |   |   |   |   |   |   |   |   |   |   |--- truncated branch of depth 31
|   |   |   |   |   |   |   |   |--- Housing >  0.50
|   |   |   |   |   |   |   |   |   |--- CommitDays <= 690.00
|   |   |   |   |   |   |   |   |   |   |--- LifeSkills <= 0.50
|   |   |   |   |   |   |   |   |   |   |   |--- truncated branch of depth 8
|   |   |   |   |   |   |   |   |   |   |--- LifeSkills >  0.50
|   |   |   |   |   |   |   |   |   |   |   |--- truncated branch of depth 12
|   |   |   |   |   |   |   |   |   |--- CommitDays >  690.00
|   |   |   |   |   |   |   |   |   |   |--- CommitDays <= 765.50
|   |   |   |   |   |   |   |   |   |   |   |--- truncated branch of depth 8
|   |   |   |   |   |   |   |   |   |   |--- CommitDays >  765.50
|   |   |   |   |   |   |   |   |   |   |   |--- truncated branch of depth 15
|   |   |   |   |   |   |   |--- CommitDays >  1342.50
|   |   |   |   |   |   |   |   |--- Psychological <= 0.50
|   |   |   |   |   |   |   |   |   |--- BehaviorManagement <= 0.50
|   |   |   |   |   |   |   |   |   |   |--- CommitDays <= 1429.00
|   |   |   |   |   |   |   |   |   |   |   |--- truncated branch of depth 10
|   |   |   |   |   |   |   |   |   |   |--- CommitDays >  1429.00
|   |   |   |   |   |   |   |   |   |   |   |--- truncated branch of depth 15
|   |   |   |   |   |   |   |   |   |--- BehaviorManagement >  0.50
|   |   |   |   |   |   |   |   |   |   |--- CommitDays <= 2061.00
|   |   |   |   |   |   |   |   |   |   |   |--- truncated branch of depth 15
|   |   |   |   |   |   |   |   |   |   |--- CommitDays >  2061.00
|   |   |   |   |   |   |   |   |   |   |   |--- truncated branch of depth 9
|   |   |   |   |   |   |   |   |--- Psychological >  0.50
|   |   |   |   |   |   |   |   |   |--- CommitDays <= 2039.50
|   |   |   |   |   |   |   |   |   |   |--- FamilyRelationships <= 0.50
|   |   |   |   |   |   |   |   |   |   |   |--- truncated branch of depth 8
|   |   |   |   |   |   |   |   |   |   |--- FamilyRelationships >  0.50
|   |   |   |   |   |   |   |   |   |   |   |--- truncated branch of depth 4
|   |   |   |   |   |   |   |   |   |--- CommitDays >  2039.50
|   |   |   |   |   |   |   |   |   |   |--- Housing <= 0.50
|   |   |   |   |   |   |   |   |   |   |   |--- truncated branch of depth 6
|   |   |   |   |   |   |   |   |   |   |--- Housing >  0.50
|   |   |   |   |   |   |   |   |   |   |   |--- class: 3
|   |   |   |   |   |   |--- LevelReview >  0.50
|   |   |   |   |   |   |   |--- Housing <= 0.50
|   |   |   |   |   |   |   |   |--- Recreation <= 0.50
|   |   |   |   |   |   |   |   |   |--- CommitDays <= 1081.50
|   |   |   |   |   |   |   |   |   |   |--- SocialServices <= 0.50
|   |   |   |   |   |   |   |   |   |   |   |--- truncated branch of depth 5
|   |   |   |   |   |   |   |   |   |   |--- SocialServices >  0.50
|   |   |   |   |   |   |   |   |   |   |   |--- class: 5
|   |   |   |   |   |   |   |   |   |--- CommitDays >  1081.50
|   |   |   |   |   |   |   |   |   |   |--- Meeting <= 0.50
|   |   |   |   |   |   |   |   |   |   |   |--- truncated branch of depth 6
|   |   |   |   |   |   |   |   |   |   |--- Meeting >  0.50
|   |   |   |   |   |   |   |   |   |   |   |--- class: 1
|   |   |   |   |   |   |   |   |--- Recreation >  0.50
|   |   |   |   |   |   |   |   |   |--- CommitDays <= 995.00
|   |   |   |   |   |   |   |   |   |   |--- class: 3
|   |   |   |   |   |   |   |   |   |--- CommitDays >  995.00
|   |   |   |   |   |   |   |   |   |   |--- ClothingVoucher <= 0.50
|   |   |   |   |   |   |   |   |   |   |   |--- class: 1
|   |   |   |   |   |   |   |   |   |   |--- ClothingVoucher >  0.50
|   |   |   |   |   |   |   |   |   |   |   |--- class: 3
|   |   |   |   |   |   |   |--- Housing >  0.50
|   |   |   |   |   |   |   |   |--- CommitDays <= 493.00
|   |   |   |   |   |   |   |   |   |--- InternalCollateral <= 0.50
|   |   |   |   |   |   |   |   |   |   |--- Psychological <= 0.50
|   |   |   |   |   |   |   |   |   |   |   |--- class: 5
|   |   |   |   |   |   |   |   |   |   |--- Psychological >  0.50
|   |   |   |   |   |   |   |   |   |   |   |--- class: 0
|   |   |   |   |   |   |   |   |   |--- InternalCollateral >  0.50
|   |   |   |   |   |   |   |   |   |   |--- class: 1
|   |   |   |   |   |   |   |   |--- CommitDays >  493.00
|   |   |   |   |   |   |   |   |   |--- Check-in <= 0.50
|   |   |   |   |   |   |   |   |   |   |--- class: 0
|   |   |   |   |   |   |   |   |   |--- Check-in >  0.50
|   |   |   |   |   |   |   |   |   |   |--- Mother <= 0.50
|   |   |   |   |   |   |   |   |   |   |   |--- truncated branch of depth 9
|   |   |   |   |   |   |   |   |   |   |--- Mother >  0.50
|   |   |   |   |   |   |   |   |   |   |   |--- class: 1
|   |   |   |--- CONTACT_TYPE >  5.50
|   |   |   |   |--- Vocational <= 0.50
|   |   |   |   |   |--- RRT <= 0.50
|   |   |   |   |   |   |--- InternalCollateral <= 0.50
|   |   |   |   |   |   |   |--- LifeSkills <= 0.50
|   |   |   |   |   |   |   |   |--- BehaviorManagement <= 0.50
|   |   |   |   |   |   |   |   |   |--- Check-in <= 0.50
|   |   |   |   |   |   |   |   |   |   |--- CommitDays <= 1716.00
|   |   |   |   |   |   |   |   |   |   |   |--- truncated branch of depth 41
|   |   |   |   |   |   |   |   |   |   |--- CommitDays >  1716.00
|   |   |   |   |   |   |   |   |   |   |   |--- truncated branch of depth 21
|   |   |   |   |   |   |   |   |   |--- Check-in >  0.50
|   |   |   |   |   |   |   |   |   |   |--- CurfewManagement <= 0.50
|   |   |   |   |   |   |   |   |   |   |   |--- truncated branch of depth 48
|   |   |   |   |   |   |   |   |   |   |--- CurfewManagement >  0.50
|   |   |   |   |   |   |   |   |   |   |   |--- truncated branch of depth 17
|   |   |   |   |   |   |   |   |--- BehaviorManagement >  0.50
|   |   |   |   |   |   |   |   |   |--- AncillaryServices <= 0.50
|   |   |   |   |   |   |   |   |   |   |--- CommitDays <= 301.00
|   |   |   |   |   |   |   |   |   |   |   |--- truncated branch of depth 18
|   |   |   |   |   |   |   |   |   |   |--- CommitDays >  301.00
|   |   |   |   |   |   |   |   |   |   |   |--- truncated branch of depth 59
|   |   |   |   |   |   |   |   |   |--- AncillaryServices >  0.50
|   |   |   |   |   |   |   |   |   |   |--- FamilyRelationships <= 0.50
|   |   |   |   |   |   |   |   |   |   |   |--- truncated branch of depth 21
|   |   |   |   |   |   |   |   |   |   |--- FamilyRelationships >  0.50
|   |   |   |   |   |   |   |   |   |   |   |--- truncated branch of depth 19
|   |   |   |   |   |   |   |--- LifeSkills >  0.50
|   |   |   |   |   |   |   |   |--- FamilyRelationships <= 0.50
|   |   |   |   |   |   |   |   |   |--- CommitDays <= 414.50
|   |   |   |   |   |   |   |   |   |   |--- Educational <= 0.50
|   |   |   |   |   |   |   |   |   |   |   |--- truncated branch of depth 14
|   |   |   |   |   |   |   |   |   |   |--- Educational >  0.50
|   |   |   |   |   |   |   |   |   |   |   |--- truncated branch of depth 2
|   |   |   |   |   |   |   |   |   |--- CommitDays >  414.50
|   |   |   |   |   |   |   |   |   |   |--- CommitDays <= 836.00
|   |   |   |   |   |   |   |   |   |   |   |--- truncated branch of depth 20
|   |   |   |   |   |   |   |   |   |   |--- CommitDays >  836.00
|   |   |   |   |   |   |   |   |   |   |   |--- truncated branch of depth 31
|   |   |   |   |   |   |   |   |--- FamilyRelationships >  0.50
|   |   |   |   |   |   |   |   |   |--- ExternalCollateral <= 0.50
|   |   |   |   |   |   |   |   |   |   |--- CommitDays <= 359.00
|   |   |   |   |   |   |   |   |   |   |   |--- truncated branch of depth 4
|   |   |   |   |   |   |   |   |   |   |--- CommitDays >  359.00
|   |   |   |   |   |   |   |   |   |   |   |--- truncated branch of depth 27
|   |   |   |   |   |   |   |   |   |--- ExternalCollateral >  0.50
|   |   |   |   |   |   |   |   |   |   |--- SubstanceAbuse <= 0.50
|   |   |   |   |   |   |   |   |   |   |   |--- truncated branch of depth 3
|   |   |   |   |   |   |   |   |   |   |--- SubstanceAbuse >  0.50
|   |   |   |   |   |   |   |   |   |   |   |--- truncated branch of depth 2
|   |   |   |   |   |   |--- InternalCollateral >  0.50
|   |   |   |   |   |   |   |--- CommitDays <= 1054.50
|   |   |   |   |   |   |   |   |--- CurfewManagement <= 0.50
|   |   |   |   |   |   |   |   |   |--- BehaviorManagement <= 0.50
|   |   |   |   |   |   |   |   |   |   |--- Legal <= 0.50
|   |   |   |   |   |   |   |   |   |   |   |--- truncated branch of depth 32
|   |   |   |   |   |   |   |   |   |   |--- Legal >  0.50
|   |   |   |   |   |   |   |   |   |   |   |--- truncated branch of depth 11
|   |   |   |   |   |   |   |   |   |--- BehaviorManagement >  0.50
|   |   |   |   |   |   |   |   |   |   |--- Educational <= 0.50
|   |   |   |   |   |   |   |   |   |   |   |--- truncated branch of depth 28
|   |   |   |   |   |   |   |   |   |   |--- Educational >  0.50
|   |   |   |   |   |   |   |   |   |   |   |--- truncated branch of depth 18
|   |   |   |   |   |   |   |   |--- CurfewManagement >  0.50
|   |   |   |   |   |   |   |   |   |--- Housing <= 0.50
|   |   |   |   |   |   |   |   |   |   |--- Legal <= 0.50
|   |   |   |   |   |   |   |   |   |   |   |--- truncated branch of depth 11
|   |   |   |   |   |   |   |   |   |   |--- Legal >  0.50
|   |   |   |   |   |   |   |   |   |   |   |--- class: 4
|   |   |   |   |   |   |   |   |   |--- Housing >  0.50
|   |   |   |   |   |   |   |   |   |   |--- Mother <= 0.50
|   |   |   |   |   |   |   |   |   |   |   |--- truncated branch of depth 4
|   |   |   |   |   |   |   |   |   |   |--- Mother >  0.50
|   |   |   |   |   |   |   |   |   |   |   |--- class: 1
|   |   |   |   |   |   |   |--- CommitDays >  1054.50
|   |   |   |   |   |   |   |   |--- CommitDays <= 2341.00
|   |   |   |   |   |   |   |   |   |--- CommitDays <= 1104.50
|   |   |   |   |   |   |   |   |   |   |--- CommitDays <= 1103.50
|   |   |   |   |   |   |   |   |   |   |   |--- truncated branch of depth 17
|   |   |   |   |   |   |   |   |   |   |--- CommitDays >  1103.50
|   |   |   |   |   |   |   |   |   |   |   |--- truncated branch of depth 3
|   |   |   |   |   |   |   |   |   |--- CommitDays >  1104.50
|   |   |   |   |   |   |   |   |   |   |--- BehaviorManagement <= 0.50
|   |   |   |   |   |   |   |   |   |   |   |--- truncated branch of depth 25
|   |   |   |   |   |   |   |   |   |   |--- BehaviorManagement >  0.50
|   |   |   |   |   |   |   |   |   |   |   |--- truncated branch of depth 16
|   |   |   |   |   |   |   |   |--- CommitDays >  2341.00
|   |   |   |   |   |   |   |   |   |--- Meeting <= 0.50
|   |   |   |   |   |   |   |   |   |   |--- AncillaryServices <= 0.50
|   |   |   |   |   |   |   |   |   |   |   |--- truncated branch of depth 10
|   |   |   |   |   |   |   |   |   |   |--- AncillaryServices >  0.50
|   |   |   |   |   |   |   |   |   |   |   |--- class: 4
|   |   |   |   |   |   |   |   |   |--- Meeting >  0.50
|   |   |   |   |   |   |   |   |   |   |--- CommitDays <= 2380.00
|   |   |   |   |   |   |   |   |   |   |   |--- class: 1
|   |   |   |   |   |   |   |   |   |   |--- CommitDays >  2380.00
|   |   |   |   |   |   |   |   |   |   |   |--- class: 4
|   |   |   |   |   |--- RRT >  0.50
|   |   |   |   |   |   |--- BehaviorManagement <= 0.50
|   |   |   |   |   |   |   |--- Father <= 0.50
|   |   |   |   |   |   |   |   |--- Meeting <= 0.50
|   |   |   |   |   |   |   |   |   |--- CommitDays <= 826.00
|   |   |   |   |   |   |   |   |   |   |--- RevocationHearing <= 0.50
|   |   |   |   |   |   |   |   |   |   |   |--- truncated branch of depth 13
|   |   |   |   |   |   |   |   |   |   |--- RevocationHearing >  0.50
|   |   |   |   |   |   |   |   |   |   |   |--- class: 4
|   |   |   |   |   |   |   |   |   |--- CommitDays >  826.00
|   |   |   |   |   |   |   |   |   |   |--- CommitDays <= 860.50
|   |   |   |   |   |   |   |   |   |   |   |--- truncated branch of depth 4
|   |   |   |   |   |   |   |   |   |   |--- CommitDays >  860.50
|   |   |   |   |   |   |   |   |   |   |   |--- truncated branch of depth 14
|   |   |   |   |   |   |   |   |--- Meeting >  0.50
|   |   |   |   |   |   |   |   |   |--- Mother <= 0.50
|   |   |   |   |   |   |   |   |   |   |--- CommitDays <= 400.50
|   |   |   |   |   |   |   |   |   |   |   |--- class: 4
|   |   |   |   |   |   |   |   |   |   |--- CommitDays >  400.50
|   |   |   |   |   |   |   |   |   |   |   |--- truncated branch of depth 2
|   |   |   |   |   |   |   |   |   |--- Mother >  0.50
|   |   |   |   |   |   |   |   |   |   |--- class: 0
|   |   |   |   |   |   |   |--- Father >  0.50
|   |   |   |   |   |   |   |   |--- Check-in <= 0.50
|   |   |   |   |   |   |   |   |   |--- CommitDays <= 580.50
|   |   |   |   |   |   |   |   |   |   |--- class: 0
|   |   |   |   |   |   |   |   |   |--- CommitDays >  580.50
|   |   |   |   |   |   |   |   |   |   |--- class: 1
|   |   |   |   |   |   |   |   |--- Check-in >  0.50
|   |   |   |   |   |   |   |   |   |--- InternalCollateral <= 0.50
|   |   |   |   |   |   |   |   |   |   |--- class: 1
|   |   |   |   |   |   |   |   |   |--- InternalCollateral >  0.50
|   |   |   |   |   |   |   |   |   |   |--- class: 4
|   |   |   |   |   |   |--- BehaviorManagement >  0.50
|   |   |   |   |   |   |   |--- CommitDays <= 861.50
|   |   |   |   |   |   |   |   |--- Pass <= 0.50
|   |   |   |   |   |   |   |   |   |--- Check-in <= 0.50
|   |   |   |   |   |   |   |   |   |   |--- AncillaryServices <= 0.50
|   |   |   |   |   |   |   |   |   |   |   |--- class: 1
|   |   |   |   |   |   |   |   |   |   |--- AncillaryServices >  0.50
|   |   |   |   |   |   |   |   |   |   |   |--- class: 3
|   |   |   |   |   |   |   |   |   |--- Check-in >  0.50
|   |   |   |   |   |   |   |   |   |   |--- Guardian <= 0.50
|   |   |   |   |   |   |   |   |   |   |   |--- truncated branch of depth 9
|   |   |   |   |   |   |   |   |   |   |--- Guardian >  0.50
|   |   |   |   |   |   |   |   |   |   |   |--- class: 3
|   |   |   |   |   |   |   |   |--- Pass >  0.50
|   |   |   |   |   |   |   |   |   |--- Check-in <= 0.50
|   |   |   |   |   |   |   |   |   |   |--- class: 0
|   |   |   |   |   |   |   |   |   |--- Check-in >  0.50
|   |   |   |   |   |   |   |   |   |   |--- class: 4
|   |   |   |   |   |   |   |--- CommitDays >  861.50
|   |   |   |   |   |   |   |   |--- Mother <= 0.50
|   |   |   |   |   |   |   |   |   |--- CommitDays <= 1895.00
|   |   |   |   |   |   |   |   |   |   |--- CommitDays <= 898.50
|   |   |   |   |   |   |   |   |   |   |   |--- truncated branch of depth 2
|   |   |   |   |   |   |   |   |   |   |--- CommitDays >  898.50
|   |   |   |   |   |   |   |   |   |   |   |--- class: 1
|   |   |   |   |   |   |   |   |   |--- CommitDays >  1895.00
|   |   |   |   |   |   |   |   |   |   |--- class: 4
|   |   |   |   |   |   |   |   |--- Mother >  0.50
|   |   |   |   |   |   |   |   |   |--- class: 4
|   |   |   |   |--- Vocational >  0.50
|   |   |   |   |   |--- CommitDays <= 1555.00
|   |   |   |   |   |   |--- FamilyRelationships <= 0.50
|   |   |   |   |   |   |   |--- Psychological <= 0.50
|   |   |   |   |   |   |   |   |--- CommitDays <= 827.50
|   |   |   |   |   |   |   |   |   |--- CommitDays <= 549.00
|   |   |   |   |   |   |   |   |   |   |--- CommitDays <= 311.50
|   |   |   |   |   |   |   |   |   |   |   |--- truncated branch of depth 10
|   |   |   |   |   |   |   |   |   |   |--- CommitDays >  311.50
|   |   |   |   |   |   |   |   |   |   |   |--- truncated branch of depth 24
|   |   |   |   |   |   |   |   |   |--- CommitDays >  549.00
|   |   |   |   |   |   |   |   |   |   |--- CommitDays <= 583.50
|   |   |   |   |   |   |   |   |   |   |   |--- truncated branch of depth 9
|   |   |   |   |   |   |   |   |   |   |--- CommitDays >  583.50
|   |   |   |   |   |   |   |   |   |   |   |--- truncated branch of depth 20
|   |   |   |   |   |   |   |   |--- CommitDays >  827.50
|   |   |   |   |   |   |   |   |   |--- CommitDays <= 1210.00
|   |   |   |   |   |   |   |   |   |   |--- CommitDays <= 838.00
|   |   |   |   |   |   |   |   |   |   |   |--- class: 0
|   |   |   |   |   |   |   |   |   |   |--- CommitDays >  838.00
|   |   |   |   |   |   |   |   |   |   |   |--- truncated branch of depth 23
|   |   |   |   |   |   |   |   |   |--- CommitDays >  1210.00
|   |   |   |   |   |   |   |   |   |   |--- BehaviorManagement <= 0.50
|   |   |   |   |   |   |   |   |   |   |   |--- truncated branch of depth 19
|   |   |   |   |   |   |   |   |   |   |--- BehaviorManagement >  0.50
|   |   |   |   |   |   |   |   |   |   |   |--- truncated branch of depth 8
|   |   |   |   |   |   |   |--- Psychological >  0.50
|   |   |   |   |   |   |   |   |--- Recreation <= 0.50
|   |   |   |   |   |   |   |   |   |--- Check-in <= 0.50
|   |   |   |   |   |   |   |   |   |   |--- Parent/Guardian <= 0.50
|   |   |   |   |   |   |   |   |   |   |   |--- truncated branch of depth 2
|   |   |   |   |   |   |   |   |   |   |--- Parent/Guardian >  0.50
|   |   |   |   |   |   |   |   |   |   |   |--- class: 4
|   |   |   |   |   |   |   |   |   |--- Check-in >  0.50
|   |   |   |   |   |   |   |   |   |   |--- Meeting <= 0.50
|   |   |   |   |   |   |   |   |   |   |   |--- truncated branch of depth 11
|   |   |   |   |   |   |   |   |   |   |--- Meeting >  0.50
|   |   |   |   |   |   |   |   |   |   |   |--- truncated branch of depth 2
|   |   |   |   |   |   |   |   |--- Recreation >  0.50
|   |   |   |   |   |   |   |   |   |--- class: 1
|   |   |   |   |   |   |--- FamilyRelationships >  0.50
|   |   |   |   |   |   |   |--- Legal <= 0.50
|   |   |   |   |   |   |   |   |--- Educational <= 0.50
|   |   |   |   |   |   |   |   |   |--- LifeSkills <= 0.50
|   |   |   |   |   |   |   |   |   |   |--- ExternalCollateral <= 0.50
|   |   |   |   |   |   |   |   |   |   |   |--- truncated branch of depth 17
|   |   |   |   |   |   |   |   |   |   |--- ExternalCollateral >  0.50
|   |   |   |   |   |   |   |   |   |   |   |--- class: 0
|   |   |   |   |   |   |   |   |   |--- LifeSkills >  0.50
|   |   |   |   |   |   |   |   |   |   |--- Check-in <= 0.50
|   |   |   |   |   |   |   |   |   |   |   |--- truncated branch of depth 4
|   |   |   |   |   |   |   |   |   |   |--- Check-in >  0.50
|   |   |   |   |   |   |   |   |   |   |   |--- truncated branch of depth 4
|   |   |   |   |   |   |   |   |--- Educational >  0.50
|   |   |   |   |   |   |   |   |   |--- CurfewManagement <= 0.50
|   |   |   |   |   |   |   |   |   |   |--- CommitDays <= 427.00
|   |   |   |   |   |   |   |   |   |   |   |--- truncated branch of depth 7
|   |   |   |   |   |   |   |   |   |   |--- CommitDays >  427.00
|   |   |   |   |   |   |   |   |   |   |   |--- truncated branch of depth 14
|   |   |   |   |   |   |   |   |   |--- CurfewManagement >  0.50
|   |   |   |   |   |   |   |   |   |   |--- LifeSkills <= 0.50
|   |   |   |   |   |   |   |   |   |   |   |--- truncated branch of depth 5
|   |   |   |   |   |   |   |   |   |   |--- LifeSkills >  0.50
|   |   |   |   |   |   |   |   |   |   |   |--- truncated branch of depth 4
|   |   |   |   |   |   |   |--- Legal >  0.50
|   |   |   |   |   |   |   |   |--- CommitDays <= 117.50
|   |   |   |   |   |   |   |   |   |--- class: 3
|   |   |   |   |   |   |   |   |--- CommitDays >  117.50
|   |   |   |   |   |   |   |   |   |--- CommitDays <= 1134.00
|   |   |   |   |   |   |   |   |   |   |--- class: 1
|   |   |   |   |   |   |   |   |   |--- CommitDays >  1134.00
|   |   |   |   |   |   |   |   |   |   |--- CommitDays <= 1252.50
|   |   |   |   |   |   |   |   |   |   |   |--- class: 5
|   |   |   |   |   |   |   |   |   |   |--- CommitDays >  1252.50
|   |   |   |   |   |   |   |   |   |   |   |--- class: 1
|   |   |   |   |   |--- CommitDays >  1555.00
|   |   |   |   |   |   |--- CommitDays <= 1661.00
|   |   |   |   |   |   |   |--- CommitDays <= 1630.50
|   |   |   |   |   |   |   |   |--- Check-in <= 0.50
|   |   |   |   |   |   |   |   |   |--- Educational <= 0.50
|   |   |   |   |   |   |   |   |   |   |--- AncillaryServices <= 0.50
|   |   |   |   |   |   |   |   |   |   |   |--- class: 0
|   |   |   |   |   |   |   |   |   |   |--- AncillaryServices >  0.50
|   |   |   |   |   |   |   |   |   |   |   |--- class: 1
|   |   |   |   |   |   |   |   |   |--- Educational >  0.50
|   |   |   |   |   |   |   |   |   |   |--- class: 1
|   |   |   |   |   |   |   |   |--- Check-in >  0.50
|   |   |   |   |   |   |   |   |   |--- CommitDays <= 1587.00
|   |   |   |   |   |   |   |   |   |   |--- class: 1
|   |   |   |   |   |   |   |   |   |--- CommitDays >  1587.00
|   |   |   |   |   |   |   |   |   |   |--- Housing <= 0.50
|   |   |   |   |   |   |   |   |   |   |   |--- truncated branch of depth 8
|   |   |   |   |   |   |   |   |   |   |--- Housing >  0.50
|   |   |   |   |   |   |   |   |   |   |   |--- truncated branch of depth 5
|   |   |   |   |   |   |   |--- CommitDays >  1630.50
|   |   |   |   |   |   |   |   |--- CommitDays <= 1637.00
|   |   |   |   |   |   |   |   |   |--- class: 1
|   |   |   |   |   |   |   |   |--- CommitDays >  1637.00
|   |   |   |   |   |   |   |   |   |--- BehaviorManagement <= 0.50
|   |   |   |   |   |   |   |   |   |   |--- FamilyRelationships <= 0.50
